weights
"[[[ 2.49182852e-03 -8.25067237e-03 -1.34461222e-03 ...  8.61167070e-03
   -3.73780821e-03  6.45499909e-04]
  [-4.42567188e-03 -1.88350787e-05 -1.74789131e-02 ... -1.74075942e-02
   -2.41387892e-03 -2.45446875e-03]
  [-1.45422723e-02  6.53489307e-03  4.29056808e-02 ...  2.32872367e-03
   -8.22560862e-03 -1.34951407e-02]
  ...
  [ 8.14430788e-03  4.64800792e-03  1.78648401e-02 ...  1.30022259e-03
   -1.02303829e-02 -8.59441701e-03]
  [-1.25717523e-03 -4.16684226e-04 -5.34598716e-03 ... -1.43156825e-02
   -5.26516093e-03 -1.92927010e-03]
  [ 7.58334296e-03  3.03687761e-04  1.76798610e-03 ... -6.30416349e-03
    5.41360758e-04 -2.08757468e-03]]

 [[ 5.62601024e-04 -1.57458056e-02 -1.89978105e-03 ...  3.74664553e-03
   -7.80931325e-04  7.86909834e-03]
  [-9.07994434e-03 -1.88095204e-03 -1.08374842e-02 ...  3.25201056e-03
   -8.60407297e-03 -1.06352521e-02]
  [-1.02429595e-02  8.97591282e-03  2.03796718e-02 ... -1.58790015e-02
   -3.18478863e-03 -1.46591766e-02]
  ...
  [ 2.76015643e-02  3.51342745e-02  1.60577446e-02 ... -3.92214302e-03
   -3.94038716e-03 -1.28798457e-02]
  [-9.14710574e-03  7.83217512e-03 -1.45204505e-03 ... -2.50025140e-03
    4.37620515e-03 -2.92862463e-03]
  [ 1.53262382e-02  3.19609744e-03 -3.10626184e-03 ... -1.26120343e-03
    1.93217583e-03 -4.34497744e-03]]

 [[ 1.19078634e-02  1.22632412e-02  1.10837901e-02 ... -7.12652551e-03
   -4.51076403e-03 -1.80176343e-04]
  [ 1.09123939e-04 -2.57430226e-03  5.92016324e-04 ...  1.00612864e-02
   -6.97242282e-03 -1.89536007e-03]
  [-3.65449372e-03 -5.48841013e-03  2.82002846e-03 ... -9.52219777e-03
    1.63100380e-03 -9.41131264e-03]
  ...
  [ 2.27532778e-02  2.56275944e-02  1.38883954e-02 ... -3.09439981e-03
    8.96250270e-03 -1.08324187e-02]
  [-1.14783114e-02 -4.79689304e-04 -5.75645873e-03 ...  5.71634853e-03
    1.44765461e-02 -3.67933162e-03]
  [ 1.40898814e-02 -3.01762018e-03 -1.16279358e-02 ... -3.89153371e-03
    4.75310662e-04 -1.12566911e-02]]]","[[[-9.4154263e-03 -9.8015470e-03 -3.6916784e-03 ...  8.4505826e-03
   -1.1140957e-03  1.5725980e-02]
  [-2.0522868e-02  3.4056729e-04 -1.7438177e-02 ... -1.7300326e-02
   -4.2402777e-03 -1.0372101e-02]
  [-8.1788292e-03  4.7119232e-03  5.1013855e-03 ...  2.3080893e-03
   -3.6708477e-03 -6.7467289e-03]
  ...
  [ 8.0992216e-03 -6.3664909e-03  7.0957281e-03 ...  1.5561082e-02
   -4.0018396e-03  8.5291866e-04]
  [ 9.4624083e-06 -4.8034871e-03  6.3856724e-03 ... -1.6691893e-02
    7.4261450e-03 -5.2250936e-03]
  [ 6.2334687e-03 -8.4563512e-03  1.2862538e-02 ...  7.5586485e-03
    3.6082265e-03  1.0203712e-02]]

 [[-9.6614379e-03 -1.6603135e-02 -3.7545634e-03 ...  3.7767927e-03
    8.8561175e-04  3.9042339e-02]
  [-2.2990264e-02 -5.4813782e-04  6.2610423e-03 ...  3.0962219e-03
   -1.1279774e-02 -2.2140678e-02]
  [-7.3436322e-03  9.9754781e-03 -1.5996279e-02 ... -2.0113261e-02
    4.0410156e-03 -1.3081130e-02]
  ...
  [ 2.9111659e-02  2.5629522e-02 -5.1802178e-03 ...  1.6448274e-02
    9.8997110e-04 -5.7111951e-03]
  [-3.5965662e-03  3.9273743e-03  1.1598566e-02 ... -4.3597398e-03
    1.2872769e-02 -3.0685791e-03]
  [ 1.4893651e-02 -2.7908159e-03  1.2003179e-02 ...  1.3783277e-02
    1.0513472e-02  2.3410853e-02]]

 [[ 4.7423175e-04  3.6374128e-03  2.1536553e-02 ... -1.8999982e-03
   -5.1547810e-03  1.3161937e-02]
  [-9.1840066e-03  1.9345455e-03  1.0911081e-02 ...  9.1457600e-03
   -8.2155718e-03 -8.3078854e-03]
  [-1.6944491e-03 -4.3645673e-03 -2.2665370e-02 ... -1.3880543e-02
    1.0611234e-02 -1.1003776e-02]
  ...
  [ 2.1635797e-02  1.7481850e-02 -4.6765846e-03 ... -9.5866492e-04
    1.3751413e-02 -7.6116077e-03]
  [-1.9048585e-03 -4.5754467e-03  5.0440421e-03 ...  7.4949008e-03
    2.1867173e-02 -5.6451242e-03]
  [ 1.0653907e-02 -6.4326953e-03 -5.0456665e-04 ...  8.1015322e-03
    1.1082502e-02  1.7014114e-02]]]","[[[-4.5013661e-03 -6.0241120e-03  3.1187348e-03 ... -5.4465584e-04
    2.4148442e-03  2.5658576e-02]
  [-1.6062357e-02  2.6195857e-03 -4.1109347e-03 ... -1.5211322e-02
   -2.4439616e-03 -9.4061168e-03]
  [ 1.0386734e-02  9.9381125e-03 -6.6321413e-03 ...  4.5742319e-04
   -1.4117124e-03  1.7440014e-03]
  ...
  [-3.6483610e-03 -3.0932867e-03 -1.0680705e-02 ...  1.1280553e-02
   -2.4181999e-04  9.9713625e-03]
  [ 2.1947063e-04 -1.8003024e-03  4.3147616e-03 ... -1.5566236e-02
    1.0136313e-02 -5.8225067e-03]
  [-1.9460333e-03 -1.3303460e-02  1.0048865e-02 ...  1.5758110e-02
    6.3871886e-03  9.5752440e-03]]

 [[-1.4784359e-03 -1.0267634e-02  1.7279052e-03 ... -7.4471310e-03
    7.7707670e-03  6.3212514e-02]
  [-1.5583002e-02 -9.0681802e-04  1.3831770e-02 ...  1.8658672e-03
   -1.3147642e-02 -2.0181127e-02]
  [ 4.0606095e-04  1.3002355e-02 -2.3365524e-02 ... -2.1347703e-02
    1.2581292e-02 -6.8677496e-03]
  ...
  [ 8.5224900e-03  2.3036687e-02 -2.1442313e-02 ...  2.3171596e-02
    7.8193387e-03  9.3740486e-03]
  [ 3.0380706e-03  3.0332853e-04  1.4686012e-02 ... -4.2652586e-03
    1.5757406e-02 -4.5522843e-03]
  [-1.3084176e-03 -5.1851636e-03  4.1437973e-03 ...  2.4513597e-02
    1.4602938e-02  2.0934677e-02]]

 [[ 1.0579222e-02  7.7122296e-03  1.6045878e-02 ... -1.1433547e-02
    1.8061967e-04  3.8526490e-02]
  [-3.4005470e-03  3.2482811e-03 -2.4691520e-03 ...  1.2059963e-02
   -8.4213214e-03 -9.3969340e-03]
  [-6.2799244e-03  5.4881053e-05 -3.3948556e-02 ... -1.6711095e-02
    2.0169718e-02 -9.9183479e-03]
  ...
  [ 6.4401994e-03  1.7393256e-02 -1.2341926e-02 ...  4.0653506e-03
    1.5626948e-02  4.6498133e-03]
  [ 4.3199486e-03 -6.2865382e-03  1.3471989e-02 ...  1.5908292e-02
    2.0716025e-02 -4.5347931e-03]
  [-8.8590607e-03 -5.8111572e-03 -5.5044290e-04 ...  1.1779662e-02
    1.6239740e-02  2.1894354e-02]]]"
0.035415243,0.10791802,-0.018000457,0.043317307,-0.055972114,0.037675068,0.07402623,0.01167119,-0.04171805,-0.11740789,0.06783632,0.12218335,0.020512512,0.03728917,-0.017610215,-0.05291373,0.13104628,-0.026491368,-0.00034357674,-0.017348962,-0.0004910211,-0.029399201,-0.018022362,0.03438773,0.10529672,-0.030903962,-0.056340504,-0.029147815,-0.05646372,0.1736878,0.021761544,0.20427257,0.017816702,-0.020829909,0.035779644,-0.03395951,0.0041363793,0.05322998,0.06117843,-0.022459164,0.025384916,0.0072690705,0.13982022,0.13645805,-0.04595988,0.011534269,0.032295257,-0.14288792,-0.0012800848,-0.025039915,0.09683922,-0.088835396,0.041074023,-0.030008797,0.2818828,0.050560012,-0.013481184,0.059296228,-0.02920301,0.00909703,0.002904369,0.073508985,-0.006010271,-0.04778415,0.007364563,-0.06642604,-0.06093101,0.36774898,-0.011695354,0.04413126,0.013225279,0.22663234,0.09524777,-0.023943482,-0.057917893,-0.059456497,-0.080951534,0.04826521,0.0071742125,0.024149036,-0.019813975,0.02849631,-0.080039755,0.23801802,-0.030561734,0.10058996,0.014495831,0.03774005,0.077413045,0.13072576,0.0796947,-0.0014563777,-0.031944275,-0.015108185,0.0352219,-0.042696103,0.16876,0.02801413,0.17851323,-0.043445136,-0.023775777,-0.034740888,-0.014986625,0.056677245,0.12911117,0.06487823,-0.014475487,-0.02244943,-0.025403706,0.039630808,-0.025622627,-0.05031549,-0.049762405,0.002234013,-0.0217827,-0.028931012,-0.024534523,-0.010205742,-0.005171275,0.13502575,0.09889816,-0.0156548,-0.0930539,-0.077105075,-0.016918784,-0.049786758,-0.020510085,-0.024022633,0.11017413,0.00645433,-0.06353998,-0.010042636,0.061285358,0.069049984,0.005012229,0.03433638,0.07830274,-0.0507733,0.014016459,-0.06672395,0.0406932,0.026864726,-0.06078861,-0.009315037,-0.026261197,0.003054197,-0.013476518,0.09737283,0.17862259,0.045059796,0.054269016,0.0746591,-0.008956602,0.072245404,-0.036818344,-0.02303036,0.07669659,0.14669703,0.0021357324,0.07852597,0.0034282128,0.11110473,0.04244533,0.10937582,-0.06041219,-0.00860929,0.048575073,0.02855938,0.1599544,-0.0030541194,0.034598537,-0.04951585,1.7459519e-05,-0.09631917,-0.047864106,-0.039117265,-0.04340334,0.04529889,0.065577365,-0.027210627,-0.021216834,0.14670971,0.03163289,0.088655226,0.028937945,0.027344935,-0.02538449,-0.019059148,-0.0037876936,-0.058658957,0.0694475,0.0980709,-0.0576755,0.05849808,0.21133217,0.0030642527,-0.026617711,0.0875359,0.13814965,0.23381437,0.20212217,-0.005105971,-0.02802191,0.057754632,-0.0054555414,0.1329736,-0.06440195,0.010230699,0.021139592,-0.008470954,-0.014687349,-0.008902422,0.15783493,0.107433885,0.0752661,-0.06600776,-0.026308749,-0.025003122,-0.055899035,0.014952956,0.10683843,0.2111648,0.12307257,-0.029884852,-0.015913066,-0.044107217,-0.03216619,-0.017961469,0.00022574769,-0.07317816,0.09498097,-0.049822126,0.0051455405,-0.056189567,0.07969633,0.13923399,0.056633253,0.03338533,-0.055244178,-0.01100039,0.13276039,0.108468086,-0.09704536,0.049520403,-0.024750633,-0.01516344,0.59477174,0.06861225,0.120992266,0.04660773,-0.036298074,-0.014072049,0.1710038,-0.0060511944,0.0059940466,-0.026757497
