weights
"[[[ 2.48631509e-03  3.29096033e-03 -3.13071609e-02 ...  4.71851649e-03
    6.10046380e-04  1.08059337e-02]
  [ 1.36040282e-02  3.80906137e-03 -3.50438058e-02 ...  8.50365497e-03
    4.99894470e-03  2.45373725e-04]
  [-1.02960337e-02  1.11045251e-02 -1.05560301e-02 ...  1.18119251e-02
    4.14630165e-03  1.04994141e-02]
  ...
  [ 2.14050314e-03  2.17348989e-03 -4.09283377e-02 ... -8.34189355e-03
    2.35738587e-02 -1.85471829e-02]
  [ 1.61261633e-02  8.04742594e-05 -3.95269990e-02 ... -3.94453527e-03
    8.42030905e-03 -6.98040065e-04]
  [-3.51465750e-03  1.08316056e-02 -2.23830044e-02 ...  1.92155335e-02
    4.21972945e-03 -1.55707300e-02]]

 [[ 6.11093594e-03  5.44822821e-03  1.57541838e-02 ...  5.60781872e-03
    1.93978904e-03  1.49202365e-02]
  [-3.13426033e-02  1.45718846e-02  1.18744513e-02 ...  1.21863568e-02
    1.49443159e-02  2.60730181e-03]
  [-2.32275911e-02  2.08911151e-02  1.11537259e-02 ...  2.36150771e-02
    1.06090466e-02  4.31246823e-03]
  ...
  [ 2.83093913e-03  5.63543057e-03  1.72611587e-02 ... -2.76210159e-03
    3.27554196e-02 -1.73731633e-02]
  [ 4.87203449e-02  1.24137765e-02  3.64911221e-02 ...  9.30428132e-03
    5.34809241e-03  6.80550281e-03]
  [-2.03473382e-02  1.38210657e-03 -2.35674269e-02 ...  3.24176252e-02
    2.19412390e-02 -3.02630980e-02]]

 [[ 1.05408970e-02  7.44795799e-03 -3.36561389e-02 ...  2.62853602e-04
   -6.13683043e-03  1.33312661e-02]
  [-3.32584940e-02  1.55691411e-02 -2.89147953e-04 ... -3.60562908e-03
    1.49507467e-02  7.65243312e-03]
  [ 3.94205609e-03  1.48937441e-02 -1.59246754e-02 ...  1.39236227e-02
    3.22588254e-03  6.02472946e-03]
  ...
  [ 9.61219659e-04 -2.27980153e-03 -4.54332307e-02 ... -8.10870901e-03
    3.84118455e-03 -1.65238492e-02]
  [ 2.77294349e-02  1.70650017e-02  2.01114286e-02 ...  8.16452038e-03
    4.37149359e-03  8.13044887e-03]
  [-1.77335721e-02  1.02985008e-02 -3.90648767e-02 ...  2.65211053e-02
    1.88891459e-02 -1.68677885e-02]]]","[[[ 0.00449298 -0.00398076  0.01722104 ...  0.00842886 -0.00010497
    0.00574579]
  [-0.00400592 -0.02417697 -0.01109287 ... -0.01526796  0.00681134
   -0.00305488]
  [-0.01563769 -0.0050001   0.00481709 ...  0.00551846  0.00462341
    0.00528824]
  ...
  [ 0.00378267 -0.00720065  0.02245717 ...  0.01217342  0.01661808
   -0.02852271]
  [ 0.00354971 -0.00791175  0.00650567 ...  0.00575854 -0.00052543
   -0.0032911 ]
  [ 0.00242216 -0.01421117  0.03405327 ... -0.00809886  0.00640509
   -0.02323554]]

 [[ 0.00658771 -0.00384311  0.06623388 ...  0.00546264  0.00269173
    0.00938945]
  [-0.05543555 -0.02008097  0.0339178  ... -0.02657944  0.00777757
    0.01453309]
  [-0.00556085 -0.0138856   0.03959812 ... -0.00072583  0.00443887
    0.00262149]
  ...
  [ 0.00270528 -0.0054539   0.08944737 ...  0.02451141  0.05105852
   -0.03435452]
  [ 0.05077563  0.00151661  0.08185928 ...  0.02163856  0.01261267
    0.00181507]
  [-0.02273368 -0.03009536  0.03852532 ... -0.00951037  0.00818073
   -0.03709273]]

 [[ 0.00595341  0.00089432  0.01058355 ...  0.00048983  0.00052444
    0.00938477]
  [-0.04078116  0.00478578  0.01447892 ... -0.00562724 -0.00048581
    0.01290667]
  [ 0.01341292 -0.01180219  0.00419148 ... -0.00813282 -0.00446207
    0.00842996]
  ...
  [ 0.00152342 -0.00647965  0.01006795 ...  0.01563029  0.03722959
   -0.03217332]
  [ 0.03963816  0.01587696  0.03922913 ...  0.0172687   0.02419796
    0.00591078]
  [-0.01797832 -0.02944276  0.01282693 ... -0.01600666 -0.00516921
   -0.0200249 ]]]","[[[ 4.85232845e-03 -2.46043317e-03 -9.62745398e-03 ...  1.07441526e-02
   -2.84585054e-03 -1.90984423e-03]
  [-1.19528649e-02 -1.80358142e-02 -3.36395353e-02 ... -1.47682996e-02
    1.02861486e-02 -3.36993136e-03]
  [ 4.98365518e-03 -1.66885350e-02 -1.20581677e-02 ... -1.59126818e-02
    1.31858326e-02  2.94562749e-04]
  ...
  [-5.69525547e-03 -1.74089391e-02 -3.64525653e-02 ...  7.06359418e-03
   -1.58607736e-02 -2.61105206e-02]
  [-3.87686165e-03 -2.40983404e-02 -5.60978092e-02 ... -1.22877983e-02
   -3.04629817e-03 -1.03539054e-03]
  [ 1.35685736e-02 -2.09947508e-02 -1.52395582e-02 ... -2.87993886e-02
    1.74087044e-02 -1.86969731e-02]]

 [[ 1.45290594e-03 -6.42601680e-03  1.14819771e-02 ...  1.17859095e-02
    8.51634599e-04 -2.82667065e-03]
  [-2.43061744e-02 -1.82640739e-02  1.50347399e-02 ... -2.63812207e-02
    2.30616182e-02  4.71212249e-03]
  [ 1.60123650e-02 -1.25727728e-02  1.22705530e-02 ... -1.90321188e-02
    1.43274162e-02 -9.16460936e-04]
  ...
  [ 2.31739320e-03 -1.62090212e-02  1.71782896e-02 ...  1.23864021e-02
    7.53226131e-03 -2.98976954e-02]
  [ 1.98312830e-02 -1.12192128e-02  1.70756541e-02 ... -1.62761565e-02
   -2.72694766e-03 -1.83170743e-03]
  [-3.89542966e-03 -3.53942066e-02 -1.64013300e-02 ... -4.73240092e-02
    1.97671168e-02 -2.87492648e-02]]

 [[ 1.00636412e-03 -5.19909943e-03 -3.75667326e-02 ...  7.44984252e-03
    4.31809276e-05 -3.22302600e-04]
  [-1.04536200e-02 -9.70086199e-04  1.94423497e-02 ... -1.29293650e-04
    9.82195791e-03 -1.07756234e-03]
  [ 5.58500132e-03 -1.86028529e-03 -8.09577946e-03 ... -6.18272461e-03
    1.71643522e-04  7.06695300e-03]
  ...
  [-3.72283580e-03 -1.86357144e-02 -4.54351157e-02 ...  1.30783571e-02
    3.22722102e-04 -3.35289426e-02]
  [ 1.59978885e-02  8.11644178e-03 -1.23626338e-02 ...  2.87816068e-03
    2.04773736e-03 -6.40190148e-04]
  [-4.09534993e-03 -3.75131555e-02 -3.33721489e-02 ... -4.82492335e-02
    3.41874664e-03 -1.31510263e-02]]]"
-0.074358866,-0.007821423,0.19985807,0.0586251,0.025237946,0.011254063,0.13167231,0.09022428,0.14959268,-0.035039842,0.0061403015,-0.008111179,-0.0050533023,-0.10122614,-0.051991645,0.013983061,0.10728761,0.018581657,-0.08914137,0.09853224,0.14027384,-0.02210219,0.021690454,-0.008713205,0.048059583,0.048208628,0.1463084,0.012159508,-0.032853305,0.0822635,-0.07400402,0.07762863,0.030420048,-0.02720252,0.015559331,0.001183548,-0.09052574,-0.103295766,-0.036528323,-0.059955057,0.11764657,0.020031512,-0.017181886,0.034101587,-0.06835629,0.039034974,0.001338126,-0.058452755,-0.018694501,-0.031024126,-0.050895248,0.001035045,0.01680158,0.06095657,-0.05968981,0.07870343,0.012780727,0.0819958,-0.0032907906,0.105128504,-0.014253742,0.050140277,0.00033559356,0.07928807,-0.041896775,0.08438063,-0.02048408,-0.005146047,0.056346644,0.046329837,0.04955971,-0.061219394,0.12249175,0.06752637,0.04257842,0.15894447,0.033312593,-0.035167493,0.026588302,0.017278554,-0.00015514514,-0.027789438,-0.059204176,0.07751842,0.11086965,0.05675135,0.02832658,-0.15315673,-0.046525616,-0.0283089,-0.022290822,0.01969098,0.005580214,0.04270544,-0.10214978,0.0011488312,-0.09668058,-0.08413234,0.06235597,0.10956111,0.007006918,-0.055002987,-0.04918494,-0.017614778,-0.024000436,0.08587636,0.05701809,0.13977084,-0.0941964,0.17255872,0.0154925585,-0.024438683,0.05994742,0.08235802,0.0012681338,-0.006254169,0.15867415,0.057636473,0.017460957,0.14964116,-0.008725009,-0.024160005,0.004935576,0.07582347,-0.16874807,-0.042562906,-0.05204742,-0.15486987,-0.06915777,-0.07062679,0.0456875,-0.032076,-0.20097896,-0.14166832,0.07839288,0.038193163,-0.008140759,-0.030344129,-0.0027372353,0.0104369465,0.037248652,-0.007184543,0.078775465,0.023297358,0.041269578,0.11899058,0.073538296,0.0056965766,0.09873668,0.018742671,0.103674,-0.0066392864,-0.026200298,0.030298896,0.014647584,0.0910094,-0.07527187,0.026343742,0.16608304,-0.049396534,-0.000930523,0.036439538,-0.043893453,0.064885795,-0.029473808,0.09189327,-0.030905806,0.028356224,0.0028277072,-0.032991864,0.058534328,-0.050437152,-0.036276624,-0.043230765,-0.06578075,-0.036667228,-0.024191946,-0.060445845,0.056069415,0.0034867192,0.13137756,-0.056761533,-0.03715949,0.037777584,0.112982266,0.042219575,0.06631535,-0.046713535,-0.09429661,-0.009687278,-0.013371917,0.17079818,-0.022210177,-0.01396983,0.09838645,0.049436845,0.07700767,0.010114998,-0.09578283,0.04990442,-0.015509184,0.082951725,0.012714855,-0.02469064,0.06825642,0.09565331,0.20512773,-0.018852292,-0.0062160897,0.033948902,-0.015834669,0.069790035,0.096950956,0.13823459,0.004952153,0.053994436,-0.00961966,0.04537986,0.12527516,0.0062829014,0.019630577,-0.014651729,-0.04269392,-0.05987631,-0.049308397,-0.009136769,0.07500481,0.11940427,0.042156447,-0.03569781,0.062296305,-0.055698875,-0.00898352,0.046767086,0.11555381,0.0015488575,-0.06531476,-0.0027618809,-0.028873738,0.34949613,0.13275932,0.07412479,0.0090646865,0.00085800653,0.023575442,-0.034307957,0.054253206,0.031449527,0.0039394326,0.06625993,0.08037452,-0.029116355,-0.019869104,0.052503522,-0.04464494,-0.027863992
