weights
"[[[ 0.16621928  0.14270182 -0.00402113 ...  0.06188282 -0.01740571
   -0.03006444]
  [ 0.00946945  0.00387477  0.05083659 ... -0.02779817  0.00171374
    0.00682723]
  [ 0.06326818  0.02128777 -0.01634653 ...  0.00088005  0.00668104
   -0.0014114 ]
  ...
  [ 0.00347491  0.08470196 -0.04072232 ... -0.01135232 -0.00748998
    0.00319077]
  [ 0.05972341  0.04976635 -0.00323119 ...  0.01431144  0.03031754
   -0.04239257]
  [ 0.13345967  0.04954842 -0.0178808  ...  0.02253852  0.03020207
   -0.0217075 ]]

 [[ 0.212008    0.02101276 -0.01476261 ...  0.02295805  0.01231023
   -0.03084228]
  [-0.00262175  0.00742094  0.06740309 ... -0.03065943  0.00180578
    0.00427369]
  [ 0.02271978 -0.0107841  -0.01310955 ... -0.0115752   0.04183597
   -0.00192269]
  ...
  [-0.00270304  0.07411617 -0.03322623 ... -0.01102772  0.01398313
    0.00534419]
  [-0.03205063 -0.02405849 -0.00452398 ... -0.00604043  0.2019626
   -0.05044915]
  [ 0.01681142 -0.02331673 -0.01408861 ... -0.00779278  0.1284286
   -0.02581845]]

 [[-0.00591699 -0.02262237  0.00488128 ...  0.00041378 -0.04841755
    0.00163675]
  [-0.00393768  0.00907398  0.05365173 ... -0.0256107  -0.00417886
    0.00247476]
  [-0.03070089 -0.01097819 -0.00369096 ... -0.0119222  -0.01397779
    0.00852934]
  ...
  [ 0.00583333  0.02961981 -0.03565712 ... -0.01011534  0.0050609
   -0.00286859]
  [-0.07809341 -0.01956931  0.02148143 ...  0.00742453  0.05416179
   -0.02357908]
  [-0.0782642  -0.02470342  0.01362506 ... -0.0075326  -0.0259861
    0.00452144]]]","[[[ 1.99202523e-01  5.03257252e-02 -1.93236247e-02 ...  1.62308700e-02
   -1.15369558e-02  1.55777042e-03]
  [-1.38656620e-03  4.52297740e-03  6.65066689e-02 ... -3.00004911e-02
    1.71904117e-04 -1.11898372e-03]
  [ 2.14257818e-02  1.79782789e-03 -1.76792312e-02 ... -6.09106943e-03
   -3.21686491e-02 -1.07312342e-03]
  ...
  [-1.47800148e-02  7.77616128e-02 -2.67065037e-02 ... -8.10234528e-03
   -1.15585206e-02 -5.30505227e-03]
  [-1.39283072e-02  1.69547591e-02 -1.20282415e-02 ...  1.25513040e-02
   -8.44068080e-02 -4.48253192e-02]
  [ 2.55671684e-02  7.02229328e-03 -2.82986648e-02 ...  1.17048556e-02
   -7.34802186e-02 -2.06979234e-02]]

 [[-2.59410664e-02 -4.97468375e-02 -2.42083799e-02 ... -2.39597876e-02
    2.09030695e-02  1.69499479e-02]
  [-4.78290301e-03  1.04173329e-02  8.31823424e-02 ... -3.18786576e-02
    3.48328054e-03 -3.56311840e-03]
  [-3.81173752e-02 -1.85197107e-02 -1.43900532e-02 ... -1.41960718e-02
    3.14613059e-02  4.11967095e-03]
  ...
  [-1.79932006e-02  7.17700496e-02 -1.99375115e-02 ... -6.12784317e-03
    1.66521706e-02 -7.48346280e-03]
  [-8.91536921e-02 -4.69055325e-02 -1.37380632e-02 ... -8.06835108e-03
    6.04359731e-02 -4.47445139e-02]
  [-1.00021079e-01 -3.55393849e-02 -2.46136412e-02 ... -7.50665693e-03
    9.11064222e-02 -1.06519591e-02]]

 [[-9.84916389e-02 -5.77464141e-02 -4.49889433e-03 ... -2.21592579e-02
   -9.32130869e-03  5.57853021e-02]
  [ 4.70533501e-03  1.18583711e-02  6.85855076e-02 ... -2.62385849e-02
   -2.82203127e-03 -4.67023626e-03]
  [-2.28894763e-02 -7.75412470e-03 -9.86886956e-03 ... -1.22523597e-02
    4.30414118e-02  1.28994938e-02]
  ...
  [ 2.93275771e-05  1.62800644e-02 -2.53228396e-02 ... -8.11440870e-03
    9.42004658e-03 -1.69352964e-02]
  [-4.56118677e-03 -3.88334878e-02 -8.15101550e-04 ... -7.37672672e-05
    2.05828294e-01 -1.84731018e-02]
  [-3.79626676e-02 -1.82646457e-02 -7.20302528e-03 ... -1.28044421e-03
    1.40015617e-01  1.13147246e-02]]]","[[[-0.01115857 -0.00415539 -0.00683113 ...  0.00317358 -0.0652847
    0.08594564]
  [-0.00614584  0.00485422  0.05146275 ... -0.02237774 -0.00103413
   -0.00819015]
  [-0.0100107  -0.00159974 -0.01140921 ... -0.00387838 -0.03992936
    0.01135895]
  ...
  [-0.01688603  0.05182553 -0.02660149 ... -0.00199763  0.0043556
   -0.04493304]
  [-0.01341462  0.00632186 -0.00733474 ...  0.00459015 -0.02986111
    0.03692219]
  [-0.02888585 -0.00422424 -0.01428976 ...  0.01118233 -0.07521329
    0.01672423]]

 [[-0.10211428 -0.05265586 -0.01002381 ... -0.01378012 -0.04947533
    0.12595342]
  [ 0.0026535   0.01040757  0.06731492 ... -0.02375898  0.00061397
   -0.00996602]
  [-0.01507032 -0.01288713 -0.00877845 ... -0.01016402 -0.04762902
    0.01367175]
  ...
  [-0.00543789  0.03358882 -0.02111517 ... -0.00383131 -0.01023014
   -0.05329242]
  [-0.02218913 -0.0492078  -0.01388676 ... -0.01285688 -0.09370078
    0.05593099]
  [-0.02611668 -0.03501483 -0.01478168 ... -0.00286548 -0.10110191
    0.01944199]]

 [[ 0.02734016 -0.03544289  0.00118577 ...  0.00050294  0.04512981
    0.12352082]
  [ 0.00948382  0.01128586  0.05329167 ... -0.01811959 -0.00131688
   -0.01010925]
  [ 0.03734952 -0.00793822 -0.00594039 ... -0.00796878  0.01532746
    0.00963651]
  ...
  [-0.02604138 -0.02536351 -0.02813821 ... -0.00663972 -0.00726283
   -0.05578551]
  [ 0.02674886 -0.04737274 -0.00306199 ... -0.00482001  0.04086176
    0.06994449]
  [ 0.07988593 -0.0287372   0.00063809 ...  0.00097339  0.04215572
    0.01608244]]]"
-0.30912212,0.36397225,0.13737613,0.07717966,0.9052184,0.08885256,0.10789118,-0.23106739,-0.6318097,0.18161367,-0.33391494,0.1961724,0.43838617,0.1938708,0.108943544,0.10315038,-1.0271513,0.052526884,0.13118458,0.22851577,-0.71377224,0.2154155,-0.6981962,0.040611316,0.13955347,0.28767544,0.35358745,0.3937295,0.43452853,-0.48259264,0.026311208,0.09220165,0.051963978,0.550705,0.32368094,0.072634816,-0.17745508,0.3761972,0.39344102,0.17673127,-0.15784228,0.26051855,0.08342359,0.086037055,-0.09131282,0.22932515,0.2998315,0.13511261,-0.3835829,0.10912544,-0.53432876,0.4741787,-0.0740848,0.30046257,0.12590808,0.16480374,0.2403943,0.23401979,-0.19334187,0.016635647,0.27144948,0.033857856,0.060762916,-0.5825159
