weights
"[[[ 7.11654220e-03  7.00819055e-06  9.24700499e-03 ...  4.03929735e-03
    8.05561524e-03 -3.74245713e-03]
  [ 1.12781115e-03  1.61532906e-03 -9.08267568e-04 ... -7.93790072e-03
   -4.59095975e-03 -8.13464867e-04]
  [-4.63789236e-03 -1.18727237e-02  6.58529717e-03 ...  7.42091658e-03
   -6.53812988e-03 -2.42086244e-03]
  ...
  [ 1.28063676e-03  1.49819313e-03  7.28668272e-03 ... -5.99841867e-03
   -2.01151473e-03 -1.18386478e-03]
  [-4.89709014e-03 -6.26946846e-03 -5.09714335e-03 ...  1.26905064e-03
    1.07506765e-02 -2.44210777e-03]
  [ 2.12570513e-03 -3.61318327e-03 -7.26481713e-03 ...  3.64817417e-04
    1.50787262e-02  4.10703570e-03]]

 [[ 6.64269971e-03 -6.01840531e-03  9.42177977e-03 ...  4.53453884e-03
    4.71206789e-04  3.50896595e-03]
  [-1.24128824e-02  1.62265194e-03  2.18410187e-05 ... -9.26828291e-03
   -1.32720219e-02  7.84974638e-03]
  [-2.27750093e-03 -1.37851508e-02  6.04773080e-03 ...  5.82123734e-03
   -4.03309939e-03 -3.08526703e-03]
  ...
  [ 9.42836609e-03 -7.80543603e-04  1.71435010e-02 ... -7.94082507e-03
   -7.73798907e-04  3.02146119e-03]
  [-3.22291674e-03 -2.85354297e-04 -2.08436535e-03 ... -4.60813055e-03
   -5.56954136e-03  6.86109858e-03]
  [ 9.59297060e-04  7.38721387e-03 -8.91729910e-03 ... -1.65850704e-03
    7.24582188e-03  6.19835919e-03]]

 [[ 2.34439736e-03 -9.28215683e-03 -3.19302635e-04 ...  8.40835925e-03
    4.12485213e-04  3.09582963e-03]
  [-1.55776711e-02 -1.08954648e-03 -4.28956561e-03 ... -1.46012632e-02
   -1.17095094e-03 -1.09702547e-03]
  [-7.46384822e-03 -6.07428560e-03  1.01981256e-02 ... -3.00147524e-03
    6.63558196e-04 -6.11750875e-03]
  ...
  [ 4.24216688e-03  4.56949836e-03  8.23827088e-03 ... -5.40188514e-03
   -8.07413179e-03  1.09999124e-02]
  [-7.86238699e-04  1.90356933e-03  1.71771063e-03 ... -2.16562231e-03
   -1.10405972e-02  9.30893887e-03]
  [ 6.02629362e-03  1.86428446e-02 -1.34665128e-02 ... -8.40879139e-03
    7.48337386e-03 -4.10805363e-03]]]","[[[ 5.4461109e-03 -9.1842178e-04  9.7792046e-03 ... -1.1916526e-04
   -3.4091668e-03 -6.9873463e-03]
  [ 2.5141069e-03  4.6023726e-03 -2.4617340e-03 ... -5.4885261e-03
   -7.0989886e-03  5.4202182e-03]
  [-9.0582827e-03 -1.0024211e-02  2.9446559e-03 ...  9.0154838e-03
    6.3727703e-04 -2.1891554e-03]
  ...
  [-3.0079000e-03 -9.6622760e-05  1.8570826e-03 ... -2.4240951e-03
    2.3420622e-04 -3.2746550e-03]
  [-5.0146291e-03 -3.5011463e-03 -6.0879178e-03 ... -7.9681020e-04
    2.8467629e-02 -1.1330202e-02]
  [-8.5228356e-03 -1.0742276e-02 -2.8467770e-03 ...  6.3641407e-03
    1.5579318e-02  2.6297206e-03]]

 [[ 6.3404259e-03 -5.5517764e-03  1.1212202e-02 ...  3.8486201e-04
   -7.3939920e-03 -2.5923341e-03]
  [ 1.8379708e-03  4.3706722e-03 -2.1664097e-03 ... -9.7209960e-03
   -4.3312344e-03  6.8478566e-03]
  [-2.5212863e-03 -9.2500802e-03  5.3891982e-03 ...  6.0165250e-03
    7.3999753e-03 -3.4786423e-03]
  ...
  [ 6.5419800e-03 -1.8053497e-03  6.8747862e-03 ... -2.9662566e-03
    7.1987035e-03 -3.4961209e-03]
  [-1.2001458e-02 -9.5518405e-04  3.2155078e-03 ... -6.8667508e-03
    3.8102958e-03 -1.3595314e-03]
  [-1.3307688e-02 -5.9578493e-03  2.0084747e-03 ...  3.7131156e-03
   -4.8505799e-03  6.5980488e-03]]

 [[ 2.9042400e-03 -9.8966183e-03  1.9174141e-03 ...  5.6552375e-03
   -6.1008963e-03 -2.4211830e-03]
  [-3.4968271e-03  1.7288636e-04 -5.8790944e-03 ... -1.2807069e-02
    4.4358564e-03  6.8061491e-03]
  [-1.0908743e-02 -7.7315560e-03  1.1357160e-02 ... -1.8577840e-03
    4.5332052e-03 -6.2882560e-03]
  ...
  [ 4.7011813e-03  1.7319436e-03  2.6349721e-03 ...  2.4457457e-03
   -1.3333006e-03 -3.4395744e-06]
  [-8.9308601e-03  3.5243512e-03  3.1115641e-03 ... -6.0617942e-03
   -1.8005861e-02  1.2556028e-02]
  [-1.1832464e-02  8.8305427e-03  3.1537667e-03 ... -1.9696590e-03
   -5.6801783e-03  7.0800385e-03]]]","[[[ 0.00875416 -0.0043664   0.00488168 ...  0.00083902 -0.0059974
   -0.01242128]
  [ 0.00401802  0.00035157  0.00397935 ...  0.01033336 -0.01191195
    0.01452597]
  [-0.01230627 -0.00749821 -0.00116881 ...  0.01003723  0.00378592
   -0.00327528]
  ...
  [ 0.00039238 -0.00511869 -0.00572134 ... -0.00519907  0.00244495
   -0.00264277]
  [ 0.00315165  0.0046     -0.00449595 ... -0.00707746  0.02203178
   -0.00998179]
  [ 0.00248351 -0.00445801 -0.00141727 ...  0.01146062  0.02318009
    0.00190563]]

 [[ 0.00947191 -0.00394198  0.00383985 ...  0.00204855 -0.00398352
   -0.00907041]
  [ 0.00409902 -0.00055256  0.0099547  ...  0.00661445  0.00168336
    0.00598632]
  [-0.00533674 -0.00310068 -0.0026811  ...  0.00630003  0.0092303
   -0.00112452]
  ...
  [ 0.00342692 -0.00357319 -0.00367653 ... -0.0029666   0.00297217
   -0.00551825]
  [-0.00608776 -0.00316021 -0.00334904 ... -0.01022448  0.00509558
   -0.00777695]
  [-0.00622822 -0.0055574   0.01330999 ...  0.01530193 -0.00171304
    0.00384858]]

 [[ 0.00673177 -0.00776051 -0.00160716 ...  0.00337522 -0.00343737
   -0.00708474]
  [-0.00192464 -0.00143057  0.00168075 ...  0.0001186   0.00435966
    0.00503915]
  [-0.00446903 -0.00752294 -0.00374622 ... -0.00022852  0.00021622
   -0.00152037]
  ...
  [ 0.0045356  -0.00013418 -0.00094131 ...  0.00111482 -0.00447114
   -0.00462407]
  [ 0.00097343 -0.00999094 -0.00364009 ... -0.00760032 -0.01035511
    0.0031469 ]
  [-0.00802905  0.00077932  0.02270848 ...  0.01307827  0.00138505
    0.00773182]]]"
0.023680462,0.045860842,0.009300804,-0.017674513,0.05614659,-0.03867706,-0.025164587,-0.04417528,0.015176872,-0.031696107,0.08506655,0.07120059,0.0070617334,0.0024063317,-0.00049255136,0.04080534,-0.009151679,0.029594474,0.057296775,0.07180838,0.04058682,0.015962478,-0.04801477,0.08600134,0.14993657,0.05727683,0.0021536567,0.00944055,0.0417008,0.059961405,0.03433919,0.06586953,0.021189671,0.08311579,0.05432258,-0.005792516,0.032036956,-0.00083005766,-0.041570745,0.092282526,0.066869885,-0.06843897,0.09470436,-0.0011284373,-0.022376182,0.025092289,-0.02844896,0.053989813,0.074393034,0.032016825,0.008599788,-0.05327739,0.04534675,0.03288171,0.056711596,0.07340805,0.037371922,0.036096685,0.034355067,0.05642493,0.025480708,0.06703172,0.0128744515,0.098922655,0.0069659795,-0.03151626,0.044812992,0.08754415,0.066646636,0.048704486,0.0654821,0.019941084,0.056261595,0.038972076,0.013932775,0.0110009555,0.06954806,0.035687543,-0.01684262,0.02983967,0.029073004,0.060101554,0.026622072,-0.034345213,0.078544095,0.03768505,0.047763404,-0.019764153,-0.048596375,0.041223884,-0.05639653,0.07811745,-0.07173364,-0.042651035,0.14928477,0.027901258,0.07298901,0.08446651,0.012437452,0.031137113,0.03953054,0.008576129,0.0395122,0.055916496,0.013010411,0.0803536,-0.024229895,-0.08335285,0.031436868,0.071135096,0.043087292,0.00077334396,0.08305055,0.079409845,-0.0072032292,-0.0355565,0.052252486,0.05557028,0.0856032,0.05284256,-0.037039857,0.085187465,0.062263332,0.039335795,-0.0128750065,0.04449166,-0.02210093,0.056010075,-0.027831055,0.013463129,-0.009326844,0.061877463,0.0495637,-0.0017574213,-0.06447691,-0.011814319,0.018870577,-0.016483733,-0.0022149556,0.056445327,0.09394632,-0.0054907124,0.104334205,-0.014036816,0.0035124642,0.022079006,-0.009247906,0.034060884,0.084993325,0.013561355,0.07093323,0.0753967,0.0024798405,0.0027581018,0.00026141325,-0.0032882837,0.065515794,0.06882812,-0.01434622,-0.045135725,0.09973043,0.01885226,0.058126066,-0.004686793,0.005578309,-0.01782998,-0.03540163,0.06533716,0.0016601721,0.1207512,0.10674949,0.06682192,-0.012315346,-0.017085267,0.06348865,-0.019674657,0.038004,0.05816204,0.07679441,-0.03600547,0.17985508,0.013439407,0.043909915,0.015769271,0.016965583,0.028646834,0.001629222,0.03543237,-0.06618491,0.067517444,0.028258147,0.06620622,-0.011202921,-0.010341408,0.009132386,0.012316137,0.028644942,0.03965341,0.0042168135,0.043083586,0.027066726,0.063629985,-0.03287714,-0.03937689,-0.039509114,0.031588003,0.033957936,0.14547609,0.018121243,-0.0012920379,0.0400362,0.0600088,-0.035850372,0.03184997,0.02065804,0.07161331,0.050321873,-0.018415343,-0.056438588,0.017768947,0.042777956,0.0055375937,0.08752962,0.07269437,-0.00014604839,-0.038657255,0.008427652,-0.0024488275,0.09775013,0.059797067,0.023809927,0.0674852,0.06927234,-0.002472579,-0.018839175,0.07136388,-0.020426188,0.0017221404,-0.012205886,0.053193983,0.07067079,0.033389978,0.027617577,-0.031791538,-0.03351216,0.068685435,0.06277624,0.18237582,0.020896273,0.027161168,0.07873457,0.012738152,0.04101608,0.083449125,0.0396295,-0.030266905,0.029115628,0.050678037,0.007993301,0.04929008,0.06862311,-0.040910628,0.04414699,0.036464673,0.05651208,0.036098074,-0.0006791351,-0.01232901,0.059415236,0.06773477,0.033116583,0.08359427,0.08645995,0.017504396,0.058190707,0.04468025,0.0035150028,0.05203659,0.043920405,-0.020874677,-0.0026576417,-0.025177745,-0.014375488,0.00019880915,-0.0003503875,0.0077370363,0.01293117,0.012096206,0.093474895,0.03940302,0.07136261,-0.014141328,0.13093585,0.057375375,0.04469596,-0.0028359864,0.0710531,0.057091616,0.037431706,0.014472491,-0.03373222,0.08811574,0.1488341,0.032858066,0.07961874,0.019343905,-0.026114905,0.031737488,-0.0057925154,0.04707202,0.09295507,-0.0012573549,0.063141756,0.021024154,0.07462758,0.037987776,0.008134574,0.018071609,-0.08135639,0.087236054,0.038843893,0.038515285,-0.0005040731,0.06498404,-0.03434706,0.037704065,0.010685924,0.042084,-0.014029266,0.015604253,-0.0058168666,0.09359677,-0.003353346,0.009389371,0.0059306277,0.061324254,0.0035327643,0.028625598,0.018174728,0.028332567,0.030654043,0.03955195,-0.05095577,0.017109668,0.035087783,0.024702912,0.020017352,0.013543328,-0.027095485,0.039432902,0.05534226,0.040712975,-0.036857937,0.033630226,0.10476869,0.098872684,-0.004808959,0.043282088,-0.028915662,-0.023309244,0.011172203,0.0089972885,0.041200362,0.04243121,0.030444976,0.017992266,0.033646688,0.032500245,0.025275212,0.031599388,0.08630306,0.08406029,0.113799475,0.10461643,0.09194673,0.057642378,0.015047778,0.06215978,-0.008195746,0.014513032,0.0069301324,-0.014194829,0.092371404,0.022807293,0.049969897,0.02917592,-0.0035378984,0.066789195,0.08364587,0.06094803,-0.012081438,0.055204473,0.07137858,0.029429652,-0.018863877,0.07291934,0.06740018,0.030235521,-0.0007867417,0.014511992,0.08329959,-0.017306693,-0.012415568,0.015253913,0.01040894,0.057298705,-0.040714487,0.03562613,0.038858328,-0.053689733,-0.009500602,0.060244173,0.0043861247,0.08265718,0.03735401,0.04336417,0.013044086,0.0065930993,-0.014229966,0.072035104,0.021577585,-0.04129569,0.015245881,0.07833931,0.01870312,0.044361137,0.014158031,0.067927696,0.07306315,0.027135504,0.045677003,0.0011358813,-0.033873856,0.06336743,0.02994587,0.03392481,0.106991984,-0.08428453,0.04862244,0.0011848886,-0.03363051,0.04244248,0.057749502,0.033015005,0.08738243,-0.04489652,-0.0005316629,0.050374996,-0.045357212,-0.06346662,0.0232012,0.051137853,-0.0066325963,-0.0072977473,0.105731055,0.040131927,0.048343576,0.026802447,0.012205446,0.031811714,0.016301524,0.09503993,0.04350979,0.07050987,0.08540576,0.0051569017,-0.015722662,0.12457376,0.009913508,0.10114312,0.07399326,-0.08416292,0.06010603,0.043395832,0.015556554,-0.016753906,0.047407743,0.15677407,0.020791352,-0.021055605,-0.0003020089,0.06850216,-0.0064722993,-2.2993845e-06,0.00047777843,0.021975482,0.052059792,0.077191114,-0.076125756,0.05045268,0.0111279115,0.042012777,0.09418076,0.058280185,0.07237774,0.022639576,-0.063882016,0.016770761,-0.0073906127,0.001337312,0.09298542,0.016286468,0.14858922,0.13076046,0.05624543,0.0143612195,0.06421687,0.0483797,0.1259111,0.12565154,0.074530825,-0.017192408
