weights
"[[[-1.2453815e-02  8.4065599e-03 -5.2884505e-03 ... -2.0458191e-03
   -3.9235945e-03  1.3068381e-03]
  [ 1.1556690e-02  2.4605596e-03 -4.0908258e-02 ... -4.9206265e-03
   -1.6342339e-03  8.9423070e-03]
  [-1.4346992e-04 -5.6587318e-03  1.8406698e-02 ... -2.0884068e-03
    2.6332182e-06 -2.5072826e-02]
  ...
  [ 1.3788823e-02 -6.5818019e-03  9.6537033e-03 ...  7.1761045e-03
    3.4572545e-03  5.3317398e-03]
  [ 2.6583332e-03  7.7770464e-04  2.8623934e-04 ... -5.4058307e-03
    8.9311972e-03  1.4004302e-02]
  [-8.5393311e-03  1.4339479e-03 -2.9187903e-03 ...  3.7766052e-03
    2.0545458e-02 -1.3586803e-02]]

 [[-1.2017647e-02  1.5125084e-03  3.4313013e-03 ... -1.5783070e-02
   -2.3950101e-03  2.9357350e-03]
  [ 1.0716780e-02 -1.7288590e-03 -1.8321734e-02 ... -3.8793201e-03
   -1.7472282e-02  3.0940589e-03]
  [-2.7881276e-03  1.0900215e-02  7.3146983e-03 ...  1.3235089e-03
    5.7123411e-03 -2.0649919e-02]
  ...
  [ 5.3464090e-03 -7.6107467e-03 -2.9526609e-05 ...  1.0646222e-03
    7.1641444e-03  5.5095232e-03]
  [-1.9748907e-03 -5.1874020e-03 -3.5047913e-03 ... -7.6520708e-03
    6.4858370e-03  7.2937277e-05]
  [-8.1395293e-03 -1.7234440e-03 -1.7195275e-02 ...  6.5138312e-03
    2.6278889e-02 -7.4020172e-03]]

 [[-1.1309728e-02 -2.7139820e-03  5.2183163e-03 ...  3.7553224e-03
   -4.3735094e-03 -1.7177854e-03]
  [ 9.5100347e-03  2.1038593e-03 -6.2362757e-03 ...  9.8487223e-04
   -1.2235758e-02 -5.7723001e-03]
  [ 1.0948734e-03  2.1676837e-02 -1.1145843e-02 ... -1.1595235e-03
    7.1644103e-03 -6.7426623e-03]
  ...
  [ 3.8449345e-03  6.5077017e-03 -3.0842301e-04 ...  7.7655721e-03
    4.5012343e-03  2.9476834e-03]
  [-5.2046957e-03  2.5333699e-03 -2.0085778e-03 ...  6.7479850e-04
    1.2729188e-02 -5.9507992e-03]
  [-4.3100687e-03 -4.2663990e-03 -1.5038959e-02 ... -6.6208760e-03
    1.0352157e-02  2.3351565e-03]]]","[[[-1.66037567e-02  2.41671409e-02 -1.76821016e-02 ... -8.38128850e-03
   -3.02293082e-03  3.58365453e-03]
  [ 9.80825536e-03  1.05249183e-02 -4.66881320e-02 ... -7.78164901e-03
   -3.83233977e-03  2.94483802e-03]
  [ 1.34947952e-02 -1.25661753e-02  1.29038952e-02 ...  1.43833098e-03
   -5.72983874e-03 -1.78362131e-02]
  ...
  [ 9.57040023e-03  1.17314365e-02  1.55258663e-02 ...  2.69203974e-05
    2.30762083e-03  7.98452704e-04]
  [-2.26363889e-03 -2.44599045e-03  5.42335818e-03 ... -7.61786243e-04
    7.27130566e-03  2.00658664e-02]
  [-6.25453144e-03  8.70768726e-03  5.96766314e-03 ...  2.25311015e-02
    1.17731886e-02 -8.07471387e-03]]

 [[-2.05247719e-02  9.02097579e-03 -1.39437476e-03 ... -1.84835698e-02
    1.36483200e-02  1.48000638e-03]
  [ 8.35212879e-03 -3.76963033e-03 -2.36531124e-02 ... -4.67878534e-03
   -1.02635678e-02 -9.82333149e-05]
  [ 1.35796964e-02 -1.72847509e-02  9.88537073e-03 ...  7.85652269e-03
    1.02855563e-02 -2.21692659e-02]
  ...
  [ 4.50371159e-03  7.92721228e-04  8.28000717e-03 ... -1.25710340e-03
    2.60498724e-03  6.89739687e-03]
  [-4.07085335e-03 -4.51655919e-03 -2.78022187e-03 ...  1.75143685e-03
    7.57344998e-03  1.27716700e-03]
  [-4.38698288e-03  1.11662695e-04 -1.52793936e-02 ...  3.82050462e-02
    3.65496846e-03 -6.30834652e-03]]

 [[-1.67291705e-02 -7.51205778e-04  8.62288661e-03 ... -4.92068566e-03
    2.60210619e-03 -8.31924565e-03]
  [ 7.60383205e-03 -2.44896696e-03 -9.95151792e-03 ...  2.84005492e-03
    1.40986012e-04 -7.82902353e-03]
  [ 2.45916261e-03 -6.49120752e-03 -8.32979660e-03 ...  7.72433681e-03
    1.30170006e-02 -1.23488028e-02]
  ...
  [ 1.33765105e-03  7.21688429e-03  1.26626331e-03 ...  3.94847291e-03
    5.32880379e-03 -2.07663863e-03]
  [-2.70236470e-03  1.28381781e-03 -6.93748286e-03 ...  8.98882467e-03
    1.46908136e-02 -4.21756599e-03]
  [-2.33115349e-03 -6.12587482e-03 -2.12312099e-02 ...  9.15342360e-04
    3.17362952e-04  1.23123394e-03]]]","[[[-1.45651354e-02  9.64931585e-03 -1.16087059e-02 ...  2.59297341e-03
   -8.05760548e-03  2.21103709e-03]
  [ 6.19267486e-03  8.93716048e-03 -4.51339036e-02 ... -6.12378679e-03
   -4.00708383e-03  6.47111796e-03]
  [ 1.43068740e-02 -2.66728899e-03  3.41038289e-03 ...  3.44638783e-03
   -8.62873974e-04 -1.33675877e-02]
  ...
  [ 1.29059236e-02  9.14617069e-03  8.28087237e-03 ... -4.39318595e-03
   -8.14242568e-03 -2.26692040e-03]
  [-1.31062279e-03 -5.64920157e-03  6.37932634e-03 ...  6.66187890e-03
    4.44209296e-03  4.41963132e-03]
  [-6.42832462e-03  4.18221578e-03  7.65334209e-03 ...  1.20814089e-02
   -6.66856999e-03  3.25094647e-04]]

 [[-1.66320223e-02  4.54504183e-03 -6.67143054e-03 ...  2.28197756e-03
   -6.31665680e-05 -4.71796095e-03]
  [ 2.97540380e-03 -6.40762178e-03 -2.85963546e-02 ... -2.35724798e-03
    4.74322308e-03  4.67349339e-04]
  [ 2.36185007e-02 -1.89911220e-02  4.60000196e-03 ...  1.08400211e-02
   -9.18388832e-03 -2.74709109e-02]
  ...
  [ 8.74977279e-03  1.61244010e-03  3.06530995e-03 ...  4.53018304e-03
   -7.39837857e-03  4.47823061e-03]
  [-1.20457367e-03 -2.87331175e-03 -5.18758828e-03 ...  1.17142722e-02
    7.62202404e-03 -5.77956159e-03]
  [-4.07704106e-03  5.63840521e-03 -1.10617159e-02 ...  2.38051061e-02
   -1.34268589e-02 -2.97562080e-03]]

 [[-8.99161492e-03  5.84716024e-03  5.29400352e-03 ...  3.04830913e-03
   -1.18276821e-02 -8.41523055e-03]
  [ 3.12718400e-03 -5.05524641e-03 -1.94435567e-02 ...  3.33701703e-03
    1.45587865e-02 -4.61388379e-03]
  [ 1.11383200e-02 -2.28672028e-02  2.00467315e-04 ... -3.49199137e-04
   -8.52558948e-03 -1.46135921e-02]
  ...
  [ 4.12542978e-03  1.88087288e-03 -2.15299334e-03 ...  3.59076308e-03
   -1.91574858e-03 -3.53228627e-03]
  [-2.84922371e-05  9.47301451e-04 -8.46835505e-03 ...  1.27441790e-02
    1.32457484e-02 -2.80284905e-03]
  [-6.17068168e-03 -5.06139966e-03 -1.87711921e-02 ... -2.79223267e-03
   -1.10712685e-02  4.57540294e-03]]]"
0.013485669,0.007561144,0.06701895,0.041779052,0.0013112448,0.19431135,-0.04237143,0.027547859,0.071956344,0.0540045,0.054811273,0.0004533932,0.011704736,0.07333044,0.06471756,-0.01727704,0.0117172,-0.0091495905,0.059353933,0.0077898717,0.19473521,-0.03160755,0.082303636,0.008124136,-0.010936251,0.11831848,-0.0016298565,-0.031049669,0.10524632,0.08911344,-0.017533945,0.011140105,0.0273301,0.036281142,0.11654162,0.006566599,0.053144954,-0.07114487,0.024034226,0.054674376,0.018671649,-0.015072421,0.06879217,0.01969217,-0.014452277,0.104420334,0.029526198,0.010751443,0.12457283,0.0035120484,-0.0739503,-0.0101699345,0.013674574,0.057220023,-0.010538312,0.062292065,0.044735175,0.058641665,0.042953283,0.03258709,-0.04706465,0.013468813,-0.004327161,0.015313918,-0.011418607,0.07937651,0.07459345,0.04317596,0.041852802,-0.008305212,0.12413809,0.026349306,0.014998568,-0.015625194,0.13549338,-0.02361966,0.10109243,0.022158219,0.04679871,-0.023054227,-0.00035752065,0.008868678,0.017446382,0.007179625,-0.009328377,0.014677253,0.037738357,-0.018045882,-0.013798971,0.037049506,-0.051430427,0.024468994,0.024694115,0.049098223,0.05199512,0.102311805,0.056413475,-0.015833318,-0.03320146,-0.05584373,0.004704107,-0.14548235,-0.03380134,0.03405067,0.054191526,-0.0034240922,0.026658464,-0.011477344,0.0072381548,0.026063962,0.053434025,0.060944073,0.10145702,0.022850368,0.0050242953,0.0064340704,0.07472897,-0.028397452,-0.028609673,-0.05288227,-0.04451503,-0.023694992,-0.042154886,0.09184299,-0.03788895,-0.012639168,0.016681148,0.074730724,-0.03339927,0.09063061,0.08986019,0.018700717,0.034274586,0.018825643,0.0362142,0.023721436,-0.014709782,0.02087447,0.030571574,0.14249216,0.038139243,-0.06163649,-0.013610598,0.012685914,0.0237574,0.0018892731,-0.030210163,-0.029626621,-0.0113964435,0.07387836,-0.023475023,0.044434614,-0.0061993995,0.021558639,-0.064072534,-0.025149105,-0.061834686,0.095699154,-0.009806672,-0.011318363,0.08887472,0.06592884,0.011142941,-0.031501025,0.028412512,0.011296642,0.029965535,-0.07221939,0.0072533945,0.005946729,-0.014597544,0.05204234,-0.02142872,0.1504253,-0.019999683,0.12134195,0.046126135,-0.011888831,-0.005292591,-0.022032237,0.040835638,0.009397961,-0.037493464,0.13649143,0.0641688,-0.007018356,0.00902929,-0.008581509,0.11478466,0.019969616,0.01550458,-0.010100265,0.0047025513,-0.0036482455,0.08448643,0.016364103,0.065994255,-0.018900622,-0.009692382,-0.054050457,0.04458565,0.06576306,-0.023867728,-0.036104117,0.009800192,-0.09455095,0.0029119311,0.023715096,0.01857767,-0.02965006,-0.011551166,0.112062484,-0.012982134,0.009835123,-0.040790897,0.030631794,0.14880319,0.031215483,-0.03412959,0.005412944,0.03908843,-0.04607837,0.05219414,0.050601915,-0.056939814,0.027409151,-0.016283587,0.18281287,0.036403067,0.06375421,-0.008759412,-0.014402802,0.011806029,-0.0078048203,0.12496937,0.032047607,-0.041983392,0.0074283667,0.0018824933,-0.012280296,-0.05174524,0.038915984,0.09401204,0.020955885,0.05364544,0.021571217,-0.0223824,-0.05735386,-0.03900814,0.045002498,-0.0018383004,0.012426155,-0.009389612,0.00032436522,0.065825656,0.02123269,-0.0141316345,-0.035444427,-0.0012660322,0.00080916507,0.09520332,0.018643115,-0.011853855,-0.046819057,0.049932912,-0.01657778,-0.04607387,0.03666889,0.08055599,0.1407983,-0.052143954,-0.0046141944,0.014107808,-0.024271708,0.0015409212,0.126334,0.019714413,0.013027254,0.039329134,0.03358722,0.0009098808,-0.023186158,0.021226104,-0.018835403,0.038962252,0.04033942,0.0043107565,-0.05325833,0.03454122,-0.008246944,-0.021836456,-0.048855238,0.0934401,0.014318994,-0.013739507,-0.018640554,0.017141541,0.028579425,-0.009343886,0.11435111,0.16847515,0.14865492,0.06036819,0.10966414,-0.008764275,-0.001823505,-0.0097525045,0.10607314,0.05854449,-0.050903637,0.03826505,0.015317917,0.1413483,0.1375193,0.13819131,-0.033909373,0.031228451,0.07244698,0.013291228,0.0786965,-0.01342774,-0.010671221,0.04975825,0.060602996,-0.041383773,0.2900992,0.09210091,0.04867851,-0.024561698,0.04394877,-0.01570157,-0.017207073,0.019998832,-0.06262601,0.048499335,0.17290471,-0.013960079,0.013169972,-0.01597587,0.2017592,-0.019046286,0.034162354,0.025670296,-0.02117538,0.08179075,0.020091955,0.010433059,0.036291942,-0.055584222,-0.014458229,0.016790712,0.015448593,0.3148451,-0.012490894,-0.030432029,-0.02117118,0.0031488808,0.014730019,0.05949752,-0.010393198,0.054550834,-0.039882313,0.01832076,-0.07607763,-0.06348411,0.042493615,0.0135161895,0.10402187,-0.0021564174,0.010427579,-0.06371963,0.13125049,-0.0041384622,-0.016271466,-0.009816811,-0.041100234,0.0010231243,-0.026743572,-0.01093246,-0.02083088,0.023300495,0.063055985,-0.02870597,-0.06720389,0.059377912,-0.022256669,0.076938055,0.015404392,0.030386347,0.00505839,-0.023430383,-0.039939713,0.06336603,0.0037460933,-0.008751205,0.045150954,-0.010713307,0.026963364,0.031830896,-0.04767392,0.01778279,-0.017045598,0.12305465,-0.06846349,-0.03814644,0.07269525,0.062331505,0.14082748,0.035579942,0.047449782,0.059291452,-0.00076887035,0.082905166,0.019698814,-0.00040537125,-0.03909905,0.013440125,-0.0103886,-0.01689904,-0.056825586,-0.012240834,0.037866727,-0.040904596,0.011335716,0.02511554,-0.01610163,-0.010833413,0.08275371,-0.023226582,-0.020012757,-0.029321162,0.11604706,-0.016437545,-0.052382506,0.029838229,0.004519536,0.04716583,0.018296137,0.039372418,0.0603151,0.02920038,-0.02627408,-0.014192847,0.14424483,-0.02115806,-0.039817076,0.087818205,0.0035760903,0.011896614,-0.0053624455,0.004219877,0.017120155,-0.035565674,0.0054658633,0.041371804,0.02160333,0.0064885677,0.089551345,-0.018366778,-0.05678857,0.063764654,0.07066101,0.0047975886,0.049069315,0.0049641426,0.002245559,0.011897369,-0.0076223216,0.034901693,0.060402874,0.04139943,-0.0025185249,0.008718614,-0.04251447,-0.0028927892,0.009445882,-0.016431494,0.0148197245,0.08260825,0.06986772,0.016916899,0.083117425,0.0042061186,0.13570775,-0.012521921,-0.048134103,-0.0010327672,0.05884005,0.018564144,0.035941303,0.05466994,0.06611989,-0.031700116,-0.0067359167,-0.072298065,0.07541752,-0.06429004,0.08279631,-0.03808228,0.033774853,-0.026046578,-0.06577716,0.07294629,0.042588152,0.017346933,0.036423076,0.05075784,-0.008754369,0.061357588,0.03979362,-0.004130272,0.0101658
