weights
"[[[-0.01032663 -0.00257659  0.00023917 ... -0.00118999 -0.00975548
   -0.00247324]
  [-0.00987035 -0.00188853  0.00027567 ... -0.00998694 -0.00598259
    0.00440906]
  [ 0.01618356 -0.00938058 -0.00673406 ... -0.00242401  0.0109589
    0.01391672]
  ...
  [-0.01401766 -0.00308812  0.00341502 ...  0.00533249 -0.01703558
   -0.01363592]
  [ 0.00174194 -0.00995234 -0.0004359  ... -0.00241841 -0.01685557
    0.0105464 ]
  [-0.0047731  -0.00666777  0.00507127 ... -0.00120527  0.00355558
    0.0011733 ]]

 [[-0.00664286 -0.00347881  0.0023919  ... -0.00753906 -0.00572045
   -0.00924839]
  [-0.00297288  0.00334521 -0.0031863  ... -0.01156237 -0.00790791
    0.00592659]
  [ 0.02537774  0.00253286  0.02177078 ...  0.02153028  0.01672795
    0.02455831]
  ...
  [-0.00773528  0.0067616  -0.00116095 ...  0.00441491 -0.01448656
   -0.01290209]
  [ 0.01032175 -0.00736615 -0.00586766 ... -0.00404951 -0.01985915
    0.01015603]
  [-0.01550798  0.01915963  0.00027086 ... -0.00627749  0.00434006
    0.00017349]]

 [[ 0.00412675 -0.00457746  0.00664306 ... -0.00234279 -0.00918854
   -0.00125898]
  [-0.00307819  0.007095   -0.00160039 ... -0.00678886 -0.01093259
    0.00765817]
  [ 0.02558939 -0.00147064  0.00920197 ... -0.00594318  0.00250071
    0.00669545]
  ...
  [-0.00956583  0.00791248 -0.00533101 ...  0.00476567 -0.01498433
   -0.00669806]
  [ 0.01196094 -0.00348292  0.0016737  ...  0.00085155 -0.01829692
    0.00818597]
  [-0.0166009   0.0142412  -0.00394399 ... -0.00343332  0.0029204
    0.0036024 ]]]","[[[-0.01507155  0.00358128  0.00196503 ...  0.00193003  0.01647393
   -0.01304376]
  [-0.01050312 -0.00134233  0.00839629 ... -0.00613174 -0.00777115
   -0.00734501]
  [ 0.01592805 -0.00049356  0.02064569 ...  0.03442174  0.02817444
    0.04316417]
  ...
  [-0.0026351  -0.01553944  0.01795537 ...  0.00562342  0.0075464
   -0.01321224]
  [-0.00840738 -0.00108227 -0.00815255 ...  0.00750582 -0.02109739
    0.00446511]
  [ 0.00356539 -0.00149671  0.00390028 ...  0.00224968 -0.00123406
   -0.00528687]]

 [[-0.01694009  0.02771579 -0.00196666 ... -0.01364134  0.01781077
   -0.01669872]
  [-0.00762253  0.00268658  0.00514761 ... -0.01134475 -0.00981413
   -0.00615228]
  [ 0.02459215  0.01229812  0.04963673 ...  0.05453148  0.03919746
    0.05248035]
  ...
  [ 0.0046102  -0.01764932  0.01430875 ...  0.00583571  0.00879334
   -0.01144431]
  [ 0.00686999 -0.00989954 -0.01380552 ...  0.00388898 -0.02330898
    0.00592778]
  [-0.01128179  0.02839438  0.00083868 ... -0.00476626 -0.00487527
   -0.00683465]]

 [[-0.00674895  0.00408498  0.00199279 ... -0.01320704  0.00680111
   -0.01381062]
  [-0.00574127  0.00386035 -0.00207123 ... -0.01558301 -0.00933692
   -0.00336189]
  [ 0.02106234  0.00644711  0.03909402 ...  0.02819476  0.02810294
    0.02589757]
  ...
  [ 0.00277161 -0.00933947 -0.00396436 ...  0.00331285  0.00468999
   -0.00824241]
  [ 0.00993934 -0.01262276 -0.00530785 ...  0.00316705 -0.02508137
    0.00699499]
  [-0.01092595  0.02508022 -0.00498637 ... -0.00542974 -0.00279875
   -0.00112389]]]","[[[-1.05695715e-02 -6.65004551e-03  1.14270793e-02 ...  1.13982856e-02
    2.48910710e-02 -2.01158524e-02]
  [ 3.46275163e-03  5.79921063e-03 -1.63540186e-03 ... -6.75595738e-03
   -5.29716769e-03 -1.25067402e-02]
  [-4.70241671e-03 -3.87823209e-03  2.08221911e-03 ...  3.55734415e-02
    1.33386767e-02  4.47410196e-02]
  ...
  [ 1.49224093e-02 -1.12200771e-02  1.46477595e-02 ...  7.56622152e-03
    3.02859787e-02 -3.93884303e-03]
  [-5.07909758e-03  1.31783877e-02 -1.02952961e-02 ...  7.72063248e-03
   -2.13399660e-02  2.11469270e-03]
  [ 1.11438399e-02 -1.19275544e-02  3.20557575e-03 ...  3.00401030e-03
   -1.19526843e-02 -8.13317019e-03]]

 [[-1.70508623e-02  8.58010631e-03 -1.14486006e-03 ... -5.15660597e-03
    1.45966867e-02 -2.28679758e-02]
  [-3.17657227e-03  5.48885623e-03 -6.66785199e-05 ... -9.54495370e-03
   -5.38741006e-03 -1.21885082e-02]
  [ 1.06314057e-02  3.72430380e-03  2.05148254e-02 ...  4.78186421e-02
    2.96977889e-02  5.15434667e-02]
  ...
  [ 3.04241665e-02 -1.32622952e-02  8.83379206e-03 ...  1.04780542e-03
    2.52286401e-02 -4.45278827e-03]
  [-1.25949143e-03  3.22387321e-03 -2.05024239e-02 ...  5.14487643e-03
   -2.70085242e-02  2.27415795e-03]
  [ 3.74635536e-04  1.97586371e-03 -2.43942440e-03 ... -5.21882903e-03
   -1.60979982e-02 -1.23087317e-02]]

 [[-1.17229745e-02 -4.97850310e-03 -1.49952564e-02 ... -2.01662164e-02
   -6.41265698e-03 -1.63828563e-02]
  [-4.89720202e-04  3.05005093e-03 -2.13698624e-03 ... -1.25116957e-02
   -7.37623428e-04 -9.91498586e-03]
  [ 3.77920503e-03  4.25475789e-03  4.48718248e-03 ...  1.36323832e-02
    2.40158159e-02  2.37192456e-02]
  ...
  [ 2.55739931e-02 -8.89623910e-03 -4.37693624e-03 ... -1.07840088e-03
    1.47468811e-02 -7.86467455e-03]
  [-2.09070556e-03 -6.24532858e-03 -2.55214944e-02 ... -1.60773040e-03
   -2.46536992e-02  2.47029914e-03]
  [-9.88541869e-04  3.25043732e-03 -7.95861613e-03 ... -6.07489794e-03
   -1.01532796e-02 -7.52132060e-03]]]"
0.019675018,-0.0013752913,0.09243132,0.12741461,0.19291225,0.09042809,0.06802064,-0.010925741,-0.05110114,0.03734701,-0.014684592,0.036127646,0.04479747,0.11423319,0.03963346,0.03309682,-0.041427094,0.12617256,0.091675416,0.11846463,-0.013167119,0.07504411,0.12833531,0.008004402,-0.1075732,0.001321331,-0.034063533,0.11694052,0.028749337,0.030854778,0.038779646,-0.06809967,-0.007131762,0.0105054155,0.020626742,0.03341748,0.004576658,-0.052757923,0.04831312,-0.054789905,0.16836004,0.011578829,0.02017789,0.016814925,0.07080659,0.21722354,0.0015384305,0.16411291,0.003061966,0.011695499,-0.0058612446,0.05190565,-0.056155715,0.087339275,0.01588081,0.08772407,0.13231823,0.038180675,-0.018728066,-0.069276206,0.05705317,0.0092672985,0.04840456,0.0023799483,0.0035083767,0.20380037,0.12005693,0.17088388,0.22578964,0.008341292,0.04156783,0.08815469,-0.023056917,0.055033553,0.004864098,-0.004031198,0.023920072,0.074493684,-0.016432868,-0.014728532,0.2356764,0.12240887,0.014670444,-0.17787349,-0.12934588,-0.031413738,0.022746842,0.009653982,-0.03201202,-0.02529305,-0.08790252,0.13407682,0.15937066,0.087796085,-0.034333464,0.054580502,-0.048980407,0.035428707,-0.01974453,0.04433721,0.14525153,0.07770855,0.010296165,-0.025953002,-0.00047501348,-0.08745243,-0.07510143,0.05913582,0.0615936,0.09373557,-0.014953502,0.017881736,0.274845,0.15301752,0.0727292,-0.104169786,0.044298213,0.17319104,-0.060879167,0.17720385,0.08406983,0.006988928,-0.031810313,0.021037515,0.042286485,0.06356059,0.04044345,0.03766473,0.035947103,0.102083944,8.734704e-05,0.09384713,0.04684993,0.06329818,-0.037886042,0.079355404,0.11312802,-0.039600667,-0.058309793,-0.08022495,-0.0465228,-0.02615946,-0.033231054,0.0031742735,-0.07521098,0.023626093,-0.07632284,0.07119887,0.06625655,0.17357197,0.24576211,-0.08000793,0.019953674,0.10603188,0.059832163,0.033304196,0.0950866,0.004982573,0.08898587,0.024759099,0.14812465,0.19855611,0.07353984,0.108685516,0.20442002,0.020496303,0.045740537,0.042001557,0.018596409,-0.025849741,-0.06268922,0.117059596,-0.02294906,0.03403,0.050295535,0.16209705,-0.00020549691,0.1186548,0.0964897,0.06903446,-0.14115936,0.00037201744,-0.0738081,-0.026159089,0.07575418,-0.0075953435,0.079336055,0.012532359,0.12524962,0.0040175435,0.029737534,0.027834533,-0.028019305,-0.00240374,0.011489321,0.038315903,0.03554075,-0.062465627,0.16897507,0.06550316,-0.07116208,0.11083955,0.004879818,0.03387541,0.10149513,0.034822647,0.050178252,0.04261996,0.0060749617,-0.014469758,0.06881801,-0.023620494,-0.005098235,-0.035403106,-0.001538271,-0.015881058,0.04258215,-0.0058002095,0.11846121,-0.00019579755,0.026648123,0.0676564,-0.18124875,-0.058056924,0.029432943,0.05823406,0.037439585,0.016239721,0.021048987,0.08416205,-0.0036339639,0.013109073,-0.026126506,0.020166479,0.03850678,-0.15028125,0.06604507,-0.07151825,-0.040099975,-0.020854868,0.13224365,-0.017056482,0.1423557,0.1687735,-0.0145762125,0.017666198,0.14706013,0.031156866,-0.08825309,0.20430823,0.046666417,0.028138021,-0.008833468,0.078824416,0.09819423,0.16311687
