weights
"[[[-0.00890296  0.03781697  0.01397566 ... -0.06354576  0.02834704
   -0.05549752]
  [-0.00566543 -0.0010556  -0.02292035 ... -0.00130956  0.02524783
   -0.02954038]
  [-0.0078514  -0.00438383 -0.01295862 ...  0.01220731  0.00044631
   -0.02491741]
  ...
  [-0.00582487  0.00378987 -0.0148563  ...  0.0012791   0.01275948
   -0.01338256]
  [-0.01543421  0.00562145  0.03052251 ...  0.01614133 -0.04200586
   -0.03356791]
  [-0.00421814  0.0295577   0.00257514 ... -0.02594563 -0.00135918
   -0.05851893]]

 [[-0.01033949  0.03759558  0.00687778 ... -0.05845454  0.0390824
    0.03700861]
  [ 0.00486768  0.00454719 -0.01622244 ... -0.02550175  0.01883967
   -0.00624489]
  [-0.00531207 -0.00119875 -0.01118924 ...  0.0198805  -0.01902021
   -0.00037909]
  ...
  [-0.00600388  0.00728633 -0.01539446 ... -0.00526854  0.01685329
    0.0037629 ]
  [-0.01789984  0.01469247  0.00951688 ...  0.1072607   0.02802339
   -0.01895384]
  [-0.00370884  0.03085285 -0.00570769 ... -0.03344966 -0.00465932
    0.01170183]]

 [[-0.01019516  0.01217471  0.01117247 ...  0.02697372 -0.0222922
    0.06459007]
  [ 0.01228699  0.00645143 -0.00307417 ... -0.01615258 -0.02236054
    0.01094853]
  [-0.00709734 -0.00540412 -0.0094387  ... -0.00152021 -0.02179914
   -0.00377143]
  ...
  [-0.00521149  0.0010336  -0.00752883 ... -0.01922445 -0.00639425
    0.00369723]
  [-0.01538868 -0.01345431  0.00572274 ...  0.05474017 -0.06081804
   -0.02234446]
  [-0.00345917  0.02133734 -0.02144212 ... -0.06911504 -0.01547411
    0.04443066]]]","[[[-0.01232987 -0.01912256  0.01292189 ...  0.04335548  0.01261281
   -0.0596397 ]
  [-0.0013186  -0.00951261 -0.01855272 ...  0.02883567  0.02385568
   -0.04067587]
  [-0.00425214 -0.00678346 -0.01387432 ...  0.02220702  0.01345247
   -0.02030174]
  ...
  [-0.00783586 -0.00257806 -0.01089318 ...  0.01925944  0.01593539
   -0.0189793 ]
  [-0.01944957 -0.03603433  0.06040226 ... -0.02227106 -0.05435304
   -0.04174038]
  [-0.00436492 -0.01089451 -0.00335957 ...  0.01725202 -0.0128519
   -0.04727291]]

 [[-0.01454338 -0.03680309  0.03512269 ...  0.00509551 -0.08081455
    0.10268276]
  [ 0.00781208 -0.01634714 -0.00899213 ... -0.03651886 -0.00837247
   -0.00734759]
  [-0.00176124 -0.00482095 -0.01338566 ...  0.01974117 -0.00624131
    0.00211909]
  ...
  [-0.00809419 -0.00544183 -0.00995591 ...  0.00103513 -0.00101502
    0.00989024]
  [-0.02141526 -0.01224876  0.04473642 ...  0.11836118 -0.0186819
    0.05112896]
  [-0.00361343 -0.01550301 -0.01553275 ...  0.02490698 -0.00695429
    0.01304942]]

 [[-0.01177185 -0.02436409  0.02165666 ...  0.15259333 -0.01005782
    0.08745107]
  [ 0.0156845  -0.01708767 -0.00132727 ...  0.03557476 -0.04060131
    0.02821845]
  [-0.00366247 -0.00908439 -0.00876258 ... -0.00073206 -0.01632564
    0.00089096]
  ...
  [-0.00692374 -0.01254792 -0.0074288  ...  0.00350586 -0.02076317
    0.01393971]
  [-0.01865362 -0.00974296 -0.00149606 ... -0.01417438 -0.01413489
    0.05550952]
  [-0.00187194 -0.00781994 -0.01148303 ... -0.05495055 -0.00839654
    0.03375045]]]","[[[-7.5116823e-03 -1.5770476e-02  4.4059362e-03 ...  8.0862843e-02
    1.5413952e-02 -3.7152532e-02]
  [ 3.6731916e-03 -4.8425617e-03 -9.4267959e-03 ...  1.7801328e-02
    1.1001221e-02 -3.0548764e-02]
  [-5.1204050e-03 -2.9283257e-03 -1.7074261e-02 ... -1.1960249e-03
    2.5592186e-02 -2.3812382e-02]
  ...
  [-6.9812173e-03 -5.9269760e-03 -4.5339577e-03 ...  1.4347369e-02
    1.3229956e-02 -1.8693358e-02]
  [-1.6436616e-02 -2.8890647e-02  5.1618903e-03 ...  6.2748245e-03
    3.0945934e-02 -3.8679145e-02]
  [ 7.8756837e-03  3.5328981e-02 -8.8053653e-03 ...  1.0366110e-02
    1.5015281e-02 -2.2514213e-02]]

 [[-8.0353599e-03 -6.2174476e-03  3.1163041e-02 ...  1.9913402e-01
   -6.1715464e-03  1.3959934e-02]
  [ 1.3708244e-02 -4.0407688e-03 -9.8041911e-03 ...  5.2056506e-02
    6.7994660e-03 -1.6759994e-04]
  [-2.6818265e-03  9.3707413e-04 -1.7767297e-02 ...  7.0263017e-03
    1.1960495e-02 -2.3806111e-03]
  ...
  [-6.6778976e-03 -8.0667334e-03 -4.7893953e-03 ...  2.9981423e-02
    3.6359483e-03  6.4256210e-03]
  [-2.0041762e-02 -5.0523188e-02  2.0437514e-02 ... -9.1602266e-02
   -2.3918942e-02  5.6758139e-02]
  [ 9.3745077e-03  4.1464705e-02 -1.8998200e-02 ...  9.7406646e-03
    2.9186305e-02 -2.4192244e-02]]

 [[-7.3400396e-03  7.0001846e-03  1.7802332e-02 ...  4.1079517e-02
    1.6030930e-02 -6.5088761e-03]
  [ 1.9862337e-02 -4.1864980e-03 -1.2349639e-02 ... -1.0825652e-03
   -6.5437695e-03  1.1276918e-03]
  [-4.1457238e-03 -3.3785594e-03 -1.2207651e-02 ... -1.2377833e-02
    1.3958857e-03 -7.9714665e-03]
  ...
  [-5.3186961e-03 -1.0905137e-02 -5.7650567e-03 ... -1.0899326e-02
   -4.6099392e-03 -3.8115291e-03]
  [-1.6991148e-02 -3.1544939e-02  8.0963606e-03 ... -1.0681983e-02
   -2.9289834e-02  7.6044858e-02]
  [ 9.2053171e-03  3.9028179e-02 -1.1596863e-02 ... -2.6639706e-02
    2.0466907e-02 -8.9271832e-03]]]"
-0.04577766,0.06440781,-0.031368658,0.08691754,0.1278507,0.24616894,0.1640896,0.23979376,0.22164847,0.14246197,0.03313177,0.14955571,0.011550413,-0.00018516029,0.27014315,0.24461022,0.27350754,0.27142024,0.27011135,0.27027962,0.2216413,0.18953906,0.003979309,0.06151863,0.36547425,0.21779412,0.14007972,0.022691796,-0.014714201,0.06562144,0.3140623,-0.077050015,0.10462435,0.20993298,-0.0741003,-0.08588019,0.13652268,0.23663981,0.030105148,-0.0036816043,0.0076591093,0.3066435,0.1302302,0.004160701,0.2705581,0.25207508,0.28904697,0.12730265,0.28076398,-0.04476456,-0.042357225,0.062559925,0.10018661,-0.09962354,0.10176195,0.23699294,0.07842248,0.12831993,0.11392979,-0.013174531,-0.10383477,0.2286111,0.09195384,0.065147914,0.19676815,0.071536556,0.26198325,-0.06418952,0.04960755,-0.061662562,0.13248019,0.09023181,0.10324936,0.22680637,-0.033503436,-0.17922063,0.20180932,0.05230389,0.17740984,0.21679863,0.12819616,0.16143866,0.16376132,0.35884404,-0.05222311,0.21117201,0.14626507,0.10392818,0.23689806,-0.017589157,0.14187863,-0.15676373,0.055077035,0.17919958,0.19530067,0.049757544,0.14647865,0.15057972,0.04932106,0.22425601,0.028004406,0.04634406,0.05464241,0.32176018,-0.023094574,0.00514429,0.022401743,0.19448744,-0.009547225,0.256507,0.13772449,0.28766793,-0.00094692776,-0.008935273,0.07226797,0.019602686,0.25652054,-0.036785334,0.03289016,0.2673606,-0.10560317,0.0037151142,0.2806813,-0.08938356,0.06679128,0.3166792,0.09598574,0.13152032
