weights
"[[[-1.12610648e-03 -1.39102731e-02 -4.15291899e-04 ... -2.39090272e-03
    5.59418183e-03 -1.67810004e-02]
  [ 1.13813886e-02 -6.83033955e-04 -8.76976922e-03 ... -8.44151899e-03
   -3.70610040e-03  1.24894250e-02]
  [ 2.18971120e-03  1.76711346e-03  1.23967733e-02 ...  1.34555586e-02
    1.07239345e-02  5.72480168e-03]
  ...
  [-8.70769471e-03  4.26163105e-03 -7.06244586e-03 ...  1.54851489e-02
    4.63837199e-03  7.84500409e-03]
  [-6.56485325e-04  7.68889068e-03 -1.45298289e-03 ... -7.35005224e-03
   -3.10419098e-04  8.47741403e-03]
  [ 5.95664885e-03 -3.27580003e-03 -5.32116368e-03 ... -2.03936966e-03
    1.35865889e-03  5.91904763e-03]]

 [[ 2.12769513e-03 -5.14811045e-03 -5.62243350e-03 ... -1.31134260e-02
    4.88865655e-03 -1.01500070e-02]
  [ 1.17016789e-02 -7.15120370e-03 -8.39244854e-03 ... -6.67586317e-03
   -5.10410266e-03  1.43477311e-02]
  [ 1.43261172e-03  2.12484729e-02  9.50200390e-03 ... -1.57885591e-03
    1.82978567e-02  3.79953301e-03]
  ...
  [-7.53166946e-03  2.99661653e-03 -4.78781341e-03 ...  9.03842878e-03
    4.02625185e-03  9.22073331e-03]
  [-3.35529796e-03  3.79348244e-03  1.26775482e-03 ... -5.82869118e-03
   -8.80411360e-03  7.26862065e-03]
  [ 1.36666895e-05 -3.68203758e-03 -3.14675691e-03 ...  2.22825771e-03
    7.57493125e-03  1.02467118e-02]]

 [[-8.14719591e-03 -2.00505066e-03 -8.80919211e-03 ... -1.66545529e-02
    1.98264781e-04 -3.52188433e-03]
  [ 7.94519577e-03 -3.68036679e-03 -8.26357119e-03 ... -2.82117142e-03
   -4.27439064e-03  1.01640765e-02]
  [ 4.09189891e-03  1.91902220e-02  1.09405918e-02 ... -2.29260847e-02
    2.60341149e-02  7.29925465e-03]
  ...
  [-2.73322989e-03  3.00269900e-03 -9.70353652e-03 ... -1.42436460e-04
    9.75819398e-03  2.72412854e-03]
  [-4.47429763e-03 -3.83435097e-03  7.17543124e-04 ...  3.04877380e-04
   -2.06050486e-03  9.71180678e-04]
  [ 2.62887310e-03  1.30386110e-02 -6.04727073e-03 ...  2.77841953e-03
    1.50414938e-02  9.90516134e-03]]]","[[[-8.0379630e-03 -1.1397150e-02  6.5895272e-03 ... -4.8104918e-04
    6.4361342e-03 -1.7982367e-02]
  [ 1.6713880e-02 -7.4547320e-03 -8.1935059e-03 ... -6.0786116e-03
    3.9343906e-04  1.2727174e-02]
  [ 8.3602598e-04 -4.7093845e-04  1.1775230e-02 ...  1.7941458e-02
    3.7530176e-03  1.2726389e-04]
  ...
  [-8.5069388e-03  6.0704816e-03 -2.6644322e-03 ...  1.4289603e-02
    2.4990477e-03  1.7949872e-04]
  [-2.4659745e-03  7.2925440e-03  2.9440995e-04 ... -3.6325373e-03
   -3.6333774e-03  5.0743734e-03]
  [-1.1681193e-03 -3.1502987e-03 -8.2417263e-04 ... -8.8878563e-03
   -5.4872907e-03  3.7874947e-03]]

 [[-4.3994840e-03 -3.4773985e-03  2.4324520e-04 ... -9.8478552e-03
    5.2105407e-03 -1.9750997e-02]
  [ 1.8595811e-02 -1.3364590e-02 -1.0276774e-02 ... -2.4149066e-03
    4.6067307e-05  1.2015791e-02]
  [-5.9196609e-03  9.2464583e-03  1.2100555e-02 ... -1.0529746e-04
    1.1059665e-02  2.6392685e-03]
  ...
  [-9.0694604e-03 -1.5434312e-03 -6.1027420e-04 ...  1.0944259e-02
    3.1392721e-03 -3.2530127e-03]
  [-5.2081901e-03  5.0921394e-03  3.9463271e-03 ... -4.0124017e-03
   -9.6984664e-03  7.1042958e-03]
  [-6.8691955e-03 -2.4716570e-03  1.9219221e-03 ... -4.5141336e-03
    1.7217621e-03  4.9247821e-03]]

 [[-6.2265876e-03 -3.4309099e-03 -8.3524361e-03 ... -1.1521607e-02
    1.5359299e-03 -3.6454347e-03]
  [ 1.2882350e-02 -6.6973963e-03 -8.3052358e-03 ...  3.4863492e-03
    1.8302054e-03  8.2796887e-03]
  [-1.7668627e-03  9.7986450e-03  1.1236874e-02 ... -2.0514486e-02
    1.3186813e-02  1.4143125e-02]
  ...
  [ 1.6841436e-03 -3.1625191e-03 -4.5095668e-03 ...  1.0817234e-02
    8.3824741e-03  9.0089469e-04]
  [-8.0092605e-03 -5.7253698e-03  1.2854898e-03 ...  2.4749055e-03
   -3.7322138e-03  2.5462152e-03]
  [-4.4872337e-03  1.5781630e-02 -3.6363488e-03 ...  3.3484669e-03
    1.3342392e-02  4.4697914e-03]]]","[[[-0.00398386 -0.00772264  0.0057938  ...  0.00473351  0.00824284
   -0.00989352]
  [ 0.00895214 -0.00156958 -0.00267245 ... -0.00431917 -0.00722031
    0.0070815 ]
  [-0.00678315  0.00797656  0.01225333 ...  0.01353118  0.01134362
    0.01009167]
  ...
  [-0.00542716  0.00682501  0.00206868 ...  0.01154234  0.00135912
   -0.00560511]
  [ 0.00461982  0.00886387 -0.00509008 ...  0.00230618 -0.00210026
   -0.01282055]
  [-0.00171301 -0.01082297 -0.00623088 ... -0.0093614   0.00042358
    0.00602344]]

 [[-0.00784571 -0.00772077 -0.00041037 ... -0.00464762  0.00484151
   -0.00810109]
  [ 0.00703803 -0.00614653 -0.0033539  ... -0.00076693 -0.00410725
    0.00330237]
  [-0.01269763  0.0040695   0.01577616 ...  0.00205064  0.0135974
    0.02454954]
  ...
  [-0.0049402  -0.00060447  0.00370769 ...  0.00528302  0.00577831
   -0.00573271]
  [ 0.00647951  0.00504287 -0.00576301 ... -0.00384972 -0.01531604
   -0.01367134]
  [-0.00613218 -0.00785352 -0.00266636 ... -0.00286624  0.00813858
    0.00323665]]

 [[-0.01030169 -0.00732906 -0.01266323 ... -0.00151486 -0.00047379
   -0.00150192]
  [ 0.002471   -0.00358005 -0.00089282 ...  0.00021922 -0.00058921
    0.00102672]
  [-0.0070403   0.00231859  0.01173662 ... -0.01003035  0.00960416
    0.03079813]
  ...
  [ 0.01027326 -0.00461639 -0.0003907  ...  0.00576351  0.00599978
   -0.00646614]
  [ 0.00179311 -0.01108772 -0.00439016 ... -0.00389495 -0.01436528
   -0.01335165]
  [-0.00476274  0.00976819 -0.00688575 ...  0.00787179  0.02100029
    0.00246465]]]"
0.21327873,0.2323298,0.015715152,-0.0067014717,0.25409776,-0.100149654,-0.08365833,0.20248115,-0.1428487,0.017708743,-0.21274427,-0.02572711,-0.1415372,0.114469334,0.06015384,0.37610394,-0.37251955,0.14002638,-0.043742355,-0.15456222,0.17029352,0.04881897,-0.22663401,0.020687863,-0.139044,0.2943465,0.0069717793,-0.09192796,0.16954465,-0.34524328,0.22463995,0.2493774,0.010928879,0.25929376,0.30727652,-0.078549,-0.019850401,0.32902828,-0.1720077,-0.08328723,0.41228303,0.42705703,-0.00066964,-0.019080779,0.019960806,0.13398203,0.061134882,-0.15346734,-0.4025074,-0.051870264,0.2819498,-0.009810146,0.030891316,0.061686665,-0.15253498,0.35344604,0.21272326,-0.5659624,0.21332206,0.033333126,0.21849887,-0.036409263,0.062641956,0.26394272,0.06768085,0.17606515,0.13245596,0.08095345,0.42097098,0.24544701,0.09405176,0.26203027,0.20785904,-0.12689555,-0.07723968,0.060134884,-0.047769457,0.06828316,0.0012195653,0.1366796,0.272098,0.03631851,0.34531713,0.109104455,0.13653885,0.17437081,-0.5806892,-0.1291612,-0.26473427,0.722823,0.055106893,0.06829762,-0.020569118,0.06755724,-0.11810661,0.16614853,0.2650658,-0.14083858,-0.11392605,-0.7647717,0.24344409,-0.05571208,-0.25562465,0.38561007,-0.014487957,0.16336405,0.010023766,0.39732334,-0.7045567,-0.21955603,0.20962057,0.2835768,0.06427487,0.039352704,0.00813224,-0.13799605,0.09315741,0.06410478,0.090297416,-0.42239523,-0.046614185,0.20992163,0.26986477,0.17536461,0.39280593,0.0261149,0.34318426,-0.13668098,0.07666788,-0.07671295,0.1390004,-0.06386192,0.07517057,0.18132779,-0.070241444,-0.01877894,-0.03804553,0.14757948,0.018443443,-0.051208988,0.20166321,-0.07264281,0.15501243,0.110663034,-0.1656159,0.024011096,0.47991705,0.20995867,0.0497292,0.26813987,0.18285073,0.30346417,-0.049177263,0.013215019,0.20912407,0.10767276,0.24539618,0.08343944,0.0805274,0.07644153,0.08562477,0.0049643936,0.12539832,0.24906783,0.19472396,0.04587314,-0.08889409,0.42074397,-0.08211113,-0.14549969,0.27859744,-0.036325242,0.20623496,0.2286931,0.009958868,-0.110201925,-0.0974909,-0.30350444,0.09266127,-0.021022756,0.25957286,0.07111939,0.21106797,0.16297477,0.16276465,-0.047874182,0.04584171,0.03802565,0.12582271,0.3203094,-0.03584999,0.26731926,-0.65291846,0.24810174,0.116309874,0.05647153,0.22318076,-0.08334472,0.13955177,0.05746715,0.19189046,-0.003993137,0.3110733,-0.027787752,0.21685223,-0.12639552,0.34928483,0.07588033,0.41404667,-0.030670477,0.028506225,0.19104901,0.15797722,0.0005552826,-0.16064145,0.1957945,0.22199894,-0.08280208,-0.032132093,0.07237934,-0.17668839,0.24517891,0.0043202117,-0.15372065,0.06397104,-0.3812821,0.7597668,0.0965218,0.039213825,0.008575667,0.18305537,0.03340588,-0.2647583,0.21849154,-0.012129366,0.16746505,0.2706987,-0.14903343,0.018650912,-0.033458702,-0.07183127,0.035777163,-0.16928788,0.2230124,-0.19744928,-0.12894887,-0.03158345,0.06387169,0.108870104,0.17334443,0.1987101,0.043633696,0.26203367,-0.10080312,0.52461076,0.17014655,0.107129,-0.36728346,0.026801592,-0.65956414,0.14610526,0.027570982,-0.18851893,0.1208015,-0.13240105,0.41178495,0.021230608,0.07025275,-0.28378746,0.077302255,0.020181227,0.1665175,0.4793137,0.34291768,-0.033419844,-0.34156176,0.17581561,-0.35908747,0.061088722,-0.049257655,0.15444188,-0.07281153,0.36757374,0.0898908,-0.22248445,0.058151532,0.13067321,-0.22427897,-0.05720473,-0.16211301,0.13024625,0.10276617,0.1650477,0.36519068,0.118729115,0.07387528,-0.020251418,-0.057290435,-0.2320237,-0.3109606,-0.12820281,0.22379702,0.0558057,0.11200536,-0.034475006,-0.38998058,0.34600008,-0.30535194,0.09163556,-0.14623067,-0.063938715,-0.10975955,-0.04879651,-0.13679576,0.019239757,0.20934582,0.2119681,0.37451357,-0.04975879,0.13942395,-0.024797836,-0.07222387,0.18428914,0.13689631,-0.19094782,0.10681245,-0.007825309,-0.066000454,0.34704605,0.098112084,0.4307946,0.0101599535,-0.12654221,0.118208684,-0.52256995,0.07638617,0.04948458,0.4333818,0.06637215,0.2667921,-0.053508215,-0.3333287,0.13847026,0.46235576,0.2120026,0.047072303,0.155368,0.10891836,0.06877573,0.27253437,0.14490208,-0.016868649,0.078676894,0.028239027,0.31150654,-0.4586743,-0.0039836923,0.11467144,0.034067582,0.09548958,-0.37867883,0.07722865,0.118462615,-0.03069911,-0.16306227,0.06278265,0.16269228,0.11014896,0.25004283,0.19256464,-0.032927983,0.08735958,0.058599632,0.04352816,-0.05028125,-0.1855235,-0.08362057,-0.0067740977,0.1485945,0.13021062,0.26232603,-0.028720807,0.032475278,-0.009870797,0.07521817,0.108591266,0.04584159,0.062783696,0.15218471,-0.0074337637,0.10849559,0.27763245,0.011935967,0.013606002,0.20871775,0.040585753,0.26071286,0.4024748,0.21054295,0.4151319,0.074082986,0.099271245,-0.16986512,-0.08311949,-0.7565994,0.28234228,-0.005450692,0.32036048,-0.10619612,-0.05313542,0.050962575,-0.037419055,0.089998834,0.22522417,-0.40276685,-0.042609178,0.20992792,0.12880555,-0.26844352,-0.0069153327,0.34193265,0.13993664,0.36205393,0.09159738,0.20902477,-0.15647027,0.1466548,-0.21641587,-0.013266775,0.14986394,-0.010747361,-0.065882415,-0.19723365,-0.20140594,-0.027792526,-0.15006015,0.094224736,0.20485327,0.043539196,0.17839904,0.18334378,-0.12269696,0.20441404,0.29084685,0.12161936,-0.19464299,0.028600521,0.53195155,-0.27038965,-0.1513904,-0.0047924034,0.22909324,-0.25323883,-0.040255878,0.15043946,-0.043161374,0.093773216,0.48911917,0.035866063,-0.04563377,-0.0063374904,0.08821876,0.20802529,0.41585514,0.17253171,0.10233484,0.36242357,0.09708848,-0.4275294,-0.7444544,-0.2867565,0.24157926,0.2557217,0.23334211,0.37231815,-0.059195004,-0.9171057,0.23028012,-0.10245422,-0.15741168,0.00257903,0.03250261,0.19225234,-0.09964607,0.10644289,0.107584395,-0.044398613,-0.405258,-0.18522473,0.17930497,-0.33195946,-0.014213301,0.13956363,0.27982852,0.12428611,0.18862559,0.30309138,0.29731342,0.03229303,0.06053677,0.17037041,0.28607142,0.100513615,0.06527971,0.3569455,0.0058571887,-0.15308182,-0.010849963,-0.4603464,0.16436121,0.23517226,-0.17672488
