weights
"[[[-0.00230124 -0.00589181  0.00396524 ...  0.00086993  0.00431257
    0.00239815]
  [ 0.00693456  0.0017767   0.01871946 ... -0.03173976 -0.00421442
   -0.01763089]
  [-0.01279008 -0.00650781 -0.00410286 ...  0.00231483 -0.04678227
   -0.00375668]
  ...
  [-0.00047529 -0.02962835  0.03035385 ...  0.00151649 -0.02716959
   -0.00184431]
  [ 0.01417432 -0.00036448 -0.00233754 ... -0.02282377 -0.01600149
    0.0246631 ]
  [ 0.01186082 -0.02772005 -0.02486068 ...  0.0410957   0.05570638
   -0.0219317 ]]

 [[-0.00138295 -0.00554691 -0.00106138 ...  0.00182251 -0.00035902
    0.00999924]
  [ 0.00675601  0.0011039   0.02186376 ... -0.03564092 -0.00245027
   -0.00604407]
  [-0.01358049 -0.0086061   0.01281111 ... -0.00101042 -0.03837898
    0.01184791]
  ...
  [-0.00361973  0.04195568  0.05892465 ...  0.03102488 -0.01035779
   -0.02231383]
  [ 0.01487184  0.01868222 -0.03460577 ... -0.02320622 -0.01911652
    0.00865986]
  [-0.00593924  0.01083617  0.02813769 ...  0.01174144  0.08402791
   -0.0645612 ]]

 [[-0.00099158  0.00045503 -0.00936682 ...  0.00341385 -0.00551317
    0.01249119]
  [ 0.01072214 -0.00319505  0.02477167 ... -0.01632765  0.00899969
   -0.00390315]
  [ 0.00423295  0.01278831  0.01175086 ... -0.01226493  0.00291935
    0.01427003]
  ...
  [ 0.00298261  0.04092214  0.02684277 ...  0.00912894  0.02948689
   -0.003279  ]
  [ 0.00843982 -0.01855581  0.01268128 ... -0.00975666  0.00652654
   -0.00594964]
  [-0.00039472  0.06819508  0.00870231 ...  0.01198502  0.09727167
   -0.00287151]]]","[[[-0.00672968 -0.00632102  0.00124792 ... -0.0055187   0.00554611
    0.00274169]
  [-0.00190284  0.00239738  0.00745098 ... -0.06272504 -0.01167909
    0.01361774]
  [-0.02433497 -0.00958707  0.0051254  ...  0.00020348 -0.05181491
   -0.01062361]
  ...
  [-0.00082369 -0.04524378  0.04490649 ... -0.01489737 -0.03742132
   -0.02507511]
  [ 0.01205339 -0.00414178 -0.02232535 ... -0.08560444 -0.02150038
    0.05370148]
  [ 0.01720667 -0.02448263 -0.01100374 ...  0.04800767  0.03215368
   -0.0296083 ]]

 [[-0.00456148 -0.0046528  -0.00831684 ... -0.00554832  0.00118862
    0.00964665]
  [ 0.00262077  0.00577449  0.01197205 ... -0.06839665  0.00135026
    0.00591752]
  [-0.02973863 -0.00390353  0.01289642 ...  0.00062738 -0.04467322
    0.01304196]
  ...
  [-0.00297931  0.07042628  0.04677052 ... -0.02634397 -0.02755912
   -0.03544786]
  [ 0.00999665  0.0162281   0.00801675 ... -0.07521603 -0.01953307
    0.00738805]
  [ 0.00095306  0.05067848  0.02040597 ...  0.00451843  0.04477615
   -0.07429281]]

 [[-0.00281609 -0.00036899 -0.00952884 ... -0.00162106 -0.00423267
    0.01359607]
  [ 0.00726349  0.00317443  0.02061753 ... -0.03997324  0.02229334
   -0.00741375]
  [-0.01379943  0.02294671 -0.00629038 ... -0.00579428 -0.01508362
    0.01313182]
  ...
  [ 0.00200411  0.03915206 -0.03186832 ... -0.00354398 -0.00854785
    0.00136237]
  [ 0.00549011 -0.0151369   0.02772137 ... -0.0281146   0.00097287
   -0.00628186]
  [ 0.00710675  0.08028653  0.00619208 ...  0.01035702  0.07634237
   -0.00715953]]]","[[[-1.08065400e-02 -7.45501043e-03 -5.10151871e-03 ... -4.49332688e-03
    7.89736584e-03 -3.35464210e-05]
  [-6.12053089e-03 -1.79325249e-02 -1.11700445e-02 ... -4.62095961e-02
   -4.28734301e-03  2.02734675e-03]
  [-2.64673289e-02 -1.31910611e-02  1.76633168e-02 ... -6.08402630e-03
   -3.14402916e-02 -1.81844179e-02]
  ...
  [ 1.37444083e-02 -2.84396205e-02  1.88047513e-02 ... -1.93887874e-02
   -3.75849679e-02 -2.45505963e-02]
  [ 7.21093081e-03 -1.23673957e-02 -5.60066104e-03 ... -4.09601741e-02
   -1.16450675e-02  3.63268666e-02]
  [ 1.34990485e-02 -1.55054999e-03  5.54364361e-03 ...  3.92058305e-02
    2.16900297e-02 -1.13665536e-02]]

 [[-8.32169224e-03 -6.18967554e-03 -1.13438964e-02 ... -3.40542640e-03
    3.85991205e-03  7.26305228e-03]
  [-2.55200220e-03 -1.41635584e-02 -3.80055211e-03 ... -5.45916855e-02
    2.17752811e-03 -5.23553835e-03]
  [-3.21345851e-02 -2.83276942e-03 -2.20403913e-03 ... -1.67740230e-02
   -3.22663859e-02  2.23135133e-03]
  ...
  [ 3.27714277e-03  8.55310634e-02 -2.84323972e-02 ...  2.72681676e-02
   -3.39798741e-02 -1.60314962e-02]
  [ 3.99958156e-03  1.23148263e-02  3.01949140e-02 ... -5.21975756e-02
   -1.14355180e-02 -7.70385157e-07]
  [-1.03606293e-02  7.14352727e-02  1.61257926e-02 ... -1.47721104e-04
    9.00403503e-03 -3.94313596e-02]]

 [[-5.75947622e-03  4.07667161e-04 -5.18753566e-03 ...  8.14088504e-04
   -4.34151705e-04  1.14657767e-02]
  [ 4.41048900e-03 -3.57159856e-03  3.01857502e-03 ... -3.98184508e-02
    1.49278138e-02 -8.20163079e-03]
  [-2.44483184e-02  2.32945569e-02 -2.34904625e-02 ... -1.79554094e-02
   -3.21781076e-02  1.07798241e-02]
  ...
  [ 5.12963720e-03  2.35215593e-02 -3.53378877e-02 ...  3.48278917e-02
   -2.01826524e-02  2.35197158e-03]
  [ 3.45730968e-03 -1.26461498e-02  1.03930170e-02 ... -3.20292413e-02
   -6.37839548e-04 -7.48459855e-03]
  [ 3.67492763e-03  6.75461590e-02  9.46969260e-03 ...  4.72220499e-03
    4.39464301e-02  6.21765293e-03]]]"
-0.06418542,-0.11568324,-0.13206749,0.060853597,0.2689488,-0.101777084,0.057532415,-0.025370102,0.024533065,-0.16847736,0.1316739,-0.011810066,-0.27968737,-0.017106574,0.14509922,-0.2100034,0.09921633,-0.012730278,-0.104283236,0.11836739,-0.21125603,-0.22762309,0.44482312,0.040798746,-0.30996218,-0.038139127,-0.2617242,0.04896495,0.14684829,-0.09759409,-0.16100882,-0.081153475,0.2567695,0.09040406,0.035389364,0.23496653,-0.59533477,0.280156,0.022697218,0.15407647,0.10761564,0.15549968,-0.27726585,0.14555272,-0.07341251,0.008647802,-0.08294716,0.16158143,-0.17374775,-0.0075174123,-0.2599541,0.0932769,0.35911047,-0.092188574,0.081890605,-0.24053718,-0.12922512,-0.018620463,-0.11662732,-0.11673097,-0.1816601,0.16486758,-0.04786587,-0.043979928,0.14281501,0.26927033,0.3568714,0.03537106,-0.17966093,0.04918984,0.63375777,-0.20748404,-0.06041681,0.12094544,-0.08843092,-0.30141872,0.28632042,0.10882995,0.14509913,-0.045855943,-0.088464916,0.13556598,0.16782367,0.07018866,-0.107370816,0.44746682,-0.08115204,-0.046834983,0.18236732,-0.019139081,-0.020786704,0.37967235,0.07472062,-0.09300313,0.3070309,0.0155034065,0.15720516,-0.18576111,0.075953394,-0.28695267,0.20711343,-0.22942008,0.17479539,0.2029741,-0.44217134,0.04695964,-0.14719886,-0.024739666,0.14871362,0.005264414,0.0049016555,-0.17585608,-0.00920897,-0.25866592,-0.012547817,0.049573675,0.173761,-0.019134266,-0.106785804,0.018788522,-0.083175175,0.066695474,0.010670638,0.37834755,0.117178276,0.20528455,0.2403423,0.27507326
