weights
"[[[-4.13556537e-03  7.47195398e-03 -3.50115891e-03 ...  4.89854301e-06
   -2.53839465e-03 -5.25326468e-03]
  [-9.53834411e-03  1.41056092e-03 -1.65442061e-02 ... -1.52774970e-03
    1.11036829e-03 -1.79786165e-03]
  [-3.51967965e-03  8.38233996e-03  1.37014373e-03 ... -2.04362301e-03
   -3.33098392e-03 -3.59164621e-03]
  ...
  [-4.51420387e-03 -9.90713015e-03 -7.90119357e-03 ... -2.74181948e-04
    8.04592157e-04 -9.21490043e-03]
  [ 4.13362030e-03  1.64503278e-03 -1.24853069e-03 ... -4.80085961e-04
    1.43603736e-03 -2.37931171e-03]
  [-9.46063921e-03 -3.02881887e-03 -3.93793161e-04 ... -8.37404653e-03
   -8.49721371e-04  2.19010212e-03]]

 [[-4.10446478e-03 -1.54824147e-03 -5.41875651e-03 ... -2.24129972e-03
   -2.28596875e-03 -3.34858289e-03]
  [-4.84787673e-03  2.47201161e-03 -1.29879676e-02 ...  8.18996597e-03
   -4.54588607e-03  9.62644164e-03]
  [-3.10205529e-03  3.47901974e-03  2.52036308e-03 ... -5.83003787e-03
    1.09997432e-04 -3.84454383e-03]
  ...
  [-7.76591944e-03 -1.44146327e-02 -7.61551922e-03 ... -3.92687973e-03
   -6.16982626e-03 -5.35330735e-03]
  [ 1.01468374e-03  1.67173836e-02 -6.25725277e-03 ... -2.52300198e-03
   -4.94909706e-03 -9.14588978e-04]
  [-7.97870383e-03 -4.20195796e-03  1.45270012e-03 ... -1.22739337e-02
   -2.10561347e-03  5.49114076e-03]]

 [[-2.88630649e-03  2.41750688e-03  1.50172273e-03 ... -1.28930504e-03
   -4.96551802e-04  2.69375363e-04]
  [ 3.95747193e-05 -1.94887386e-03 -7.08143180e-03 ...  1.00128017e-02
   -4.74765385e-03  1.33702094e-02]
  [ 4.38523851e-03  2.79099098e-03 -4.09206329e-03 ... -2.73540127e-03
   -3.12048779e-03 -2.88168900e-03]
  ...
  [-4.95913485e-03 -1.23296445e-02 -5.42156352e-03 ... -2.32423958e-03
   -8.56377464e-03 -7.15223281e-03]
  [-6.16921112e-03  1.57617237e-02 -4.47978219e-03 ... -2.25248467e-03
   -9.93228331e-03 -6.10898901e-03]
  [-4.50641429e-03 -5.51745854e-03 -2.20075878e-03 ... -1.30875418e-02
   -3.93497292e-03  6.03448506e-03]]]","[[[-0.00441893  0.01374865 -0.00845908 ... -0.00221223 -0.00215952
    0.01234091]
  [-0.00633585 -0.00442368 -0.00391021 ... -0.00976586  0.01045097
   -0.01362366]
  [-0.00440114  0.00794552  0.0024298  ... -0.00541694  0.0008711
   -0.00986628]
  ...
  [-0.01345191 -0.01004303  0.00015145 ...  0.00016009  0.00375669
   -0.00909452]
  [ 0.00245954  0.00574874 -0.0040652  ...  0.00402215  0.00762884
    0.00594564]
  [-0.00932597 -0.00113636 -0.00624895 ... -0.01084639  0.00140982
   -0.00077058]]

 [[-0.00551303  0.00581868 -0.01079017 ... -0.0034392  -0.00076322
    0.01367309]
  [-0.0016712  -0.00332676  0.00743534 ... -0.00350478  0.00662457
   -0.00499307]
  [-0.00586137  0.00061301  0.00830108 ... -0.00987416  0.00506723
   -0.00771903]
  ...
  [-0.01296702 -0.01552689 -0.0008496  ...  0.00630461  0.00053288
   -0.00607468]
  [-0.001121    0.02913282 -0.00423872 ...  0.00293749  0.00034716
    0.00826061]
  [-0.00598739 -0.00091471 -0.00392263 ... -0.01368813 -0.00081274
    0.00736264]]

 [[-0.00341959  0.00466368  0.00337765 ... -0.00256141 -0.00012163
    0.01150595]
  [ 0.00024042 -0.00377302  0.00658438 ...  0.00960139  0.00205661
    0.00979974]
  [ 0.00013291  0.00019025  0.00061713 ... -0.00872794 -0.00145053
   -0.00349612]
  ...
  [-0.00977272 -0.01077881 -0.00095464 ...  0.00630755 -0.00278573
   -0.00598356]
  [-0.01039546  0.02610913 -0.00507673 ... -0.00280671 -0.005537
   -0.0021062 ]
  [-0.00311571 -0.00308539 -0.00310157 ... -0.01598789 -0.00333151
    0.01186521]]]","[[[-4.2671561e-03  8.6341724e-03  1.7652971e-03 ... -2.8422798e-03
   -1.7543967e-04  2.9053766e-02]
  [-6.2939692e-03 -1.7627547e-03 -6.4216333e-04 ... -1.0105241e-02
    3.4342369e-03 -1.4130542e-02]
  [-3.6809444e-03  6.3918484e-03  7.0706666e-03 ... -2.2408767e-03
    8.5504102e-03 -8.3152344e-03]
  ...
  [-1.1885087e-02 -7.7857212e-03 -4.2475513e-03 ... -1.4399203e-04
    2.0137463e-04 -2.3316361e-03]
  [ 2.3076113e-03 -9.4756729e-04 -1.7958174e-03 ... -4.0580230e-03
    5.8343685e-03  1.2485386e-02]
  [-7.3929471e-03  6.4117559e-03 -1.0152967e-02 ... -1.1733285e-02
    1.6978072e-03  1.1535814e-03]]

 [[-4.6121934e-03 -3.5942027e-03 -8.2181441e-04 ... -4.8108459e-03
   -4.4486544e-04  3.1866912e-02]
  [-1.1539590e-03 -5.1289191e-03  9.7467536e-03 ... -7.8298040e-03
    7.2513451e-03 -6.9858804e-03]
  [-5.9842491e-03  1.1220410e-04  9.4399462e-03 ... -4.5127114e-03
    8.9411046e-03 -8.3627049e-03]
  ...
  [-1.3188217e-02 -9.5722694e-03 -6.3713710e-03 ...  1.0499933e-02
   -1.7612021e-03 -3.1374573e-05]
  [ 1.2250920e-03  1.1734973e-02 -2.2689565e-03 ... -6.6982009e-03
    4.2833821e-03  1.2915190e-02]
  [-2.2119964e-03  1.1930618e-02 -3.4169836e-03 ... -1.3236060e-02
   -4.9758790e-04  1.2657574e-02]]

 [[-3.6493365e-03 -4.8295893e-03  9.1463216e-03 ... -4.0211002e-03
   -1.5776309e-04  1.7022394e-02]
  [ 6.2981062e-04 -2.4336097e-03  6.3404059e-03 ...  3.3698996e-04
    6.9553531e-03  1.7051429e-03]
  [-3.2497647e-03  2.3004047e-03  4.1508605e-03 ... -4.7083613e-03
   -1.0490182e-03 -6.1327210e-03]
  ...
  [-1.1339144e-02 -4.9630310e-03 -2.0990700e-03 ...  9.2041595e-03
   -3.3332622e-03 -1.5291425e-03]
  [-3.9932737e-03  1.2346098e-02 -3.6278801e-04 ... -9.9673308e-03
   -2.5808956e-03  4.8798025e-03]
  [-1.0323566e-03  1.2147743e-03  4.8963266e-04 ... -1.4984296e-02
   -3.0221639e-03  1.4877313e-02]]]"
0.03757768,0.023315316,0.048773207,-0.013154391,0.15638612,0.12311767,-0.009895861,0.07150635,0.06510945,-0.046683747,0.10842596,0.07742759,0.110251516,0.019295277,0.08017108,0.023611963,0.07754225,0.05697552,0.045614347,0.109167516,0.06846321,-0.024873676,0.018076455,-0.043679006,0.00023397934,0.034621406,0.0062007275,0.036381107,-0.0015585665,-0.04967355,0.3232763,-0.019624947,0.03841858,0.12020576,0.109417096,-0.055119414,0.11006371,-0.07153785,-0.004009651,-0.0055172117,0.043076962,0.055916604,0.022704074,-0.056608614,0.03197372,0.05856061,-0.031554706,0.0750049,0.016900662,0.10063965,0.13211098,0.013788224,0.069108605,0.083813466,0.09018628,0.10431567,0.024104081,-0.0104453005,0.15704411,-0.008385519,0.04527769,0.2688106,0.04624177,0.16144611,-0.00897112,0.007499357,0.005900451,-0.023732442,0.0556174,0.07361988,-0.012627738,0.095962696,0.006562666,0.23978747,-0.07634565,0.050590903,-0.014870354,-0.016964952,0.061679848,0.089075334,-0.016012304,0.060309432,0.099976,0.093776956,0.119709454,-0.0071295165,0.15759468,0.11709958,0.04329973,0.0031019133,0.043473158,-0.014403016,0.025014803,0.0038036997,0.0357967,-0.020499349,0.04414341,0.11937926,-0.07779743,0.08299183,-0.010964592,0.006940965,0.09363926,0.02119618,0.035381015,0.059904218,0.083748825,0.16117263,0.039417572,0.043880656,-0.044669855,0.0757642,0.025405925,0.10769763,-0.022641627,-0.075174786,0.11658868,0.040780913,0.06544055,-0.07986124,-0.05346229,0.13503416,-0.008230035,0.08718773,0.062287115,-0.07360352,-0.06415313,-0.034089837,0.04079522,-0.017643215,0.15475896,0.042244863,0.059363168,-0.08936711,-0.038733758,0.03133551,-0.012858044,0.09129206,-0.037005078,0.07268551,0.12649633,0.06187276,0.007487816,0.02129408,0.08530482,0.11606047,0.08071677,-0.11168813,0.07469155,-0.044196047,0.03928038,-0.02149935,-0.026901133,0.010302925,0.08148915,-0.09100456,0.05435005,-0.08820043,0.008829788,0.04336391,0.07132112,-0.0412511,0.039869286,-0.06198926,-0.060180683,0.020127883,-0.003587582,0.037866555,0.0013890233,0.0803192,-0.037295498,-0.006326261,0.08304662,0.049289625,0.12665151,0.007763562,-0.029474542,-0.00078052643,0.069222376,0.13036212,0.18479024,0.019182097,-0.014990281,0.110085964,0.0689912,-0.0003025788,-0.11596162,0.056294307,0.045594726,0.03661183,0.051809963,0.041900717,0.034569923,-0.02126272,0.02034894,-0.0037745922,-0.07308222,0.033692952,0.09807113,0.07448104,-0.13762324,0.098737784,0.07384421,0.05823263,-0.04734346,-0.0029503428,0.007633973,0.039380763,0.06299252,0.00416262,0.13052909,-0.007886021,0.097698,0.115821004,0.018124301,-0.07632054,0.0007112379,0.079973,-0.031890023,0.04173827,0.011307845,0.038929723,-0.017282074,-0.05586381,-0.0004651792,-0.001730235,-0.007813726,-0.005397937,0.0022387023,0.017366271,-0.019837769,-0.025805494,0.10919879,0.0070022005,0.011000265,-0.06276009,-0.0033250912,0.22391827,0.010188655,-0.028221944,0.07381327,0.029166156,0.031351205,-0.025142252,-0.012169354,0.10912206,-0.017483339,-0.023734033,0.11058299,0.06281248,0.061711438,0.02629497,0.023010442,-0.0028044342,0.010475424,-0.04649873,0.12154912,0.036775064,0.028701367,-0.12765281,-0.0133002065,0.13017432,0.017220436,0.1415604,-0.10637238,0.060937386,0.032299265,0.33766547,0.07695829,0.064108126,-0.09239398,0.17557777,-0.07040269,0.017578285,-0.037561007,0.09566358,-0.05078707,-0.027525859,-0.061952163,0.002957779,0.1065057,-0.07439668,0.030447278,-0.019955918,0.043940835,0.051686898,0.044178654,0.007648831,0.08631489,0.09034942,0.053087596,0.055597097,0.06364138,0.054776493,-0.012460705,0.004544041,0.027398644,-0.044517744,0.11465809,0.013727116,0.023250666,0.002340962,0.0020958106,0.0049643805,0.041875042,0.02298095,0.029714253,0.03223028,0.0911867,-0.05367658,0.07123903,0.00889193,0.0742134,0.14185879,-0.08392871,0.092142224,0.08633705,0.07902923,0.043919213,0.019680938,-0.027753383,0.11550324,0.15836093,-0.08542589,0.008246798,0.00585923,0.093254365,-0.045550667,0.092676476,0.115752965,-0.029757803,-0.02866574,-0.015292615,0.027087925,-0.014603375,-0.02502295,0.03277912,0.086578645,0.0028836299,0.044942714,0.010919518,0.054319024,-0.0073439553,0.061205436,0.09585663,0.097350776,0.014208368,-0.016950503,-0.014971343,-0.0056250268,0.04466617,0.07968368,-0.011695691,0.08776035,-0.041172393,0.057543464,0.032962047,-0.019044673,-0.02897804,-0.023924705,0.09703968,0.047569852,0.07769238,-0.025934735,0.026009774,0.073601365,0.06406946,0.042802066,0.1268561,0.15957959,0.088395745,-0.0054230993,0.026338771,0.018568296,0.06538827,0.010997519,0.06887885,0.057441298,0.059333347,0.05489456,0.060945135,0.085964434,0.20277055,0.04290832,0.07979305,0.09530346,-0.012844788,-0.010490309,0.017332204,-0.052467477,-0.031913932,0.049303025,0.0027147948,0.16239083,0.120086335,0.12680414,-0.05883314,0.15302224,0.05098786,-0.01868429,0.060098704,0.052387197,-0.07518645,0.0164993,-0.05401648,0.00036146166,0.08464499,-0.019579088,0.05589032,0.044069484,-0.04932883,0.062527195,0.008780132,-0.00041812446,0.012357043,-0.037897065,-0.06561768,-0.021702658,0.061286945,-0.027666396,-0.027197324,0.00820612,0.06855047,-0.037826892,-0.04827862,-0.027399316,-0.03264789,-0.0031534028,0.08872753,0.106631555,0.036494967,0.162101,-0.041940108,-0.10798238,0.04457752,0.057782732,0.22318526,-0.03655988,-0.010374095,0.07375433,-0.0052115223,-0.1001831,0.009832826,-0.14258565,-0.022405537,0.086060695,0.083522186,-0.041428313,-0.06317015,0.00044978512,0.11190747,0.0034271933,0.047062896,-0.06429797,0.06846847,-0.004965689,-0.0070567774,0.00994444,0.11045607,0.069514915,0.20704572,0.021583496,-0.08140406,0.056658223,0.3214059,0.013366801,0.04547478,0.034411993,0.024786603,-0.19835947,0.051626787,0.08083984,0.039884366,-0.0063809105,0.014952301,0.08167622,0.15323481,0.051294416,0.0035012807,0.013541962,0.041372195,0.1526839,-0.030054763,0.034382727,0.038474604,-0.023044534,0.13971381,0.10547323,0.019854737,0.09143047,0.0007074732,-0.008165471,0.042476602,0.1283193,0.025554396,0.022807062,-0.035752624,-0.024486342,0.019440468,-0.015809877,-0.093785614,0.04627247,0.031873517,-0.011650325,0.16348428,0.05404903,-0.009967377,0.0026050396,-0.07919379,0.07228316,-0.12903117,0.05372257
