weights
"[[[-6.0689339e-04  1.4231558e-03  7.3316055e-03 ...  2.6178278e-03
    4.3357504e-04 -2.9434897e-03]
  [-4.8605306e-03  4.9075234e-04 -1.2511463e-03 ...  1.1560039e-03
   -1.2683710e-04 -1.5934335e-02]
  [ 8.2136225e-03  7.4967248e-03  4.4443067e-03 ... -1.0573096e-02
   -1.3803735e-02 -2.0028956e-03]
  ...
  [ 2.0234480e-03 -5.8380342e-03 -2.3825851e-03 ...  1.3192679e-03
   -8.6920448e-03 -8.2156417e-04]
  [ 7.9414165e-03 -8.0086980e-03  7.7348115e-04 ...  9.1014095e-03
    6.8836473e-04 -9.8630879e-03]
  [ 7.3094536e-03 -1.1607672e-03  5.1686643e-03 ... -1.8046533e-03
   -7.7111748e-05  3.5778836e-03]]

 [[-1.5249068e-03 -3.1574788e-03  4.5571220e-03 ... -8.1634670e-03
   -8.1500728e-03 -5.8323247e-03]
  [-1.2195857e-03 -5.4482273e-03 -8.4939813e-03 ...  1.3417795e-03
   -1.3884302e-03 -1.6707450e-02]
  [-2.9635590e-03  6.9369110e-03  5.6030410e-03 ... -1.8767575e-02
   -4.3791626e-03 -7.9249451e-03]
  ...
  [-6.8472535e-04 -2.8301261e-03  1.2871494e-03 ...  1.8639782e-02
   -1.4961872e-02 -1.3423259e-03]
  [-1.5397326e-02 -1.0199412e-03  1.0786263e-02 ...  1.0112063e-02
   -6.9852192e-03 -6.4757215e-03]
  [ 1.0720392e-02 -3.2282835e-03 -1.0194050e-04 ... -4.7621364e-03
    1.0120733e-02  5.2126674e-03]]

 [[ 4.6802587e-03 -1.5438132e-03  9.8896343e-03 ... -2.5150599e-03
   -3.5095667e-03 -5.6064618e-03]
  [ 1.0596886e-02 -1.0044489e-02  1.8063044e-03 ... -2.9223200e-03
    8.0995419e-04 -2.0323446e-02]
  [-1.7607687e-03  2.3017763e-03 -1.5706603e-03 ... -1.1904801e-02
   -5.6624818e-03 -2.7024033e-03]
  ...
  [-8.9463210e-03 -7.5343349e-03  7.4039923e-04 ...  1.2268053e-02
   -1.3198548e-02 -3.2026084e-05]
  [-3.9164912e-02 -7.5820535e-03  1.3907746e-03 ... -6.6482779e-03
   -1.0733108e-02 -9.9823792e-03]
  [ 6.8326667e-03 -2.0392942e-03  4.8815343e-03 ... -2.2594277e-03
    1.3842926e-03  7.3076310e-03]]]","[[[ 4.3825014e-03 -8.4557459e-03  6.0976552e-05 ... -1.5721424e-03
   -6.2847957e-03 -6.0747643e-03]
  [-1.9328265e-02  4.7232583e-03  5.4184967e-03 ... -7.3021773e-04
    5.4419693e-03 -1.3912930e-02]
  [ 5.5229296e-03  4.6481588e-03 -7.7780159e-03 ...  2.7554642e-04
   -1.3050669e-02 -3.9565605e-03]
  ...
  [ 3.2179512e-04 -3.4885360e-03 -1.0874616e-02 ...  8.2677584e-03
   -1.1178210e-02  7.5714481e-03]
  [ 4.0616496e-03 -7.2419085e-03 -1.3705336e-03 ...  1.0747767e-02
   -7.4744545e-04 -1.1671883e-02]
  [ 1.2030830e-03  7.4582128e-04  3.5220869e-03 ... -1.7955588e-04
    2.9120417e-03  6.2693246e-03]]

 [[-5.1713228e-04 -1.3903971e-02 -2.6596109e-03 ... -8.2665663e-03
   -1.9626400e-02 -7.4289762e-03]
  [-6.0759084e-03 -9.6884841e-04  6.0364590e-03 ... -9.3692346e-03
    4.3691956e-03 -1.3639066e-02]
  [-9.0519208e-03  9.6781654e-03  8.6934352e-03 ...  9.1049206e-03
   -9.7425170e-03 -7.6264590e-03]
  ...
  [-3.8311486e-03  7.1369117e-04 -1.1714270e-02 ...  1.6859323e-02
   -1.6344676e-02  1.2910481e-02]
  [ 9.2128823e-03 -1.5336460e-03  5.2924841e-03 ...  3.0931132e-03
   -9.8296702e-03 -5.3623371e-04]
  [ 3.9525158e-03  9.3688892e-04  3.7328359e-03 ... -5.5979183e-03
    1.0980255e-02  1.2100901e-02]]

 [[-1.7740640e-03 -1.1662573e-02  1.6112716e-03 ...  1.2962105e-04
   -1.1654774e-02 -5.4892940e-03]
  [ 1.5333769e-02 -6.9049154e-03  9.9986177e-03 ... -1.2304787e-02
    1.6369390e-03 -1.8881094e-02]
  [-1.9262903e-04  2.8037187e-03 -1.7493139e-03 ...  2.6137648e-02
   -9.3979454e-03 -4.5618960e-03]
  ...
  [-6.4418763e-03 -2.7641824e-03 -8.7552797e-03 ...  1.0848792e-02
   -1.2664125e-02  1.1188427e-02]
  [-1.4976529e-02 -8.0800392e-03  1.1753010e-03 ... -1.4212406e-02
   -1.4587110e-02 -5.5110687e-04]
  [ 4.9651507e-03  1.9658136e-03  4.4132387e-03 ... -3.2392361e-03
    3.2961257e-03  1.0079567e-02]]]","[[[-1.0813643e-02 -1.2109953e-03  4.0739947e-03 ... -3.7609618e-03
   -8.4045194e-03 -4.1101421e-03]
  [-1.6155045e-02  3.3042664e-04  2.8314698e-03 ...  3.8799408e-03
    1.0882318e-02 -1.2172839e-02]
  [ 1.3959367e-02  4.1269679e-03 -5.6302696e-03 ...  8.7758545e-03
   -3.2438899e-03 -3.4345812e-03]
  ...
  [ 9.1708098e-03 -6.2859273e-03 -1.2609004e-02 ...  1.6977531e-03
   -9.6289860e-03  5.1916544e-05]
  [-9.7496519e-03 -2.1479633e-03 -1.9520836e-02 ... -9.5207070e-04
    6.3222921e-03 -1.7897552e-02]
  [ 3.9352821e-03  4.7744825e-03  2.0808049e-03 ...  9.7545320e-03
   -1.2982457e-02  4.6863281e-03]]

 [[-6.3140173e-03 -2.0006283e-03 -4.0322897e-04 ...  7.0220581e-03
   -1.3161357e-02 -7.2546205e-03]
  [-7.1486277e-03  7.5339980e-04  1.3867128e-03 ... -6.8810834e-03
    4.9706153e-03 -1.2716940e-02]
  [-1.4313880e-03  7.5597558e-03 -2.7771997e-03 ...  3.3415109e-02
   -3.9894031e-03 -6.9557610e-03]
  ...
  [ 4.2238324e-03 -4.8141801e-03 -1.0185721e-02 ... -6.8885856e-04
   -1.6479922e-02 -1.7523849e-04]
  [-6.4725848e-03 -3.6925147e-03 -8.9367675e-03 ... -5.6522340e-03
   -8.0006220e-04 -1.0039192e-02]
  [ 5.7996372e-03  3.7618543e-03  1.6103454e-03 ... -5.3754007e-04
   -1.7849701e-02  5.1220311e-03]]

 [[ 6.7127135e-04 -3.2391129e-03  7.8760099e-04 ...  7.2297198e-03
   -5.2612908e-03 -4.2801294e-03]
  [ 5.4616379e-03 -1.8265145e-03  8.0440696e-03 ... -5.5095245e-04
   -1.2544187e-03 -1.7182948e-02]
  [ 4.7172702e-04  6.6203335e-03 -5.3720833e-03 ...  4.0812425e-02
   -3.6152611e-03 -5.1507959e-03]
  ...
  [-1.1449282e-03 -6.4645633e-03 -1.2517356e-02 ... -6.6413991e-03
   -1.0809171e-02 -2.6953095e-03]
  [-1.4766367e-02 -5.9053781e-03 -8.8806386e-04 ... -1.0663199e-02
   -5.6493361e-03 -4.9214857e-03]
  [ 4.3073772e-03  3.5157984e-03  4.7004086e-04 ... -2.4001813e-04
   -1.6719183e-02  4.8483759e-03]]]"
0.09722325,-0.07323014,0.15150416,0.10736838,-0.078755595,-0.024124699,0.084803104,0.062493417,0.288872,0.15583034,0.1340043,0.069819994,-0.21719334,0.10586968,0.22225656,-0.028781574,0.064758405,-0.13882713,0.2053091,0.11927832,-0.041813143,-0.011132869,-0.0871209,0.075566255,0.26406905,0.09739077,-0.065601915,-0.13958447,-0.1626467,-0.008774668,0.20975289,0.12062567,0.23302712,0.01427185,0.12702467,0.043307666,0.10756285,0.025610125,-0.0722439,0.05701549,0.035098244,-0.044119217,-0.0765858,0.18153287,0.18032633,0.16874757,0.09780415,0.018026205,-0.01435195,0.07418736,0.09395846,0.11945952,-0.12609407,0.3074645,-0.09784752,0.15083815,0.011139003,-0.13422738,-0.01334905,0.14518274,0.049508706,0.2925217,0.013672249,-0.09931725,0.0022462506,0.11246505,0.016694473,0.01581534,-0.26169056,-0.05425174,0.083271034,-0.08742069,-0.10809381,-0.13422264,0.08931898,0.1589001,0.07232179,0.053515587,-0.09789908,-0.02227373,0.16605732,0.014678359,0.04883099,-0.061878543,-0.0024268848,-0.035090502,-0.057028413,0.21177617,-0.058709227,-0.04172187,0.18739696,-0.08783167,0.18157242,0.0031036022,-0.10642232,0.26118934,0.077365145,0.2530472,0.0677449,0.06990372,-0.12144662,0.032743342,-0.07329807,-0.12971817,-0.19333884,-0.14785966,-0.07926179,0.087638214,0.008396609,0.039458726,0.06216666,-0.0045317058,0.12938692,-0.0055611446,0.15221293,0.011749815,0.19409356,0.0018704212,0.12057397,-0.06696393,0.09790689,-0.044262286,-0.013906335,0.08040949,0.004767207,-0.019730235,0.06300217,0.19651376,0.2647768,-0.2854239,0.05211711,0.15966006,0.13852009,0.16985203,-0.07981633,0.18167078,0.12825602,0.041935872,0.00041507187,-0.08137282,0.24541089,0.060289193,-0.095701516,0.02094704,0.0038057598,0.09276221,0.24951026,0.12656322,-0.038525317,0.30503362,-0.05899558,-0.0025187384,0.13983336,0.002530286,0.23534653,0.08096497,-0.0555667,0.025418228,0.0357311,0.04156298,0.18259966,0.13621901,0.05860136,-0.012133521,0.018935636,-0.0034044336,-0.09086359,0.03127334,0.23871583,-0.06425009,0.14596917,0.027623896,-0.087461814,0.0740504,-0.003937755,0.22510512,-0.043989036,0.042256948,-0.16712327,0.104955435,0.007863877,0.23947366,0.08346659,0.062132586,0.16789465,0.111196324,0.17406699,0.15115465,0.12034889,-0.0075829364,0.100768656,-0.07465686,0.07410888,0.07293396,-0.073353335,-0.030051753,0.10352587,-0.11079586,-0.07805996,0.12777765,-0.041772313,0.13070746,0.050969765,-0.099833496,0.25305307,-0.06563499,0.21043575,0.09958201,-0.08785358,0.21153069,0.005905046,0.17538603,0.11654129,0.06418048,0.23166901,0.007782363,-0.13298374,0.002638129,0.20807272,0.0076712877,-0.050370026,0.025423214,0.094174094,0.08435359,-0.024500608,0.3120138,0.049025524,0.20341544,-0.018483976,0.14399928,0.062519334,0.045086127,-0.21630211,0.5038293,0.0739306,-0.016385268,0.056081213,-0.06627127,-0.022979854,-0.12370829,0.33780083,0.13784254,0.09203932,-0.03440862,-0.13706638,0.48211238,0.13164645,0.090932615,-0.10624032,0.19596778,-0.1061156,-0.019859912,-0.16644327,-0.11492197,0.08884208,0.066823006,0.22192359,-0.042654548,0.08013477,0.1999606,-0.14355764,-0.038367134,0.18205197,0.12595728,0.29321954,-0.057429936,-0.15735483,0.05859905,0.29756245,0.028944695,0.04407046,-0.013588731,0.097063884,-0.08052767,-0.261095,0.25652254,-0.20700996,-0.08217857,0.44950986,-0.0042543346,0.047845826,0.093326606,0.21950856,0.10676483,-0.051193032,0.072879195,-0.09174168,0.052210648,-0.052810423,0.16266952,0.059123415,0.1962728,-0.07364109,-0.081844315,0.154232,0.03455409,0.07774174,0.039471086,-0.1874918,0.09311388,0.08369699,0.05337066,0.05670628,0.21719043,-0.105187416,0.20849825,0.10422326,-0.18598638,-0.09218678,0.0670548,-0.055585258,0.18505618,0.08373404,0.04818724,0.10276174,-0.12783666,-0.12522385,-0.07840985,0.039330028,-0.17061003,0.043914393,0.14539945,0.18379337,-0.04632683,-0.091070645,0.13047056,0.0034573544,-0.09397164,0.21517606,-0.2005025,-0.06556881,-0.18277931,0.07545644,0.24592687,0.09013868,0.04417171,0.009595106,0.029908061,-0.3508028,0.1491089,-0.06895501,0.029276859,-0.2597705,-0.0768297,-0.17764105,0.45749226,0.1858593,-0.11446404,-0.035190724,0.16910523,-0.01927024,-0.050096516,0.00063709926,0.029395575,0.02191263,-0.108865,0.03137079,-0.13187478,0.01343211,0.012556793,0.10772175,-0.15330826,-0.07100922,-0.07279356,0.28564107,0.044793513,-0.05520701,-0.013042261,0.12381716,-0.017404493,-0.19913031,0.07323315,0.07547112,-0.17357434,0.006644123,0.0379291,-0.016312953,-0.10555635,0.05558623,-0.017732486,0.034868833,0.05444657,-0.07103037,-0.070225306,-0.05717877,0.046973493,-0.083844304,0.043603264,0.13446876,0.1428021,-0.09685267,-0.03624645,-0.03525427,-0.017272124,-0.09067583,-0.09795178,0.075600795,0.120084636,-0.11554087,-0.14041853,0.12256095,0.024021218,0.0904814,-0.1917121,-0.035594773,-0.027887836,-0.10662474,-0.085616566,-0.12342878,0.11661635,0.28434947,0.0060512004,0.16598354,-0.093497135,0.119639456,-0.018534536,-0.066109955,-0.007999632,0.047197588,-0.07140841,0.0071102674,0.26695293,0.14543042,0.08562075,0.33872575,0.039633196,-0.14580068,0.16697593,-0.108074434,0.15903066,0.22504708,0.14228763,-0.013647824,0.07067645,0.26070526,0.115524724,0.22183329,0.058003414,-0.15682061,0.3022312,0.2717239,-0.005047138,0.07288313,0.08910947,0.18226874,0.087988004,0.038960688,-0.017265,0.15012226,0.04289937,0.05880231,-0.09184067,0.07476573,0.4444945,0.14946376,-0.043539815,-0.023106797,0.032536663,0.29599538,0.108001344,0.1262053,0.36889103,0.12156872,0.11223578,0.1886503,-0.036209434,-0.05288212,0.18003322,0.07667392,0.17022936,0.14413741,0.097836904,-0.14856869,0.07302416,0.26053724,0.08174432,0.09073542,-0.14627624,0.039300676,0.00014649,-0.11708471,-0.058312338,-0.05443189,0.07572181,0.2115175,0.11499685,0.15389518,-0.044557348,-0.13070735,0.05695087,0.354849,0.0048780562,0.034437343,0.16521034,0.023395766,0.14953154,0.07070881,0.029212529,0.24967347,0.092686385,0.060142614,0.08502575,0.042981084,0.35259366,-0.11554319,0.20432594,0.12964748,-0.08826873,-0.04206413,0.030895568,0.12093141,0.6397485
