weights
"[ 1.9745843e-05  3.5308721e-04 -1.8327669e-03 ...  3.9865216e-05
 -2.8762815e-03  3.3547997e-03]","[-0.00535125 -0.0015713  -0.00033636 ...  0.00187926  0.00012154
  0.00434035]","[ 0.00066063  0.00130033 -0.00129854 ...  0.00188074  0.00125268
  0.00017084]","[ 1.4706437e-03  7.5110706e-04 -1.6340190e-03 ... -1.2182412e-03
  1.8897996e-06 -3.8129344e-04]","[-0.0006354  -0.00240102 -0.00172955 ... -0.00074099 -0.00197781
 -0.00093273]","[-0.00090377  0.00143241  0.00199989 ... -0.00213312  0.00152357
  0.00027923]","[-0.00024254  0.0007629  -0.00278664 ...  0.00386245  0.00047359
  0.00058657]","[ 0.00257773  0.0001095  -0.00358222 ... -0.00099364  0.00351705
 -0.00068053]","[-0.00428724  0.00124121  0.00453299 ... -0.00069932  0.00225496
 -0.00529187]","[-0.00196731  0.00180184 -0.00041259 ... -0.00129589 -0.00212591
  0.0006047 ]","[-0.00163281 -0.00038272 -0.00167847 ...  0.00084533 -0.00280866
  0.00512834]","[-0.00033963 -0.00069807  0.00153297 ...  0.0001814   0.0022796
  0.00114405]","[-0.00091385 -0.0014936  -0.00186438 ...  0.00054272  0.00358662
  0.00085114]","[-0.00250247 -0.00061041  0.00232982 ... -0.00127376 -0.00053993
  0.00187166]","[-6.7727518e-04 -2.1664589e-03 -1.3984907e-03 ...  1.1613459e-03
  2.4149278e-03  2.7667611e-05]","[ 0.00014793 -0.0021045   0.00199044 ... -0.00296439 -0.00475445
 -0.00081289]","[ 0.00065662  0.00229279  0.00195688 ...  0.00416706 -0.00092744
 -0.00177508]","[-0.00346483  0.00131396  0.00088016 ...  0.00268924  0.00286776
  0.00142556]","[ 0.00053518  0.00128079 -0.00230769 ...  0.00271182 -0.00263056
  0.00212953]","[ 4.4652754e-03  2.3398907e-05 -3.4927456e-03 ...  2.6256968e-03
  1.8973148e-04  1.6986163e-04]","[-0.00056022 -0.0026471  -0.00041117 ...  0.00203091  0.00093696
 -0.00207948]","[ 0.00078897 -0.00205718 -0.00116827 ...  0.0024555   0.00507918
 -0.00274606]","[ 0.00181891 -0.00311375  0.00444634 ... -0.00090139  0.00041425
  0.00371928]","[-0.00115243  0.00016106  0.00251565 ...  0.00022424  0.00180773
  0.00367325]","[-0.00408249 -0.00396493  0.00076543 ...  0.00192238  0.00345381
  0.00319709]","[-0.00012152  0.00618458 -0.00288756 ...  0.00287633  0.00115793
  0.00129086]","[-0.00034891  0.00203203 -0.00163995 ... -0.00181725 -0.00281374
  0.00084201]","[ 0.00193379 -0.00056826  0.00200492 ... -0.00201353 -0.0014726
  0.00301971]","[-0.00263787  0.00605271 -0.00159629 ... -0.00266177  0.00285574
  0.00330338]","[-0.00074364 -0.00117436 -0.00355712 ... -0.00027195 -0.00319051
  0.00030229]","[-0.00491561 -0.00036802 -0.00034093 ... -0.00103741  0.00095091
  0.00249423]","[ 0.00287059 -0.0018981   0.00019684 ... -0.00244435  0.00528415
  0.00136242]","[ 1.1681708e-03  1.7474026e-03  2.9206055e-04 ... -8.5622742e-04
  1.3967521e-03 -4.7605146e-05]","[-0.00336998  0.0011156  -0.0032176  ... -0.00203854 -0.00117799
  0.00136169]","[ 0.00121399  0.00073679  0.00286276 ... -0.00143894 -0.0020957
 -0.00222409]","[-7.8548852e-05  5.7610992e-04  6.8568432e-04 ...  2.3049433e-03
  3.3105051e-04  4.9338755e-03]","[-0.00227335  0.00441859 -0.0017661  ...  0.00242692 -0.00070149
  0.00162874]","[ 0.0016282   0.00090235  0.00275347 ...  0.00268406 -0.00112482
 -0.00163473]","[ 0.00155909 -0.00028062  0.00386558 ...  0.00150481 -0.00349704
 -0.00170371]","[-0.00085941 -0.00043423 -0.00408495 ... -0.00208264 -0.00237547
  0.0002384 ]","[ 0.00098723  0.00025436 -0.00056306 ... -0.00255351  0.00051971
 -0.00094642]","[ 0.00143351  0.00346504 -0.00106294 ... -0.00453017  0.0009378
  0.00028167]","[-0.00047986 -0.00333214 -0.00197684 ...  0.00035965  0.00255302
  0.0015858 ]","[-0.00143571  0.00056054 -0.00425527 ...  0.00097486 -0.0009706
 -0.00177904]","[7.0394271e-05 1.8384584e-03 7.0498497e-03 ... 3.7018142e-03 1.5503495e-03
 1.8284599e-03]","[ 0.0026458   0.00469411 -0.00079497 ...  0.00095122 -0.00177052
  0.00050149]","[ 0.00264656  0.00112395 -0.00300553 ...  0.00140693  0.00190658
 -0.00165895]","[-0.00161125  0.00392389 -0.00338066 ... -0.00307492  0.00054739
 -0.00097537]","[ 0.0026878   0.00065401 -0.00175806 ...  0.00091505  0.0020385
 -0.0013956 ]","[ 0.00212838  0.00519204 -0.00370801 ...  0.00188078  0.00390319
 -0.00219991]","[-0.00234186  0.00254995  0.00058025 ...  0.00353943  0.00130419
  0.00163085]","[-0.0015284  -0.00359135 -0.00108339 ... -0.00024767 -0.00021598
  0.00142236]","[-0.0001802   0.00089685  0.00269969 ...  0.00192767 -0.00058466
 -0.00072982]","[ 0.00310936  0.00026291 -0.00094403 ... -0.00165089  0.00151546
 -0.00072186]","[ 0.00021363  0.00060601  0.00034945 ... -0.00470841 -0.00088995
 -0.00267737]","[-0.00235403 -0.00221355 -0.00122198 ...  0.00365458  0.00222473
 -0.00081544]","[ 0.00200962 -0.00321044 -0.00259596 ... -0.00304458  0.00177581
  0.00452292]","[ 0.00323788  0.00210258 -0.00338316 ...  0.00203994  0.00240145
 -0.00058459]","[ 0.00057172 -0.0010385   0.00106025 ...  0.00340388  0.00080013
 -0.00023966]","[ 0.00410731  0.0025299   0.00121013 ...  0.00138221 -0.00090789
  0.00341206]","[-9.2372752e-04  2.5465165e-04  4.6401890e-03 ... -4.4341894e-05
 -1.4395635e-03 -1.9767475e-03]","[ 0.00234689 -0.00159786  0.001902   ... -0.0005593  -0.00266147
 -0.00083357]","[ 0.00381307  0.00017893  0.00095575 ...  0.00108602  0.00157753
 -0.00024016]","[ 0.00148772  0.00076847 -0.00426703 ...  0.00079727  0.0007193
 -0.00045262]","[-0.00213531 -0.00065274 -0.00152794 ... -0.00071389 -0.00140473
  0.00105644]","[-0.00138027  0.0019293  -0.0004186  ...  0.00168744  0.00640913
  0.00024161]","[-0.00180164  0.00023318 -0.00134872 ...  0.00191979  0.00191142
 -0.00286061]","[-0.00167659  0.00201619 -0.00122865 ...  0.00203938  0.00014636
 -0.00114024]","[-0.00170826  0.00321824  0.00140146 ...  0.00133774  0.00360467
  0.00137004]","[-9.1607370e-05 -2.1934861e-04  7.5329345e-04 ... -9.7144581e-04
 -7.0476107e-04  1.2084184e-03]","[ 3.2777374e-03  1.9616976e-03 -4.5544822e-03 ...  8.4053312e-04
 -8.3078434e-05 -8.0993352e-03]","[-0.00263941  0.00244034  0.00083681 ...  0.00102656 -0.00104174
 -0.00249775]","[ 0.00132796 -0.00424007  0.00603258 ... -0.00339714  0.0025642
  0.00146062]","[ 0.00339078  0.00073216  0.0004559  ...  0.00284669 -0.000165
 -0.00506898]","[-0.00159421  0.00070983 -0.00088951 ... -0.00072216 -0.00302777
 -0.00311653]","[-0.00449157  0.00491573  0.00072326 ...  0.0015134   0.00078559
  0.00323229]","[-0.00100913 -0.00345188  0.00141318 ...  0.00021149 -0.00278905
 -0.007465  ]","[-0.00141502  0.00044439 -0.00338338 ... -0.00203104  0.00209428
  0.00424721]","[-0.00247053  0.00195449  0.00436437 ...  0.00125199 -0.0016218
 -0.00101597]","[ 2.3479075e-03  1.7444238e-03 -3.9051704e-03 ...  8.9221852e-05
  1.6807120e-04 -1.3359276e-03]","[ 2.3624576e-03 -3.8752092e-05 -3.9593657e-04 ...  2.6357977e-03
 -6.7497819e-04 -1.0045142e-03]","[ 0.00304553  0.00103583  0.00084373 ...  0.00088956 -0.00184892
 -0.00277019]","[-0.00117751 -0.00179044  0.00339021 ...  0.00098958  0.00072754
 -0.00136686]","[ 1.8498750e-03 -8.8048582e-05  1.5231575e-03 ...  1.3090840e-03
  2.7724360e-03 -2.0869698e-03]","[ 0.00268516  0.005209   -0.00108593 ...  0.00128885  0.0028989
  0.004414  ]","[-0.00209016  0.00377151 -0.00229003 ... -0.00293225 -0.00025862
 -0.00080787]","[ 0.00028534  0.00052076  0.00309477 ... -0.00254378 -0.00502571
 -0.00139132]","[-0.0008851  -0.00164964  0.00056211 ... -0.00142904 -0.00047819
 -0.00125178]","[-0.00118638  0.00765532 -0.00429566 ... -0.0025828   0.00262884
 -0.00640773]","[ 4.8147645e-03 -1.5335771e-03  1.2342394e-03 ... -2.7256922e-03
 -1.5695159e-03 -1.5570966e-05]","[-0.00457146 -0.00225941  0.00064119 ... -0.00080297 -0.00260485
 -0.00124584]","[-0.00033358  0.00125619  0.00184412 ...  0.00044838 -0.00019368
 -0.00184039]","[-0.0003291  -0.00085278  0.00162165 ...  0.00197806 -0.00175092
 -0.00065198]","[ 7.6149480e-04  5.6898739e-04  1.2603637e-03 ... -7.9699721e-06
 -2.1445700e-04 -2.7161625e-03]","[-0.0019265  -0.00095656 -0.00149555 ...  0.0007356   0.00211144
 -0.00347857]","[-0.00144005 -0.00154963  0.00155974 ... -0.00100799 -0.00089296
 -0.00052402]","[-0.00149072 -0.00294914 -0.00120196 ... -0.00186973  0.00017094
  0.00181953]","[ 9.4417745e-04 -8.1197539e-04  3.3737408e-05 ...  4.6505834e-04
  8.8070479e-04 -1.3592598e-03]","[-0.00334235 -0.0001408  -0.0011312  ...  0.00091018  0.0004052
  0.00205122]","[ 0.00178418 -0.00283377 -0.00251257 ... -0.00055838 -0.00053817
 -0.00134171]","[ 1.6315920e-04  3.7973239e-03  1.8874292e-03 ...  4.5750928e-04
  4.3843215e-04 -5.9351660e-05]","[ 0.00026025  0.00166288  0.00169819 ... -0.00374655  0.00164954
  0.0018961 ]","[-2.4036739e-03  9.4674999e-04 -1.1421201e-03 ... -3.5167189e-04
  1.8069602e-03  4.0350296e-05]","[ 0.00130727 -0.00077085  0.00028961 ...  0.00162478 -0.00088785
 -0.00186915]","[-1.0415975e-03  2.1037243e-03 -1.1080883e-03 ...  2.3507972e-03
 -4.4554863e-03 -2.1848560e-05]","[-0.00561525 -0.00146886  0.00451488 ... -0.00050427 -0.0011075
 -0.00024396]","[ 2.0638725e-04  5.8237516e-04 -6.6234026e-04 ... -5.2157539e-04
  3.4416487e-06  1.6517140e-03]","[-0.00083548  0.01084864  0.00139382 ...  0.00071497 -0.00232951
  0.00158252]","[-0.00290549 -0.00167755  0.00050008 ... -0.00078321 -0.00097356
  0.00565441]","[-0.00201784 -0.00015315 -0.00092297 ... -0.00484478  0.00457904
  0.00347072]","[-0.00077724  0.007499   -0.00081631 ...  0.00262417  0.00361038
  0.00275131]","[-3.0760649e-03  5.6382585e-03 -4.1271938e-05 ...  3.3250074e-03
 -2.2151615e-03  7.6325540e-04]","[ 0.00304109 -0.00102698 -0.0016341  ...  0.00451681  0.0001223
 -0.00106812]","[-0.00195231 -0.00528487  0.00546646 ... -0.0020952   0.00702154
  0.00120242]","[ 1.2733552e-03  1.0087530e-03 -9.8782522e-04 ...  3.8563136e-05
  2.0722440e-03 -3.8650614e-04]","[-0.00384753  0.00022203 -0.00089361 ... -0.00123328 -0.00138758
 -0.00110378]","[-0.00215342 -0.0020585   0.00149163 ... -0.00097092  0.00128763
 -0.00160571]","[-0.0020565  -0.00298349 -0.00112495 ... -0.00167455  0.00070814
 -0.00137356]","[ 0.00024002  0.00339292 -0.0018246  ... -0.00229279  0.00102366
  0.00118961]","[ 0.00075481 -0.00486905 -0.00432702 ... -0.00109558 -0.00476342
 -0.00507722]","[ 0.00019376  0.00029502  0.00212297 ... -0.00019113 -0.00050351
 -0.00318564]","[-0.00035897 -0.00113752 -0.0027224  ...  0.00054013  0.00149814
  0.00421337]","[ 0.00082273 -0.00265441 -0.0003372  ... -0.00130893  0.00010656
 -0.00106731]","[-0.0039198  -0.00205943 -0.00056872 ...  0.00191895  0.00137804
 -0.00413002]","[-0.00121054  0.00053679 -0.00279888 ...  0.00066217 -0.00400829
  0.00194208]","[-0.00067389  0.00032185  0.00139536 ... -0.00059426  0.00098917
  0.00160491]","[-0.00395742 -0.00264858  0.00372218 ... -0.0014432   0.0018523
 -0.00227947]","[-0.00335765 -0.00172235 -0.00312458 ... -0.00153794 -0.00040832
 -0.00106391]","[-0.00020003 -0.00277039 -0.00127225 ... -0.00049765 -0.00302017
  0.00590421]","[-0.00131847  0.00067963 -0.00068203 ...  0.00161019 -0.00231109
 -0.00013857]","[ 0.00186103 -0.00035724 -0.00047076 ...  0.00411954 -0.00180011
  0.00080412]","[-0.00175579 -0.00420212  0.00447808 ... -0.00338881  0.0033118
  0.00087083]","[-0.00348549 -0.00020381 -0.00287582 ... -0.00141622 -0.00119657
  0.00118283]","[ 5.5946945e-03  1.8156717e-03 -1.5309720e-03 ...  1.0008119e-05
  9.7411778e-04  7.3006935e-03]","[-0.00188827 -0.0006431  -0.0024944  ...  0.00024564  0.00341423
  0.00033832]","[-0.00107166  0.00341302  0.0019149  ... -0.00111068 -0.00300031
 -0.00096565]","[ 0.00104273  0.0014911   0.00230205 ...  0.00257618 -0.00235471
  0.00072565]","[ 0.00098458 -0.00135988 -0.00239099 ...  0.00121912 -0.00159191
 -0.000734  ]","[-0.00147109 -0.00220701 -0.00168607 ... -0.00475218 -0.00058299
  0.00379177]","[-0.00065387  0.00060337  0.00263448 ... -0.00279783  0.00307069
  0.00150977]","[-0.00139214 -0.0022055   0.00191562 ... -0.00139672  0.00011607
  0.00187624]","[-1.5483908e-03  1.7469274e-05  5.2891453e-03 ...  9.5879228e-04
 -2.2214048e-03  3.2493956e-03]","[-1.6460337e-03 -1.8656848e-03 -1.8357520e-03 ...  3.9800208e-05
 -1.1699285e-03 -7.3876302e-04]","[-0.00073757 -0.00450409 -0.00282068 ... -0.00106829  0.0011443
 -0.00858131]","[-0.00118655 -0.00150803  0.00330282 ...  0.00162839 -0.00125772
  0.00040486]","[ 0.00271921  0.00153175 -0.0003825  ... -0.00029592  0.00082105
 -0.00019719]","[-0.00572834 -0.00413975 -0.00091879 ... -0.0017343   0.00047977
 -0.00068105]","[-0.0017568   0.00238088 -0.00043342 ... -0.00234512  0.00242777
 -0.00141453]","[-0.00218512 -0.00359302 -0.00115399 ...  0.00174492 -0.00284349
 -0.00285834]","[-0.00050764 -0.00239492  0.00128383 ... -0.00254461  0.00769896
  0.0021146 ]","[ 0.00125714  0.00239981 -0.00132514 ...  0.00026703 -0.00177394
  0.00044984]","[-2.5866714e-03 -7.1024479e-05  5.3926320e-03 ...  1.3484669e-04
  2.4060335e-04 -1.9414192e-03]","[ 0.00104118 -0.00012812  0.0052824  ... -0.00265126 -0.00106842
  0.00049125]","[-0.00174024 -0.00329041  0.00312751 ... -0.00272297  0.00024739
  0.00296214]","[-0.00107874 -0.0010877   0.0004833  ...  0.00287872 -0.00171479
  0.00158742]","[-0.00077103  0.0005959  -0.00953529 ... -0.00309177 -0.00079737
 -0.0008276 ]","[-0.00017543  0.00144197 -0.00107081 ...  0.00188988 -0.00284185
 -0.00098955]","[-0.00043383  0.00092687  0.00052194 ... -0.00020987 -0.00083652
  0.00011685]","[ 0.00181236 -0.00179728  0.00070339 ... -0.00078803  0.0016198
 -0.00036084]","[-3.1099291e-05 -1.4660803e-04 -1.7761081e-03 ...  1.9857173e-03
 -1.3731458e-04 -1.2053400e-03]","[ 0.00127821  0.000409   -0.00163057 ... -0.00021611 -0.00065524
 -0.00055824]","[ 0.00141897  0.0044976  -0.00084854 ... -0.00067856 -0.00101757
  0.00011609]","[ 0.00167687 -0.00202177  0.00509704 ... -0.00090413 -0.00164518
  0.0035151 ]","[-0.00246682  0.0009174   0.00338844 ... -0.00133888  0.00382846
  0.00269167]","[-0.0002303  -0.00049692 -0.0011604  ... -0.00019365 -0.00124345
  0.00132794]","[ 0.000967   -0.00078066  0.00184119 ... -0.00181444  0.0022417
 -0.00299006]","[ 7.6091805e-05 -5.1230770e-03  6.5378181e-04 ... -4.3696593e-03
  1.0413640e-03 -5.0339694e-03]","[-0.00261173  0.00270237  0.00713643 ... -0.00224043 -0.00258206
 -0.00026422]","[-0.00283713  0.00212441 -0.00162062 ...  0.00091622 -0.00250749
  0.00103406]","[-0.00046963  0.00261081 -0.00383705 ...  0.0005551   0.00012955
  0.00194231]","[-0.00224681 -0.00019477  0.00102907 ... -0.00077947 -0.00087849
 -0.00516109]","[-0.00130723  0.00278221  0.00131896 ... -0.00131201  0.00017105
  0.00299435]","[-0.00287782  0.00093095 -0.00205277 ...  0.00078942  0.00172017
 -0.00216185]","[-0.00024003 -0.00120161  0.0019951  ... -0.00043117 -0.00469072
  0.00404225]","[ 0.00379599 -0.00050465 -0.00380486 ... -0.00119798 -0.00257657
 -0.00252874]","[-0.0002513  -0.0002971   0.0020946  ... -0.00103915 -0.00142113
  0.00095143]","[ 0.00715202 -0.00265294 -0.00461504 ...  0.00125544 -0.00061394
 -0.00457524]","[ 0.00240178  0.0014205  -0.00154163 ... -0.00197572  0.00394895
 -0.00129247]","[-0.00383486  0.00184326 -0.00118688 ...  0.00297325 -0.00190132
 -0.00015007]","[-0.00135319  0.00163741  0.00099802 ...  0.00019738 -0.00318993
  0.00252659]","[-4.3662488e-03  2.9031615e-04  1.3275480e-05 ...  9.3810033e-04
 -6.4715254e-03  2.3217429e-03]",[0.00013777 0.00161359 0.0026866  ... 0.00020942 0.00249165 0.00124033],"[-0.00141537 -0.00137041  0.00396334 ... -0.00107223  0.00228531
 -0.00083741]","[ 2.9054796e-04 -5.4220938e-05 -9.3113002e-04 ... -1.5022397e-03
 -7.9620928e-05 -6.7264575e-04]","[-0.00103023 -0.00391914 -0.00232225 ... -0.00100259  0.00109056
  0.00099113]","[ 0.00037372 -0.00162507 -0.00305935 ... -0.00349537 -0.00228646
 -0.0060832 ]","[-0.00572334 -0.00021686 -0.00396045 ...  0.00044313  0.00135808
 -0.0031626 ]","[ 0.00257642 -0.0011103  -0.00142292 ...  0.00237543  0.00036482
 -0.00211438]","[-0.00173872 -0.00145396  0.00045434 ... -0.00210754  0.00243807
  0.00593851]","[-0.00347339  0.0004637   0.00128924 ...  0.00059486 -0.00411445
  0.00131144]","[ 0.00075905 -0.00430258 -0.00122154 ...  0.00294671 -0.00332399
  0.00132148]","[-0.00275842  0.00193353  0.00184441 ... -0.00096797 -0.00044899
 -0.00076581]","[ 0.00138408  0.00399904  0.00090092 ... -0.00024137 -0.00188915
 -0.00081957]","[ 0.00063726 -0.00142298 -0.00179935 ... -0.00143276 -0.00095112
 -0.00066251]","[-1.3013483e-03 -4.7058979e-04  6.1166691e-05 ...  6.8833440e-04
  1.3495480e-03  2.0905058e-03]","[-0.00315851 -0.00113001 -0.00141772 ...  0.00484746 -0.00256065
  0.00229312]","[-0.00269203  0.0056097  -0.00389527 ...  0.00890617 -0.00262835
 -0.00246823]","[-8.7145326e-04 -1.7389599e-03 -9.8665687e-04 ... -7.8379140e-05
  1.5748300e-03  5.0156808e-04]","[ 0.00204724  0.00176794 -0.00182733 ...  0.00078823 -0.00416816
  0.00382619]","[-0.0016088   0.00042595  0.00236524 ...  0.00159595 -0.00113224
  0.00277091]","[ 0.00204221 -0.00166475 -0.00073357 ... -0.00093954  0.00016144
  0.00055033]","[ 0.00017027  0.0073336  -0.00124127 ...  0.00272889 -0.00079298
 -0.00043621]","[ 0.00026413  0.00137786 -0.00081205 ...  0.00023274 -0.00390079
  0.00114968]","[-0.00113544  0.00243064 -0.00050331 ... -0.00070918 -0.00211749
  0.00180271]","[-4.2637470e-04 -5.1613111e-05  5.2142031e-03 ... -2.6256458e-03
 -1.9041492e-03  1.5138636e-03]","[ 4.2695082e-03 -5.8830039e-05  3.8557366e-04 ...  2.5398700e-04
  3.1095431e-03 -5.0194645e-03]","[ 0.00079582  0.00261023 -0.00353781 ... -0.00306135 -0.0026717
  0.0019041 ]","[-0.00276662 -0.00097682  0.0014887  ...  0.00436016 -0.00242854
 -0.00294227]","[-0.00154149 -0.00244245  0.00104991 ... -0.00184504  0.00223754
  0.00301687]","[ 0.00181413 -0.00080922 -0.00093224 ... -0.00135825  0.00025443
 -0.00463109]","[ 0.00106943 -0.0027447   0.00155663 ... -0.00018661 -0.00248747
  0.00445792]","[ 2.8989299e-03 -9.3081408e-06 -3.6865671e-04 ... -8.3980194e-05
 -2.1074861e-03  4.1977814e-03]","[ 1.3840144e-03  2.1935655e-03  2.6087845e-03 ... -1.4184539e-03
 -1.2794106e-05  1.6172731e-03]","[ 0.00083644 -0.00485314  0.00036254 ... -0.00290184  0.00238574
 -0.00085408]","[-0.0035577  -0.00168867  0.00156398 ... -0.00123031  0.00030184
 -0.00211608]","[ 0.0010335   0.00158441  0.00080169 ... -0.00114775  0.0029111
 -0.0006506 ]","[ 0.00178984  0.00586673 -0.00222592 ...  0.00244865 -0.0038172
 -0.00016599]","[-0.00099295  0.00115782  0.00180328 ...  0.00267145  0.00011376
  0.00302099]","[-0.00245468 -0.00057289 -0.00449247 ... -0.00302124  0.00019905
 -0.00120795]","[-0.00055818 -0.00018266 -0.00042004 ... -0.00040102 -0.00116204
  0.00015919]","[-1.5452362e-03 -3.8332525e-03 -6.7030382e-04 ... -1.3617768e-03
  6.1416455e-07 -2.9487661e-03]","[-0.00060016  0.00033908 -0.00045814 ... -0.00289782 -0.00044377
 -0.00053846]","[-0.00133704  0.00028414 -0.00025601 ... -0.00075893  0.00071465
  0.00115337]","[ 0.00089182 -0.0014051   0.00023436 ...  0.00069819 -0.00141128
 -0.00114442]","[-1.1639345e-03 -6.0893508e-04 -1.5001076e-04 ... -2.2733333e-03
  3.9322800e-03  7.3893088e-06]","[-0.0038349  -0.00215983  0.00369653 ... -0.00260397 -0.00266607
 -0.00350534]","[ 0.00132227 -0.0002015   0.00131888 ... -0.00175275 -0.00048147
 -0.00183329]","[-0.00067702 -0.00085778  0.00044317 ... -0.00343066 -0.00152637
  0.00010396]","[-0.00292572 -0.0006527   0.0044373  ... -0.00339536 -0.00063676
 -0.00028278]","[-0.00207516  0.0006252  -0.00149515 ...  0.00537721 -0.00356428
 -0.00260617]","[ 0.0014141  -0.00403679  0.00213813 ...  0.00053462 -0.00239422
  0.00212779]","[ 0.00103518 -0.00023116 -0.00178939 ... -0.00122842 -0.00184306
 -0.00304544]","[-0.00268516 -0.00308259  0.00146992 ... -0.00177746 -0.00149361
 -0.00275792]","[ 4.9066704e-05  1.8977879e-04 -2.5288532e-03 ... -1.0096047e-03
 -1.7199295e-03 -1.4641598e-03]","[ 0.00224046 -0.00040767 -0.00328469 ... -0.0040965   0.00010505
  0.00213131]","[ 0.00016618 -0.00228381 -0.00013249 ... -0.00085962  0.00100714
  0.0025484 ]","[ 0.00038798 -0.0028911  -0.00410648 ... -0.00099078  0.00076646
  0.00307503]","[ 0.0011677  -0.00544243 -0.00146739 ... -0.00364133  0.00204619
 -0.00576184]","[-0.00442359 -0.00285355  0.00288429 ... -0.00282814 -0.00090064
 -0.00089353]","[ 0.00147033 -0.00260958 -0.00038704 ...  0.00154653  0.00469094
 -0.00147261]","[ 0.00040392 -0.00221148 -0.00292407 ... -0.001136    0.00104252
 -0.0004865 ]","[ 0.00017106 -0.00326838 -0.00133871 ... -0.00253534 -0.00156641
  0.00375292]","[ 0.00019037 -0.00250578  0.00244687 ... -0.00010838 -0.00126791
 -0.00333441]","[-0.00073594  0.00327745  0.00096751 ...  0.00010905 -0.00122511
 -0.00055969]","[ 0.00274181  0.00300449 -0.0024053  ...  0.00066688 -0.00179629
 -0.00227402]","[ 0.00317613  0.00052667 -0.00118785 ... -0.0015615   0.00171732
  0.001029  ]","[-0.00044655  0.00141566 -0.00130305 ...  0.00225388  0.00024489
  0.00153459]","[ 0.00287432 -0.00044426  0.00044991 ... -0.00460679  0.00034719
  0.00193713]","[-0.00237369  0.00161548 -0.00183079 ... -0.00112024 -0.00265382
  0.003469  ]",[0.0004727  0.0035199  0.00093236 ... 0.00094741 0.00069894 0.00020853],"[ 0.00240341  0.00093291  0.00461979 ...  0.00388721 -0.00059481
  0.00168584]","[-0.0007077  -0.00423715  0.00159262 ...  0.00395681 -0.0028616
 -0.00201105]","[-0.00012983  0.00067568  0.00083959 ... -0.00152961 -0.00058946
 -0.00206946]","[ 0.00611122 -0.0019099  -0.00198674 ... -0.00148381 -0.00020352
 -0.00239893]","[ 0.00317247  0.00343753  0.00240716 ...  0.00581976 -0.00402385
 -0.0011648 ]","[ 0.00045197 -0.00317951 -0.0005568  ... -0.00040475  0.00037804
 -0.00198795]","[ 4.3204238e-04  2.9537175e-03  2.0390647e-05 ... -6.6786754e-04
  1.4322289e-03 -5.7203503e-04]","[-0.00136103 -0.00222982 -0.00122264 ... -0.00315266  0.00163281
 -0.00586743]","[ 0.00149915  0.00328004  0.0032562  ... -0.00430217  0.00072563
 -0.00054567]","[-1.1353660e-03  1.1634050e-03 -8.2619801e-05 ...  1.9928720e-03
 -1.5407823e-03  1.5584493e-04]","[ 0.00205783  0.00224105  0.00148213 ... -0.00306355  0.0023869
 -0.00235782]","[ 0.00066546  0.00339032  0.00057386 ... -0.00232593  0.00085419
 -0.00229211]","[ 0.0017104  -0.00343884  0.00332484 ... -0.00077136 -0.00288551
 -0.00322378]","[ 0.0031109  -0.00297043 -0.00223796 ... -0.00176057  0.00121621
 -0.00266611]","[ 0.00104564 -0.00319012 -0.00074665 ... -0.00368185  0.00139282
 -0.00137634]","[-0.00014941 -0.00208921  0.00369413 ... -0.00019364  0.00224056
  0.00690998]","[ 0.00190092 -0.00023157  0.00234958 ... -0.00202845 -0.00106745
 -0.00054406]","[-0.00276838 -0.00269929  0.00279986 ...  0.00170422  0.00090989
 -0.00150647]","[-0.00391213 -0.00370826  0.0052198  ... -0.0002857   0.00430259
 -0.00015801]","[-6.5694476e-05 -1.7031039e-03 -6.5959948e-03 ... -6.5613883e-03
  4.4735861e-03 -1.7037094e-04]","[-5.7895712e-05 -2.4916187e-03  4.2210563e-04 ...  3.7296251e-03
  9.1495970e-04  3.5868578e-03]","[ 0.00581691  0.00144883 -0.00067545 ... -0.00191256 -0.00124795
 -0.00073132]","[-0.00029137  0.00054077 -0.00128379 ... -0.00193699 -0.0006744
  0.00209782]","[-0.00014895 -0.00246571 -0.0002686  ... -0.00297392  0.00156911
  0.0014513 ]","[ 2.3566531e-03  4.4880630e-03 -3.0379372e-03 ... -3.5786810e-03
 -1.2314428e-03 -2.2504268e-05]","[-0.003819   -0.00354482 -0.00047339 ... -0.00101807  0.00235686
  0.00394302]","[-0.00090548  0.0012886   0.00112181 ...  0.00154357 -0.00440942
  0.00341753]","[ 0.00131621  0.00068414 -0.0017545  ... -0.00354257  0.00362457
  0.00284481]","[-6.0938241e-06  6.4580515e-04 -4.6256655e-03 ...  2.3659619e-03
 -2.9494613e-03  1.7846562e-03]","[-0.0011736  -0.00399589 -0.00129807 ... -0.00080682 -0.00203324
 -0.00115874]","[-0.00161271 -0.00169914  0.00140517 ... -0.00031663 -0.00416271
 -0.00013367]","[ 1.02463539e-03  1.44724272e-05 -1.65524456e-04 ...  4.17641969e-03
  1.05454856e-04 -1.21228490e-03]","[-0.00181993  0.00088259  0.00032863 ...  0.00439649 -0.00066546
  0.00266145]","[-0.00112092 -0.00151979 -0.00047954 ... -0.00055929 -0.00196962
 -0.00344477]","[-3.6731360e-03  4.2984626e-05  2.2620724e-04 ...  1.7071761e-03
  3.2386256e-03 -2.6356326e-03]","[ 2.1257873e-03 -1.4884191e-04 -3.6741113e-03 ... -9.9307792e-05
 -2.9389651e-03  9.5728198e-03]","[-0.00234418 -0.00108007  0.00147337 ... -0.00069686 -0.00244409
 -0.00363404]","[-0.00154525 -0.00113265 -0.00115335 ... -0.00280222  0.00032603
  0.00138369]","[ 8.1846709e-05 -2.1504256e-04 -2.4241209e-03 ...  1.6202969e-03
  2.5634356e-03 -1.5785777e-03]","[ 1.8411166e-03  9.6561373e-05 -2.0846238e-03 ... -2.5855715e-03
 -8.5843139e-04  1.4373789e-03]","[-0.00123452  0.00178851 -0.00323287 ...  0.00204011 -0.0008474
  0.00117208]","[ 0.00020564 -0.00084053 -0.00126637 ...  0.00051684  0.00465231
  0.00089425]","[-0.00101576  0.00211737 -0.00257659 ...  0.00087506 -0.00364409
 -0.00217143]","[-1.8029574e-03 -1.0414928e-04  1.3619851e-03 ...  9.9319404e-05
 -2.6889828e-03  2.0427026e-03]","[ 0.00164943 -0.0017059  -0.00209888 ...  0.0006471  -0.00075046
  0.00127222]","[-0.00107402 -0.00040664  0.0031391  ... -0.00671361  0.00027499
  0.00276506]","[ 0.00130791 -0.00053417  0.00023263 ...  0.00015714  0.00528064
 -0.00072395]","[-0.00070181 -0.00342685  0.00098495 ... -0.00182462  0.00035477
  0.00215531]","[ 0.00079484 -0.00195051 -0.00441312 ...  0.00373883 -0.00197403
  0.00063008]","[ 6.5683364e-04  3.3035879e-03  5.6865058e-05 ... -3.3769216e-03
  8.7484973e-04 -7.7524403e-04]","[ 0.00173783 -0.00284726 -0.00265361 ...  0.00123723  0.00335819
 -0.00167212]","[ 0.00194218 -0.00300903 -0.00313022 ...  0.00391702 -0.00212188
  0.00449226]","[ 0.00100896  0.00122288  0.00195309 ... -0.00177874 -0.00247381
  0.00266773]","[ 0.00030337  0.00084761 -0.00079199 ... -0.00194941 -0.00481052
 -0.00099809]","[-0.00256684  0.003563    0.00098819 ...  0.00021986 -0.00029095
  0.00166608]","[ 0.00049082 -0.00262954 -0.00144625 ...  0.00023761 -0.00244608
 -0.00105047]","[ 2.8418467e-04 -9.0572133e-04 -8.4172498e-05 ...  3.5997571e-03
 -2.7688139e-04 -2.0492270e-03]","[-0.00235117  0.00010454  0.0022801  ... -0.00045338  0.00050634
 -0.00275045]","[-0.00134976  0.00065508 -0.00210061 ... -0.00040876  0.00514965
  0.00331836]","[ 0.00129412  0.00125565  0.0014609  ...  0.00128444 -0.00039262
 -0.00129711]","[1.3561816e-03 1.6039667e-03 1.0280607e-03 ... 2.3647990e-06 1.3642465e-03
 1.5585154e-03]","[ 0.00102794  0.00013425 -0.0023699  ...  0.00382326  0.00391292
 -0.00132608]","[ 0.00070682  0.00102151  0.00474974 ...  0.0003303  -0.00246197
  0.00057569]","[ 2.6868386e-03  5.5406225e-04 -3.4722488e-03 ...  9.5807028e-04
 -1.8026342e-03  1.8008821e-05]",[0.0022596  0.00110703 0.00074475 ... 0.0005863  0.00082626 0.00145173],"[ 0.00066339 -0.00183953 -0.0038105  ...  0.00437011 -0.00243577
 -0.0049454 ]","[ 0.00159181  0.00147002  0.00037281 ... -0.00338367  0.00108044
 -0.00216037]","[-0.00051901  0.0030717  -0.0021014  ... -0.00206034  0.00056019
 -0.00082472]","[-0.00439756 -0.0018426  -0.00104409 ... -0.00051718  0.00235541
  0.00183141]","[-0.00050114  0.00088737  0.00056072 ... -0.00056501  0.00053446
 -0.00040497]","[ 4.2290339e-04 -1.4200600e-04 -2.7701273e-03 ... -7.5180433e-05
  5.0616713e-04  7.3681312e-04]","[-2.1495635e-03  4.9832738e-03 -8.8433211e-05 ...  1.2503943e-03
 -2.5577887e-03  4.4531263e-03]","[-0.00195456 -0.00275682  0.00076958 ... -0.00175639 -0.00120668
  0.00056231]","[-0.00045002 -0.00331466  0.00263919 ... -0.00198349 -0.00036978
 -0.00041413]","[-0.00294136 -0.00254003 -0.00108653 ... -0.00152691 -0.00166907
 -0.00067283]","[ 0.00100062 -0.0007918  -0.00175272 ...  0.00303302 -0.00370201
  0.00331308]","[ 5.7691679e-04  4.0201212e-05 -4.0565158e-04 ...  9.0193190e-04
  1.9034817e-03  2.3154051e-03]","[-0.00190976 -0.00025527 -0.00160992 ...  0.00134602  0.0035386
  0.00123896]","[ 1.3531765e-03 -4.7940146e-03  5.6187288e-05 ... -4.9955398e-03
  5.5962428e-04 -7.7502604e-04]","[ 0.00413111  0.00169543 -0.00030752 ... -0.00017682  0.00375488
 -0.00201151]","[ 0.00210269 -0.00327779 -0.00069787 ...  0.00102762 -0.00391997
 -0.00142068]","[-0.00250818  0.00104101  0.00115369 ... -0.00130188 -0.0066795
 -0.00229401]","[ 0.00228961  0.00175747  0.00231394 ...  0.00144014 -0.00272858
 -0.00254586]","[ 0.00097763 -0.00118708  0.00170045 ...  0.00052935 -0.00202098
  0.00134031]","[ 0.00161472  0.00119548  0.0009368  ... -0.00587418 -0.00645909
  0.00508449]","[ 0.0012505  -0.00176063 -0.00098452 ... -0.00320625 -0.00023524
 -0.00060369]","[-0.00352995 -0.00141232  0.00419812 ...  0.00190347 -0.00054796
 -0.0005339 ]","[-0.00358163 -0.00014629  0.00649515 ...  0.00181137  0.0003895
  0.0045735 ]","[-0.00129488 -0.00424615 -0.00086617 ... -0.00368015  0.00122811
 -0.00246754]","[-0.00162433  0.00517038  0.00338522 ...  0.00158621  0.01075664
 -0.0005567 ]","[-0.00213554  0.00149677 -0.00097294 ... -0.00075611 -0.00086635
 -0.0040246 ]","[-0.00126814 -0.00093773 -0.00021381 ...  0.0001479   0.00030235
 -0.00045519]","[ 0.00116149  0.00236591 -0.00170107 ... -0.00044275 -0.00275675
 -0.00022816]","[-0.00293629  0.00057026 -0.00077024 ... -0.00272952 -0.0009946
  0.0010071 ]","[ 0.00135138  0.00114995  0.0009072  ... -0.0029175   0.00043814
 -0.00407077]","[-0.00220358  0.00077829 -0.00088479 ... -0.0034767  -0.00492806
 -0.00275041]","[ 0.0011091  -0.00124908 -0.00329752 ... -0.00083647  0.00275551
  0.00326125]","[-0.00319138 -0.00280535  0.00287726 ... -0.00108682  0.00090836
  0.00151116]","[-0.00329767 -0.00192031 -0.00023332 ...  0.00020816 -0.00119135
  0.0001967 ]","[ 0.00260338  0.00100833 -0.00141143 ... -0.0020019   0.00155099
 -0.00441739]","[ 0.00211944 -0.00067001  0.00186399 ... -0.00019204 -0.00438224
 -0.00023197]","[ 6.8234256e-04  1.1827082e-03  2.7020618e-03 ...  2.1831184e-03
 -8.6652908e-05 -8.0674198e-07]","[-0.00422138  0.00109005  0.00419648 ... -0.00262761  0.00371546
 -0.00081842]","[ 0.00210427  0.00085807 -0.00099358 ...  0.00109797  0.00173436
 -0.00185508]","[ 4.6879440e-03 -5.8670688e-05 -1.0775488e-03 ...  3.5351407e-04
 -6.1860890e-04  6.4057112e-04]","[-0.00085698 -0.00210928 -0.00025159 ... -0.00076147  0.00062385
 -0.0013178 ]","[ 0.00117348 -0.00331582 -0.00364825 ... -0.00095495  0.00136491
  0.00173378]","[-0.00167482 -0.00187006 -0.00298688 ...  0.00178481  0.00288683
 -0.00056539]","[-0.00232486  0.0017401   0.00346933 ... -0.00133286 -0.0046352
  0.00189752]","[ 0.00158854  0.00259906  0.00046675 ... -0.00098997 -0.00048677
  0.00161097]","[-0.00134154 -0.00114558 -0.0027952  ...  0.0011051  -0.00156905
  0.00159966]","[-0.00121203  0.00072401 -0.00232561 ...  0.00126195 -0.00338606
  0.00485248]","[ 0.00128738 -0.00094309 -0.00306031 ...  0.00243498 -0.00192099
  0.00043114]","[-0.00196147 -0.00157002  0.00037809 ... -0.00429798 -0.00088017
 -0.00272256]","[ 0.00070572  0.00299334  0.00621038 ... -0.00092481 -0.00381159
 -0.00452043]","[ 0.00180399  0.0004636  -0.00169016 ... -0.00028432 -0.00267678
 -0.00150035]","[ 0.00031102 -0.00218354 -0.00050279 ...  0.00040226 -0.00234493
 -0.00068092]","[ 0.00257579  0.0017821  -0.00111005 ...  0.00063074 -0.00033753
  0.00157928]","[-0.00064722  0.00580461 -0.00315842 ...  0.00137721 -0.00225166
 -0.00092757]","[-0.0022023  -0.00755064 -0.00194915 ...  0.00057263 -0.00257384
 -0.0005974 ]","[ 0.00202369  0.00494119  0.0008725  ... -0.00047252  0.00446338
  0.00093575]","[-0.00131207  0.00319366  0.00692221 ... -0.00160114  0.00175357
  0.00741337]","[ 0.00188464 -0.00183173 -0.0006916  ... -0.00217574 -0.00273036
 -0.00218316]","[ 0.00055039 -0.00206638 -0.00361444 ... -0.0004284  -0.00016578
 -0.00223409]","[-0.00264507  0.00194543  0.003275   ... -0.00230173  0.0012475
 -0.00254879]","[-0.00216715  0.00273636  0.00195289 ...  0.00263665 -0.00255358
 -0.00210442]","[-0.00201847 -0.00011288 -0.00010399 ... -0.0008579   0.00176239
  0.00405907]","[ 4.5987889e-03 -4.8170793e-03 -2.6406811e-05 ... -6.3249230e-05
 -1.0392979e-03 -9.4781269e-04]","[ 0.00205934  0.00083009 -0.00234728 ...  0.00284041 -0.0030998
  0.00052857]","[ 0.00179984 -0.00169706  0.00312003 ...  0.0011784  -0.00183586
 -0.00333999]","[-0.00220021 -0.00205907  0.00412631 ... -0.00189803  0.00026026
  0.00091627]","[-0.00036169  0.00120046  0.00369421 ... -0.00162168 -0.00385985
  0.00179153]","[-0.0054487   0.00633474 -0.00194063 ...  0.00239609  0.00199497
 -0.00072452]","[-7.9846149e-04  6.7650217e-05 -1.3033215e-04 ...  2.5017210e-03
  4.1658916e-03  3.5228503e-03]","[ 0.00036795  0.0012985  -0.00149906 ...  0.00078379 -0.00148368
 -0.00184576]","[ 1.4612012e-03  2.5423482e-05 -8.7446836e-04 ... -1.8054203e-03
  1.4472675e-03 -1.2271677e-03]","[-0.00011103 -0.00336285 -0.00197812 ...  0.00041864  0.0011247
 -0.00080243]","[-0.00069326 -0.00394399  0.00158499 ...  0.00300946 -0.00197833
  0.0021915 ]","[ 1.6302584e-03  1.3870465e-03  2.1249915e-03 ...  4.0369501e-05
 -1.5838579e-03  3.0168076e-03]","[ 0.00061879 -0.00194388  0.00233679 ... -0.00280132 -0.00033983
 -0.0003221 ]","[ 1.7166063e-03  8.2589984e-05 -2.2279072e-04 ... -2.3692534e-03
 -8.7218627e-04 -4.6223836e-04]","[ 0.00361014  0.00015871 -0.00239788 ... -0.00050873 -0.00128437
  0.00133068]","[-0.00216496  0.00080141 -0.00330626 ...  0.00197753 -0.00047204
 -0.00227059]","[-0.00324248 -0.00351161 -0.00417798 ... -0.00167901 -0.00157653
  0.00142666]","[-0.00344683  0.00377553  0.00337501 ...  0.000102   -0.0027558
 -0.00145877]","[ 0.0001205   0.00169409  0.00264184 ...  0.00063915 -0.00211177
 -0.00023642]","[-0.00253867 -0.00336072 -0.00071128 ... -0.00226198  0.00098188
 -0.00050872]","[ 0.00128024  0.0040097  -0.00378979 ...  0.00061715 -0.00227129
 -0.00059931]","[ 0.00064417 -0.00462948 -0.00041261 ... -0.00048034 -0.00168163
 -0.00075478]","[-0.00162693  0.00105587 -0.0001014  ... -0.00137751  0.00177225
 -0.00071105]","[-2.4292020e-03  4.5591579e-03  1.1068622e-04 ...  2.8110635e-03
  7.3344563e-05 -1.8517990e-03]","[ 0.00168297 -0.00016936  0.00064954 ... -0.00329359  0.00175274
  0.00043868]","[ 0.000174   -0.00097896 -0.00015676 ... -0.00181796  0.00024254
 -0.0007443 ]","[-2.6264947e-03  2.1447984e-05 -2.5172504e-03 ...  1.1950817e-03
 -1.7562434e-03  9.4890798e-04]","[-3.0917744e-03  9.9087323e-05  8.9797482e-04 ... -2.1097385e-03
  3.8010301e-03  1.2703218e-03]","[-0.00212751 -0.00110348 -0.00034039 ... -0.00329402 -0.00260719
  0.00030395]","[-0.00105779  0.00105234 -0.00179146 ...  0.00243188 -0.00267468
 -0.00206145]","[ 3.7519550e-03  1.7189714e-03  1.3002559e-05 ...  9.0896233e-04
 -4.4859742e-05 -1.1024534e-03]","[ 0.00140435  0.00071947 -0.00263513 ...  0.00317779  0.00124011
  0.0036631 ]","[ 0.00305136 -0.00018281  0.00034101 ... -0.00087317 -0.00091508
  0.00102465]","[-0.00105886 -0.00233371 -0.00116005 ... -0.00141943  0.00081511
 -0.0022066 ]","[ 1.1634667e-04 -3.0717184e-03 -2.9873142e-03 ... -1.4641972e-03
 -9.7266231e-05  4.0459423e-03]","[-0.00280109  0.00091394 -0.00253444 ... -0.00270912 -0.00141226
  0.00102927]","[ 0.00023048  0.00014778 -0.00022141 ... -0.0025299  -0.00475495
  0.00112763]","[-0.00161415  0.00182267 -0.00092381 ... -0.00101848  0.00031079
 -0.00161355]","[ 0.00113535 -0.00129542 -0.00108778 ...  0.00456428 -0.00166751
 -0.00279009]","[-8.3346451e-05  2.7710008e-03 -1.9375351e-03 ... -3.3830951e-03
  3.4193939e-03 -1.5273642e-03]","[ 8.7433984e-04  2.9754301e-03  2.1660731e-03 ... -3.8443980e-04
 -1.8831025e-03  9.1654758e-05]","[ 0.00028726 -0.00075954  0.00079416 ...  0.00114117  0.00200547
 -0.00215876]","[-0.00144885  0.00069458 -0.00079047 ... -0.00215324 -0.00010902
 -0.00116356]","[ 0.000751   -0.00056715  0.00093538 ...  0.00155498 -0.0016248
  0.00362357]","[-0.00215823 -0.00160946  0.00182327 ... -0.00049139 -0.00273884
  0.00180696]","[ 0.00171465 -0.00478445  0.00049648 ...  0.00085888 -0.00270297
  0.00013569]","[ 0.00263645  0.00236702 -0.0005227  ... -0.001648    0.0002061
  0.00220839]","[ 0.00073462 -0.00369899 -0.00090542 ... -0.00351456  0.00148006
  0.00161664]","[-0.00140289  0.00057595 -0.00187607 ... -0.0008334   0.0017226
  0.00052318]","[-0.00066609  0.0019095   0.0001982  ... -0.00084728 -0.00193742
  0.00059241]","[ 0.00234338  0.00087504  0.00046709 ...  0.00166104 -0.0008224
 -0.00103101]","[ 0.00118088  0.00068483  0.00083844 ... -0.00048037 -0.00346111
  0.00309302]","[-0.00475957 -0.00522192  0.00259533 ... -0.00132181  0.0001866
  0.00245023]","[ 0.00181244 -0.00078232  0.00279494 ... -0.00219636  0.00168241
 -0.00028327]","[ 0.00064668 -0.00010754  0.0021709  ...  0.00360675 -0.00252545
 -0.00090833]","[-0.00276334 -0.00056007  0.00186879 ...  0.00039699  0.00230429
 -0.00081473]","[-0.00264206 -0.00042542  0.00231838 ...  0.0002696  -0.00088194
  0.0048211 ]","[-0.00074997 -0.00469635 -0.00167678 ... -0.00026951 -0.00121575
  0.00018964]","[-0.00548316  0.00091616  0.0037715  ... -0.00039912 -0.00125772
 -0.00517951]","[-0.00087128 -0.00012034  0.00327231 ... -0.00034233  0.00253538
  0.00074881]","[ 1.1865420e-03 -1.6075061e-03  3.4103263e-03 ...  4.6959460e-05
 -3.1465604e-03 -3.5940955e-04]","[ 0.0018926  -0.00047363  0.00161646 ... -0.00021423  0.00216868
 -0.00017923]","[ 2.9616831e-03  2.0981043e-04 -1.7537975e-03 ... -9.4283685e-05
 -2.9359600e-03  2.0211400e-03]","[-4.6487642e-03 -1.6643280e-06  4.3761283e-03 ... -4.5401761e-03
 -2.1159020e-03  1.7322989e-03]","[-0.00081773 -0.00093033 -0.00478628 ... -0.00293015  0.00324948
  0.00064888]","[ 0.00024254  0.00171822 -0.00058845 ...  0.00266219 -0.0020105
  0.00164076]","[ 0.00256147 -0.00047335 -0.00053429 ... -0.00186973 -0.00181495
  0.00057798]","[-0.00181291  0.00427356  0.00642172 ...  0.00056456 -0.00181228
  0.00060606]","[ 0.00288089  0.00359473 -0.00494715 ... -0.00116486 -0.00305878
  0.00166837]","[-0.00205033 -0.00074734 -0.00209787 ... -0.00020836  0.00330889
 -0.00108616]","[-0.00153023  0.00123537  0.00150331 ... -0.00054808  0.00032135
 -0.00118011]","[ 0.00235931  0.00164303  0.00063576 ... -0.00342997 -0.00265079
  0.00348135]","[-0.00269479  0.00182702 -0.00095813 ... -0.00105098  0.00298985
 -0.00408943]","[ 1.2793706e-03  5.0130591e-04  8.3451922e-04 ... -3.2527390e-05
  1.7011788e-03  2.2492008e-03]","[-0.0037991  -0.00352141  0.00419279 ...  0.00455821 -0.00193888
 -0.0044178 ]","[-0.00104956  0.00175779  0.00275113 ... -0.00217888  0.00343817
  0.0034661 ]","[-0.00074279 -0.00056589 -0.00015612 ...  0.00090889  0.00092283
 -0.00303621]","[-0.00308194  0.00150624  0.00021671 ...  0.00107717 -0.00157195
  0.00181891]","[-0.00250054 -0.00096618 -0.00068529 ... -0.00389446 -0.00039982
 -0.0003372 ]","[-0.00132867  0.00275459 -0.00147218 ... -0.00265937  0.00057125
  0.00178484]","[ 2.6520912e-03  5.0923682e-04  7.7220926e-04 ... -2.6409994e-03
 -9.4623894e-05  7.8079122e-04]","[-0.00104004  0.00054078  0.00217373 ... -0.00037516 -0.00010861
  0.00103997]","[-0.00088341  0.00188845  0.00159391 ...  0.00297201  0.00287274
  0.00291247]","[-0.00266331 -0.00260489 -0.00270045 ...  0.00023318 -0.00073051
 -0.00139468]","[ 2.4772233e-03 -2.5494886e-03  1.5657326e-03 ...  5.9176618e-06
 -3.4402332e-03  1.1414990e-03]","[-0.00030007 -0.00045865 -0.00186689 ... -0.0007838   0.00404119
 -0.00298487]","[-0.00119608 -0.00083976  0.00112231 ...  0.00176752  0.00077486
 -0.00344066]","[ 0.00031904 -0.0014003  -0.00125544 ...  0.00208359  0.00121869
 -0.00127626]","[ 0.00525592  0.00224075 -0.00615961 ... -0.00258665 -0.00245005
 -0.0019163 ]","[ 0.00173936 -0.00034642 -0.00420531 ... -0.00337394 -0.00336865
 -0.00025016]","[ 0.00085808 -0.00030345 -0.00379026 ... -0.00257634 -0.00057061
  0.00442523]","[ 6.6579203e-05 -1.5368519e-04 -4.9929984e-04 ... -4.6617500e-04
 -2.9721269e-03  1.0590188e-03]","[-0.00011673  0.00040177  0.00011523 ... -0.00030298  0.00191984
 -0.00125928]","[-0.00038617 -0.00078429  0.00093896 ...  0.00010212  0.00102397
  0.00195604]","[ 0.00053004 -0.00292184 -0.00122687 ...  0.00091581 -0.00271886
  0.00228387]","[-1.5598080e-04 -6.1212946e-04  6.7787350e-04 ... -4.7405818e-03
 -5.5473680e-05  1.2241845e-03]","[ 1.4365230e-03 -2.6415782e-05  3.1636746e-04 ... -1.2877960e-03
  1.6181215e-04 -1.2493411e-04]","[ 0.00047324 -0.00652689  0.00164008 ... -0.004626   -0.00020988
  0.00040504]","[ 0.00131219  0.00451438  0.00215765 ...  0.00027323 -0.00064694
 -0.00031542]","[ 0.00520618  0.00196164 -0.00198113 ...  0.0082139  -0.00157754
 -0.00199052]","[-0.00199768  0.00089324 -0.00364772 ... -0.00354432  0.00119913
  0.00042535]","[-0.00171376  0.000821   -0.00040525 ... -0.00064492  0.00114748
  0.00073827]","[-0.00044999 -0.00204125 -0.00114619 ... -0.00113788 -0.00047482
  0.00459528]","[ 0.00043261 -0.00412973 -0.00057528 ... -0.0033338   0.0046359
  0.00088237]","[ 0.00316753  0.00421936 -0.0016962  ...  0.00104639  0.00288992
  0.00123215]","[ 0.0018949  -0.00628148 -0.00148431 ...  0.0027736  -0.00054095
 -0.00188804]","[ 0.00262884  0.00032846  0.00171116 ... -0.00274838  0.00039582
 -0.00012544]","[-0.00089105 -0.00058223  0.00097613 ... -0.00068656  0.00030749
  0.00274203]","[-0.00268011  0.00032216  0.0046274  ... -0.00094572  0.00446303
  0.00056265]","[-0.00358204  0.00057603 -0.00157497 ... -0.00155982 -0.00017464
  0.00276569]","[ 0.00115199  0.00190023  0.00097363 ...  0.00334794  0.00096204
 -0.00282206]","[-1.3724489e-03 -2.1475418e-03 -6.1212113e-04 ...  2.0459737e-03
 -2.1968829e-04 -8.5733293e-05]","[-0.00063212  0.00043003 -0.00191558 ...  0.00093667  0.00087308
  0.00048453]","[-3.4997920e-05 -3.4547355e-03 -1.3635489e-03 ...  4.3773584e-04
 -2.9052428e-03 -1.7326605e-03]","[-0.00367673  0.00190046 -0.00385352 ...  0.00123513  0.00066948
  0.0005144 ]","[ 0.0011335  -0.00194041 -0.00104179 ...  0.00041994 -0.0026067
  0.00278388]","[ 0.00038377 -0.00315372 -0.00346407 ...  0.00295464  0.00658908
  0.001344  ]","[-0.00297612 -0.00169666 -0.00354815 ...  0.00045    -0.00167047
 -0.00265717]","[ 0.00127385 -0.00118472 -0.00124509 ... -0.00225371  0.00113908
  0.00023266]","[ 0.00178544 -0.00347353 -0.0043987  ... -0.00146445 -0.00340859
 -0.00101386]","[-1.9348615e-03 -2.1013005e-03 -1.1719970e-03 ...  7.5791417e-05
 -2.0758317e-04 -2.2606242e-03]","[-1.5522809e-03  1.6347623e-03 -6.8947584e-06 ...  6.3641448e-05
 -3.2653022e-03 -5.6144497e-03]","[ 0.00152262  0.00019719  0.00200959 ...  0.00051314 -0.00037861
  0.00172902]","[ 0.00293704 -0.00277099 -0.004436   ...  0.00107961  0.00238091
 -0.00553799]","[-0.00058317  0.00229277  0.00184881 ... -0.0001001  -0.00326056
 -0.00057113]","[-0.00227678  0.00198481 -0.00202671 ... -0.00235618 -0.00027421
  0.00316358]","[-0.00116926 -0.00057872  0.00217201 ... -0.00255855  0.00140409
  0.00111618]","[-0.0021722   0.00133449 -0.00304966 ... -0.00152065  0.0014978
  0.00395892]","[-0.00127734 -0.00218978 -0.00331759 ...  0.00241989 -0.00136923
  0.00053428]","[-8.0539885e-06  7.2843611e-04 -1.0129220e-03 ...  1.7483083e-03
 -2.8480394e-04 -3.8753203e-03]","[-7.6931022e-04 -3.6364243e-05 -2.6948655e-03 ...  3.2939037e-04
 -5.1217456e-04 -3.5588868e-04]","[ 3.1602567e-03  8.9726200e-05  1.8011403e-04 ...  2.0554676e-03
 -1.7328147e-03  1.4743176e-03]","[-0.00309663 -0.00063059  0.0042942  ...  0.0003295  -0.00035319
  0.00602138]","[-0.00043129  0.00388115 -0.00136838 ...  0.00332442 -0.00157937
 -0.00320891]","[ 4.1727717e-03 -2.4980804e-04 -1.0215545e-03 ... -1.5140164e-03
 -4.5231300e-05  2.2834633e-03]","[ 0.00045399 -0.00162715 -0.00226794 ... -0.00214541 -0.00303963
  0.00028342]","[-0.00254228  0.00025315  0.00111295 ...  0.00151305  0.00138227
  0.00688176]","[ 0.00213295  0.00198675 -0.00157296 ...  0.00130411  0.00303061
 -0.00021377]","[ 1.5868233e-03  3.2891252e-03 -1.1292269e-03 ... -1.5795566e-03
 -1.0572733e-05 -7.9272321e-04]","[-0.00144795 -0.00366309 -0.00072487 ... -0.00092359 -0.00204329
 -0.00035768]","[-5.3316407e-04 -1.7165997e-03 -7.6678791e-04 ... -1.2083875e-03
  4.7054724e-04  8.2407132e-05]","[ 0.00016717  0.0040666  -0.00492269 ...  0.00594096  0.00271474
 -0.00156123]","[ 2.6338303e-03  9.6697850e-06 -2.0714235e-04 ...  1.8347321e-04
  2.5091635e-03 -3.1036178e-03]","[-0.00363303 -0.00137031  0.00429431 ... -0.00114828  0.00141127
 -0.00492941]","[ 5.2460632e-04  1.6492099e-04 -4.2129689e-04 ...  6.4903907e-05
 -1.5478656e-03  1.1000843e-03]","[ 0.00185626 -0.00020408 -0.00187362 ... -0.00089109 -0.00147684
  0.00141856]","[-8.0071331e-04 -5.3999061e-04 -9.1484486e-04 ...  1.7744955e-05
 -4.3743406e-05  5.0646509e-04]","[-1.9349129e-03 -2.4964933e-05 -2.7696046e-03 ... -2.1895776e-03
  7.1046306e-03  2.6402235e-04]","[-0.00419935 -0.00113936  0.00286335 ... -0.00168191 -0.00159246
  0.00124013]","[-0.00011398 -0.00342096 -0.00214951 ...  0.00107832  0.00293483
  0.00099592]","[ 0.00172113 -0.00081695  0.0038238  ... -0.00238731 -0.00282479
 -0.00299825]","[-0.00115965  0.00316108  0.00257073 ...  0.00359213 -0.00042443
 -0.00258215]","[-0.00436709 -0.00089179  0.00035566 ...  0.00359772  0.00207886
  0.00118536]","[ 0.00129184  0.00106563 -0.0022483  ...  0.0031993  -0.00470852
 -0.0012966 ]","[ 0.00635494  0.00051564 -0.00342115 ...  0.00121469  0.00259448
  0.0019817 ]","[-0.00059592 -0.00116107 -0.00017738 ...  0.00147179  0.00325039
 -0.00062581]","[ 0.00182625 -0.00336756  0.00119967 ...  0.00297749  0.0030619
 -0.00204423]","[-0.00186561 -0.00341369  0.00483459 ... -0.00350347 -0.00033646
  0.00131844]","[-0.00214376 -0.00141042  0.00139503 ...  0.00052006  0.00068687
  0.00403465]","[-0.00169827 -0.00352535  0.00066458 ...  0.00374138  0.00138195
  0.00120066]","[ 0.00106752 -0.00074322 -0.0019649  ...  0.00305642  0.00177476
 -0.00111922]","[ 0.0025723   0.00085591 -0.00262695 ... -0.00053709 -0.0016793
  0.00235977]","[ 0.00157241 -0.00160221  0.00212531 ... -0.00116812 -0.00164206
  0.00401524]","[-0.00092164  0.00691561  0.00074299 ... -0.00143368  0.00319452
  0.00168509]","[-0.0010114  -0.00342914 -0.00617884 ...  0.00226345 -0.00193343
  0.0007575 ]","[-0.00427353 -0.00092296 -0.00049128 ...  0.00050488  0.00207341
  0.00143775]","[ 0.00399023 -0.00080757 -0.00029125 ... -0.00177056  0.00607082
 -0.0017317 ]","[-0.00042202  0.0010635  -0.0002724  ... -0.00010439  0.00043462
  0.00118449]","[-0.00322889  0.00198507 -0.00132125 ...  0.00134474  0.00028634
 -0.00072342]","[ 5.2009459e-04  1.6996129e-03  3.0228151e-03 ...  7.7318029e-05
 -2.6655395e-03 -1.9584966e-03]","[-0.00026206 -0.00075023  0.00038961 ...  0.00258019 -0.00335849
  0.00290801]","[-0.00183016  0.00370728 -0.00405994 ...  0.0017207   0.00091275
  0.00130588]","[ 0.00180206 -0.00078067  0.00133441 ...  0.0035684  -0.00101276
 -0.00064131]","[ 0.00213208  0.00088766  0.00208785 ...  0.0005534   0.00085419
 -0.00110436]","[-0.00279434 -0.00118027 -0.00356656 ... -0.00367682 -0.00118201
  0.00023614]","[ 0.00170308 -0.0029187   0.00069089 ... -0.00045514  0.00289792
 -0.00091512]","[-0.0025776   0.0007517  -0.0022024  ... -0.00073699 -0.00107922
 -0.00254955]","[-0.00088595 -0.00071768  0.00207629 ...  0.00028706  0.00177822
  0.0009413 ]","[-0.00247199 -0.00168099 -0.00332551 ...  0.00238805 -0.00257257
 -0.00074935]","[-0.00107574  0.00016198  0.00256235 ...  0.00394015 -0.00100648
  0.00038872]","[ 0.0030804   0.00674611 -0.0005313  ...  0.0023347   0.00058312
  0.0017167 ]","[ 0.00081917 -0.00106259 -0.00378363 ... -0.00047485  0.00241439
 -0.00196774]","[-0.0024032   0.00282853 -0.00226009 ... -0.00290668  0.00204849
 -0.00108741]","[ 0.0016906  -0.00117684 -0.00044105 ...  0.00188473  0.0063055
  0.00130274]","[ 0.00201092  0.002131    0.00272695 ...  0.00109525  0.00486618
 -0.00225195]","[-1.7103434e-03 -3.9545077e-05 -2.6878025e-03 ...  2.3619980e-03
  1.3379242e-03  8.8390225e-04]","[-0.00264013  0.00048484 -0.00066093 ... -0.00075772 -0.00079608
 -0.00141046]","[ 1.5351779e-03  1.9433579e-04  1.5936943e-03 ...  7.1704900e-04
 -2.3557923e-03 -6.6898901e-05]","[ 0.00071476  0.00165558 -0.00024229 ... -0.00166698  0.00246732
 -0.00263394]","[-0.00085273  0.00059208  0.0024269  ... -0.00049894 -0.00035354
 -0.00478872]","[-2.9579070e-04  9.9179415e-06  2.8883090e-04 ...  1.5736462e-03
  7.5846852e-04 -1.2710290e-03]","[ 0.00016931 -0.00448789 -0.00293456 ...  0.00084272  0.00104549
  0.00519564]","[ 0.00304086  0.00149371 -0.0042905  ...  0.00181984  0.00190752
 -0.0025302 ]","[ 0.00151064 -0.00064663  0.00160881 ...  0.00457919 -0.0003198
 -0.00191485]","[ 0.00149322 -0.00064216  0.00303279 ...  0.00090585  0.0013498
  0.00514987]","[-2.0870708e-03  7.6114061e-06  4.4092312e-03 ...  1.4378176e-03
 -2.2489245e-03 -8.3415426e-04]","[-3.6036354e-07 -9.8870753e-04  2.6471191e-03 ... -2.2444082e-03
 -2.4154035e-03 -1.1955531e-04]","[ 4.1908743e-03  3.4563668e-04  1.5093341e-03 ...  2.7878219e-03
 -8.8621251e-05 -1.0314378e-04]","[ 1.6087837e-03 -4.2219774e-04 -1.3796457e-03 ...  9.4176037e-04
 -5.4665634e-07 -7.0253242e-04]","[-0.0025622   0.00160969 -0.00014854 ... -0.00341082 -0.00093646
  0.00105376]","[-0.00210054  0.00117051  0.00026049 ... -0.00041035  0.00593654
  0.00016817]","[-0.00279264  0.00326531 -0.000923   ...  0.00410375 -0.00183038
 -0.00396558]","[-0.00274663 -0.00010313  0.00030818 ...  0.00321609  0.00081516
 -0.00105392]","[-0.00220828  0.00122293 -0.00021361 ... -0.00131047  0.00420519
  0.00414593]","[-9.4951094e-05 -1.6656770e-04  8.6039293e-04 ... -1.2599574e-03
  1.5595893e-03  2.9644830e-04]","[ 0.00382423  0.00372786 -0.00619021 ...  0.00121486  0.0002492
 -0.00865992]","[-2.7553823e-03  6.9175599e-05 -2.7689771e-03 ...  2.1371373e-03
 -4.2252461e-04 -3.4748635e-03]","[ 0.00355461 -0.00048856  0.00474281 ... -0.00041185  0.00020834
 -0.00303447]","[ 0.0043658   0.00014621 -0.00128178 ...  0.00133315 -0.00114834
 -0.00273622]","[-0.00123503  0.00021643 -0.0017309  ... -0.00089272 -0.00108373
 -0.00389879]","[-0.00420419  0.00086795 -0.00039292 ...  0.00042365  0.00225238
  0.00073033]","[-0.00261495 -0.00430529 -0.00080055 ...  0.00213616 -0.00107142
 -0.00319644]","[-0.00205076  0.00475199  0.001155   ...  0.00019534  0.00298681
  0.00520283]","[-0.00253131  0.00143532  0.00440615 ...  0.0021971  -0.00142133
 -0.00290861]","[ 0.00459104  0.00280826 -0.00235177 ...  0.00037718 -0.00178645
 -0.00277885]","[ 0.00079481 -0.0012538  -0.00061864 ...  0.00131127  0.00096742
 -0.00100417]","[-6.9194110e-05  2.5345390e-03 -9.4330680e-05 ...  3.1409634e-03
 -2.7772745e-03 -2.7795223e-04]","[-0.00257871 -0.00495835  0.00035839 ... -0.00014235  0.00029186
 -0.0021419 ]","[ 0.00139877  0.00327973  0.00280401 ...  0.00036504  0.00322816
 -0.00151266]",[0.0017513  0.00564648 0.00022841 ... 0.0029147  0.00302902 0.0036847 ],"[-0.00049777  0.00162725 -0.00193766 ... -0.00114757 -0.00219644
 -0.00116717]","[-0.00098233  0.00053114  0.00321114 ... -0.00021505 -0.00532323
 -0.00137447]","[-0.00178647  0.00010609  0.00053454 ... -0.00149901  0.00040391
 -0.00184622]","[-0.00173677  0.00590843 -0.00178432 ... -0.00211041  0.0026282
 -0.00563801]","[ 0.00527945 -0.00109109  0.0027656  ... -0.00180909 -0.00130572
 -0.00101054]","[-0.00308061 -0.00386777 -0.00191626 ... -0.00277163 -0.00326092
 -0.00193517]","[-0.00322449  0.00368256  0.0021263  ... -0.00249387 -0.00038165
 -0.00243447]","[ 2.3024921e-04 -3.1846650e-03  6.5130444e-04 ...  3.1206310e-03
  1.7718707e-05 -2.0591919e-03]","[ 0.00093245  0.00069496  0.00186997 ... -0.00063662 -0.00176953
 -0.00374059]","[-0.00157982  0.00064118 -0.00267577 ...  0.00049008  0.00358423
 -0.00247417]","[ 0.00087357 -0.00110545  0.00082991 ...  0.00047429 -0.00184037
 -0.003021  ]","[-0.00085806 -0.00713759 -0.00081693 ... -0.00199976 -0.00230979
  0.00382952]","[ 0.00141325 -0.00028109 -0.0015728  ...  0.00053687 -0.00039142
 -0.00085226]","[-0.0025986  -0.00127778 -0.00224242 ...  0.00085579  0.00084271
  0.00153991]","[-1.3934094e-03 -1.9056103e-03 -1.2983826e-03 ... -3.8347571e-04
  2.8208247e-05  2.4412351e-03]","[-0.00050427  0.00300683  0.00013001 ... -0.00143845  0.00066725
  0.00139488]","[-2.6767833e-05  8.0542061e-03 -1.6649473e-04 ... -3.6266607e-03
  3.4025665e-03  6.8389194e-04]","[-0.0028696  -0.00267413 -0.0007361  ... -0.0002701  -0.00124466
  0.00107249]","[-0.00122416 -0.00128353  0.00092978 ... -0.00078144 -0.00260816
 -0.00326072]","[-0.00128335  0.00093302  0.00110966 ...  0.00212575 -0.00275687
 -0.00197571]","[-0.00417459 -0.00117892  0.0037338  ... -0.00188614  0.00018129
 -0.00076967]","[ 5.3203130e-05 -1.2533396e-03  2.8644336e-04 ... -2.9900270e-03
 -9.0798945e-04 -2.9735998e-03]","[-0.00116865  0.00600372 -0.00265309 ...  0.00513683 -0.00639028
 -0.00250944]","[-0.00076273 -0.00112807  0.00330005 ... -0.00130614  0.001373
  0.007666  ]","[-0.00026816 -0.00182118 -0.00267245 ... -0.00573442  0.00505839
 -0.00154832]","[ 0.00225313  0.00312283 -0.00110977 ...  0.00240176  0.00147561
  0.00346875]","[ 0.00056899  0.00310201  0.00311189 ...  0.00411411 -0.00309691
 -0.00074727]","[ 0.00351518 -0.00039922 -0.00216475 ...  0.00573969  0.00255836
  0.00055086]","[ 0.00063699 -0.00426276  0.00159739 ... -0.00622794  0.00201488
  0.00097445]","[-1.2347894e-05  1.8934086e-03 -1.6916959e-03 ...  2.9806821e-03
  1.0611275e-03  2.0518356e-03]","[-0.00406586 -0.00144645  0.00010692 ... -0.00071376 -0.00086317
 -0.00122749]","[-0.00322675 -0.00218097  0.00284716 ... -0.00232162  0.00203144
 -0.00191841]","[-0.00063069 -0.00172797  0.00049432 ... -0.00271387 -0.0007613
 -0.00039937]","[ 0.00045951  0.00209652 -0.00282368 ... -0.00200076  0.00012711
  0.00088596]","[ 0.00013091 -0.00271565 -0.00526146 ... -0.00118628 -0.00012972
 -0.00180892]","[-0.00082432  0.00107929  0.00479812 ...  0.00108102 -0.0002669
 -0.00475365]","[-0.00019623  0.00050931 -0.00125422 ...  0.00020768  0.00234792
  0.00364851]","[-0.00152422 -0.0014534  -0.00112596 ... -0.00196939 -0.00141545
 -0.00113469]","[-0.00305159 -0.00300734 -0.00042152 ...  0.00337754 -0.00030684
 -0.00215242]","[ 5.3926498e-05  1.6280976e-03 -3.1286147e-03 ... -1.2859142e-03
 -4.1737906e-03  1.8744524e-04]","[ 0.00013014  0.00263327  0.00025186 ... -0.00077827  0.00125715
  0.00205185]","[-0.00333105 -0.00416761  0.00360333 ... -0.00405787  0.00074743
 -0.00232399]","[-0.00196886 -0.00199044 -0.00042524 ...  0.000121    0.00273091
 -0.00105795]","[-0.00026659 -0.00233861 -0.00275385 ... -0.00077939 -0.00052672
  0.00095769]","[-2.7158653e-04  7.1289588e-04  8.1876206e-05 ...  1.1532473e-03
  1.7421831e-04 -2.1645275e-03]","[ 9.1679693e-05  1.3975909e-03 -4.8972841e-04 ...  4.7250655e-03
 -1.2606418e-03 -1.1937463e-03]","[-0.00126824 -0.00320364  0.00383156 ... -0.00271559  0.00266406
  0.00315746]","[-0.00126293  0.00167016 -0.00381039 ... -0.00032054 -0.00241974
 -0.0004099 ]",[0.0039765  0.00408271 0.00016826 ... 0.00238513 0.00382442 0.00668148],"[-0.00157454 -0.00197099 -0.00249925 ...  0.00098955  0.00208754
  0.00112391]","[ 0.00094994  0.00360219  0.00011399 ...  0.0003897  -0.0005386
 -0.00140128]","[ 3.1516321e-03 -9.1903312e-06  1.4073561e-03 ...  2.1043764e-03
 -2.9223756e-04  9.9217541e-05]","[ 0.0006228  -0.00079332 -0.00224204 ...  0.00089014  0.00015264
 -0.00156367]","[-0.00587088 -0.00379657 -0.00137934 ... -0.00511857  0.00194154
  0.00339909]","[-0.00164721 -0.00033347  0.00257311 ... -0.00211554  0.00249824
  0.00211641]","[-0.00087318 -0.00302531 -0.00016707 ... -0.00274163 -0.00112118
  0.00028483]","[-8.9404304e-05 -2.4517189e-04  5.0651999e-03 ...  1.4499030e-03
 -1.1554159e-03  5.1696034e-04]","[ 0.00207416 -0.00403811  0.0001462  ... -0.000191    0.00046786
  0.00107609]","[ 7.2359334e-04 -3.0369961e-03 -9.9521514e-04 ... -1.8124495e-03
  5.9481074e-05 -4.8952610e-03]","[-0.00399986 -0.00069916  0.00347464 ...  0.00064821 -0.00243594
  0.00041711]","[ 2.2731011e-03  1.0012863e-03 -3.0772100e-04 ...  1.2527334e-03
  2.3697170e-03 -9.1271068e-05]","[-0.00376269  0.00129952 -0.00103548 ... -0.00104245  0.002488
 -0.00271261]","[-1.5458805e-03 -6.6380555e-05 -1.9460010e-03 ...  9.1386342e-04
 -2.5155710e-04 -8.7947753e-04]","[-0.00187629 -0.00465972  0.00042354 ...  0.00039933 -0.00128131
 -0.00345771]","[-0.00072212 -0.0039284   0.00030279 ... -0.00212959  0.00614899
  0.00048135]","[ 0.00461313  0.00127229 -0.00136629 ...  0.00198317 -0.00084521
  0.00159184]","[ 0.0003865   0.0005071   0.00496605 ...  0.00034998  0.00101597
 -0.00199888]","[ 0.00264381 -0.00065553  0.00388475 ... -0.00155051 -0.00146833
  0.00074272]","[-0.00246045  0.00138532  0.0006113  ... -0.00292687 -0.00094162
  0.00221433]","[-0.00428634  0.00085114 -0.00014297 ...  0.00142713 -0.00097649
  0.00212336]","[-0.00199805  0.00215325 -0.00341243 ...  0.00128096  0.00139778
  0.00072559]","[-0.00080675  0.00079648 -0.00202426 ...  0.00136137 -0.00302576
 -0.00017458]","[-0.00033485  0.0010794   0.00107709 ... -0.00024079 -0.00132567
  0.00034928]","[ 0.00261368 -0.0014698   0.00129468 ... -0.00031412  0.00104324
 -0.00157926]","[-9.4950570e-05 -2.5696771e-03  9.1512094e-04 ...  2.4753914e-03
  3.1698081e-03 -2.8611375e-03]","[ 1.2631983e-03  2.2573313e-03 -2.7570631e-03 ... -1.2221424e-03
 -4.4862307e-05 -1.8133580e-03]","[ 2.3705941e-03  2.7563334e-03 -2.1105986e-03 ...  5.1400821e-05
  4.2907443e-04  1.6824146e-04]","[ 0.00242792  0.00137033  0.00391152 ... -0.00085998 -0.00256638
  0.00363461]","[-0.00224782 -0.00120884 -0.00013907 ... -0.0027308   0.00108172
  0.00163463]","[-0.00085981  0.00109501 -0.000551   ...  0.0011943  -0.00046308
  0.00326643]","[ 0.00165803  0.00051787  0.00423055 ... -0.00151957  0.00116477
  0.00102079]","[ 0.00032763 -0.00602037 -0.00052535 ... -0.00066767  0.0001041
 -0.00356306]","[-0.00067759  0.00093596  0.00681852 ... -0.00575528 -0.002839
 -0.00523581]","[-0.00327066  0.00054629 -0.00073045 ... -0.0003152  -0.0016117
  0.00191911]","[-0.00118532  0.00212414 -0.00539524 ...  0.00029966  0.00205908
  0.00082901]","[-0.00082684 -0.00063055 -0.00038002 ... -0.00320999 -0.00024989
 -0.00373484]","[-1.4813041e-03  3.9807624e-06 -1.4157875e-03 ... -2.7215234e-03
  5.0615612e-04 -1.0902905e-03]","[-0.0023869  -0.00150491 -0.00084896 ... -0.00089917  0.00211363
 -0.00186816]","[ 7.1003707e-04  1.7448995e-03  5.5798781e-03 ... -1.5530359e-03
 -5.4589757e-03 -4.6914625e-05]","[ 0.00294762 -0.00116495 -0.00278663 ... -0.00223694 -0.0011285
 -0.00464815]","[-4.5077817e-04 -4.5239207e-04  1.8086385e-03 ... -8.1358629e-04
  9.2281152e-05  1.8599904e-03]","[ 0.00442693 -0.00409174 -0.00427935 ...  0.00092442 -0.00051535
 -0.00279315]","[ 0.00091231  0.00103042 -0.00084375 ... -0.00175086  0.00434381
 -0.00146847]","[-0.0051665   0.00358189  0.00089376 ...  0.00179797 -0.00277483
 -0.00051465]","[-3.0039302e-03  6.6444634e-05  9.7414700e-04 ...  6.2640512e-04
 -3.3590624e-03 -1.6299959e-03]","[-5.1393355e-03  2.2146320e-03 -1.7124812e-04 ...  8.4822706e-04
 -3.8026099e-03 -3.7018679e-05]","[-0.00279392  0.00144054  0.00245524 ... -0.00182683  0.00041386
  0.00212051]","[-0.0021891  -0.00204848  0.00106879 ... -0.0034156   0.00108839
 -0.00208259]","[ 0.00296884  0.00103766 -0.00122461 ... -0.00081429 -0.00097168
  0.00207167]","[ 3.8523656e-05 -3.5081201e-03 -2.4761031e-03 ... -1.8747275e-03
  2.2644396e-03  1.3008654e-03]","[ 0.00319675 -0.00297601 -0.00333904 ... -0.00328817 -0.00123074
 -0.00133628]","[-0.00226703 -0.00163989 -0.00338203 ... -0.00063426  0.00065028
 -0.00422429]","[ 0.00052932 -0.00349411 -0.00080355 ...  0.00241767 -0.0022044
 -0.00352616]","[-0.00160692 -0.00403864 -0.00122594 ... -0.00576865  0.00178633
  0.00544704]","[-0.00356742  0.0007528   0.00104617 ... -0.00025934 -0.00138005
  0.00350619]","[ 4.5475706e-05 -1.6002016e-03 -1.4627258e-03 ...  4.0193461e-03
 -2.4308113e-03  4.5493701e-03]","[-2.5100601e-03  3.0087810e-03  2.2252125e-03 ...  1.1987325e-03
  2.3356182e-05  1.1305858e-03]","[ 0.00043993  0.00203996  0.00061521 ... -0.00077762 -0.00241349
 -0.00016965]","[-0.00091981  0.00483381  0.00155231 ... -0.00197315 -0.00054876
 -0.00100052]","[ 0.00019972 -0.00248457  0.00109176 ...  0.00158948 -0.00072326
  0.00271539]","[-0.00389207 -0.00215912 -0.00218706 ...  0.00739538 -0.00238608
  0.00025669]","[ 0.00041791  0.00134209 -0.00201482 ...  0.00271404 -0.00199512
 -0.00070244]","[-0.0025024  -0.00158491 -0.00029948 ...  0.00346866  0.00154704
  0.00371734]","[ 0.00288274  0.00235209  0.0020284  ... -0.00014449 -0.00107756
  0.00068699]","[ 0.00067183  0.00161956  0.00072512 ... -0.00042427 -0.0010108
  0.00046698]","[ 0.00119248  0.00046882 -0.001753   ... -0.0020738  -0.00092922
 -0.0010576 ]","[ 0.001534    0.00394109  0.00027785 ...  0.00337137 -0.00221384
 -0.00106271]","[-0.00132635  0.00191162  0.00069249 ... -0.00179905 -0.00375589
  0.00165805]","[ 3.9131404e-03  1.9394491e-03  1.0641333e-05 ... -9.3482481e-04
 -3.6513524e-03  3.6042104e-03]","[ 0.00078202  0.00083331  0.00089898 ... -0.00152913  0.00016011
 -0.00023167]","[-0.000167   -0.0026345   0.00016796 ... -0.0008004  -0.0002077
 -0.00362969]","[ 1.9755585e-03 -1.8726796e-03 -2.5865957e-03 ... -1.9955864e-05
 -3.3052482e-03  2.3977787e-03]","[-0.00265983 -0.00074306  0.00231524 ...  0.00507506  0.00105888
 -0.00434722]","[-0.00210869 -0.00037919  0.00128353 ... -0.00274127  0.00160867
  0.0016677 ]","[ 0.0061918   0.00058376 -0.00012377 ... -0.00047558  0.00064311
 -0.00319796]","[-9.7917611e-05 -1.5883686e-04  1.3744143e-03 ... -8.8473945e-04
 -1.3028987e-03  3.8014373e-03]","[ 0.00331501 -0.00404987 -0.00029493 ... -0.00056399  0.00052145
  0.00285906]","[ 0.00331146  0.00058713  0.00168401 ... -0.00099259  0.00123318
  0.00293815]","[ 2.1398331e-04 -4.2359908e-03  6.7809939e-05 ... -1.7098235e-03
  1.7398079e-03 -1.5996288e-03]","[-0.00459208 -0.0011862   0.00099569 ... -0.00013977  0.00106547
 -0.00319328]","[ 0.00116561 -0.00018723  0.00052315 ... -0.00268829  0.00102046
  0.00018611]","[ 0.00098017  0.00515793 -0.0030147  ...  0.00208139 -0.00428779
 -0.00116959]","[ 0.00178982  0.00166299  0.0032053  ...  0.00650836 -0.00078846
  0.00203675]","[-5.5079540e-04 -6.3359781e-05 -4.4519422e-03 ... -3.2158857e-03
  4.6059731e-04 -7.4119412e-04]","[ 0.00066771 -0.00054248 -0.00033442 ...  0.00060628 -0.00023012
 -0.00029769]","[-0.00108034 -0.00506648 -0.00073991 ... -0.00240748  0.00074193
 -0.00404165]","[-0.00051623  0.00207795  0.00032138 ... -0.002609   -0.00089494
  0.0004537 ]","[-0.00027943 -0.00038652 -0.00173664 ... -0.00129934  0.00122122
  0.00044907]","[ 0.00234066 -0.00277647  0.00170154 ... -0.00031194 -0.0018811
 -0.00105976]","[ 1.7587616e-05 -2.3967680e-03  7.5658743e-04 ... -1.9145242e-03
  1.7884019e-03 -1.4376123e-03]","[-0.00459113  0.0004556   0.00295676 ... -0.0019246  -0.00320678
 -0.00372018]","[ 1.0313969e-03 -9.0574421e-04  1.7720403e-03 ...  8.3253479e-05
 -1.2364569e-04  5.5447855e-04]","[ 0.00144255  0.00052165  0.00294818 ... -0.00435286  0.00058996
  0.00033841]","[-0.00278262  0.0002159   0.00317383 ...  0.00035979 -0.00215158
 -0.00209665]","[ 0.00280068 -0.00123767 -0.00151133 ...  0.00651505 -0.00450308
 -0.0018902 ]","[ 0.00053606  0.00090879  0.00035049 ...  0.00295305 -0.00164325
  0.00370111]","[-0.00224643 -0.00173588 -0.00095371 ...  0.00059434 -0.00178649
 -0.00124533]","[-0.00103566 -0.00087402  0.00265283 ... -0.00186247  0.00124303
  0.00105914]","[ 0.0009218   0.00209798 -0.00171992 ...  0.00054961 -0.00092893
 -0.00293606]","[ 0.0032694  -0.00217037 -0.00367277 ... -0.00313083  0.00034404
 -0.00010833]","[ 8.1852789e-04 -2.4224594e-04  1.9708127e-03 ... -5.3762829e-05
  2.1178403e-04  1.1251239e-03]","[-0.00039323 -0.00345162 -0.00277886 ... -0.00182357 -0.00073053
  0.00338717]","[ 0.00062975 -0.00358009  0.00010255 ... -0.00507027  0.00096824
 -0.00410315]","[-0.00485947 -0.00414521  0.0020632  ... -0.00557974  0.00174646
 -0.00169264]","[ 0.00139208 -0.00172801  0.00378672 ...  0.00253031 -0.00048677
 -0.00338523]","[-0.00161671 -0.00067472 -0.00453624 ... -0.00066152  0.00176864
 -0.00097582]","[ 0.00082509 -0.00379928 -0.00194749 ... -0.00494121 -0.00098665
  0.0037749 ]","[ 0.0030475  -0.00153555  0.00232709 ...  0.00020164 -0.00360819
 -0.00022008]","[-9.2481298e-04  4.7454606e-03 -1.1457357e-03 ... -4.8905629e-05
 -1.4364246e-03 -1.1966317e-03]","[ 0.00153904  0.0022388  -0.00222556 ...  0.00039484 -0.0004862
 -0.00049276]","[ 0.00358841  0.0002969   0.00020858 ...  0.00043084  0.00185692
 -0.00045986]","[-0.00018965  0.00065241 -0.00259574 ...  0.002288    0.00132755
  0.00075473]","[ 2.9444783e-03  6.4715598e-04  4.0596354e-04 ... -3.0912191e-03
  8.9605834e-04  2.3809531e-05]","[-0.0032622  -0.00230364 -0.00416278 ... -0.00115219  0.0019705
  0.00054234]","[ 0.0013987   0.00414375 -0.00013078 ...  0.00095315  0.00103429
 -0.00273239]","[-0.00066519 -0.00163805  0.00427756 ...  0.00508404 -0.00250498
 -0.00134571]","[ 0.00201798 -0.00327714  0.00107226 ...  0.00078975 -0.00093586
 -0.00225943]","[-0.00079013  0.0003354   0.00199248 ... -0.00212282 -0.00149709
 -0.00194458]","[ 0.00934285 -0.00098539 -0.00281418 ... -0.00296579 -0.00010246
 -0.00172154]","[ 4.9493187e-03  1.9348619e-03  1.5250900e-03 ...  3.5421860e-03
  6.1705192e-05 -1.5059656e-03]","[-2.1779210e-04 -2.5954975e-03 -1.5632540e-03 ... -2.0011250e-04
  4.0317882e-05 -3.2402000e-03]","[ 0.00138751  0.00319495 -0.00191845 ... -0.00078315  0.0019142
 -0.00171459]","[-0.00227631 -0.00380269  0.00241236 ... -0.00098425 -0.00049639
 -0.00510112]","[ 0.00171422  0.00409353  0.00115417 ... -0.00217254  0.00084738
 -0.00560452]","[ 0.00162885  0.00144465  0.00081868 ...  0.00061005 -0.000354
  0.00031871]","[ 0.00197881  0.00329838  0.00139451 ... -0.00327716 -0.00140054
 -0.00066713]","[ 0.00161929  0.00051817 -0.00040868 ... -0.00159157  0.00144263
 -0.00364151]","[ 1.8364084e-03 -5.8645737e-06  2.7392483e-03 ...  1.5046159e-04
 -5.0258666e-04 -3.2234492e-03]","[ 0.00238257 -0.00216881 -0.00264811 ... -0.00267795  0.00186638
 -0.00080673]","[ 0.00193277 -0.0031286  -0.00160536 ... -0.00449072  0.00322672
  0.00024309]","[-0.00289873  0.00010343  0.00771586 ...  0.00046393  0.00118276
  0.00248928]","[ 0.00180921  0.00079295  0.00177465 ... -0.00186434  0.00224739
 -0.00026008]","[-0.00321744 -0.00252311  0.00479911 ...  0.00407376 -0.00487148
  0.00051037]","[-0.00581496 -0.00509503  0.00774877 ... -0.00142493 -0.00264835
 -0.00263301]","[ 6.4696273e-05 -8.3358766e-04 -5.4355199e-03 ... -3.3261171e-03
  7.4954674e-04 -1.6931560e-03]","[ 0.00323364 -0.00117393  0.0012378  ...  0.00509249 -0.0021113
  0.00165723]","[ 0.0061053   0.00488575  0.00077847 ... -0.00232836  0.00062597
 -0.00047992]","[-0.00061926  0.00102385 -0.00046274 ... -0.00444739  0.00259411
  0.0015077 ]","[-0.00129003 -0.00077531 -0.00234817 ...  0.00019591  0.00127043
  0.00136087]","[ 3.8308050e-03  3.8205080e-03 -2.1368256e-03 ... -2.5295226e-03
  1.0706438e-03 -2.4186609e-05]","[-0.00122154 -0.00443731 -0.00275762 ...  0.00061875  0.00166577
  0.00095508]","[-0.00190373  0.00198156  0.00470287 ...  0.001243   -0.00265535
  0.00074429]","[-0.00018254 -0.00082479 -0.00033888 ... -0.00074943  0.00298493
 -0.00156519]","[-0.00203531 -0.00071621 -0.0027455  ...  0.00123456 -0.00263095
  0.00137936]","[-0.00094809 -0.00294502 -0.00020546 ...  0.00083398  0.0014449
 -0.00039956]","[-0.00248858 -0.00449746  0.00139241 ... -0.00226192 -0.00198389
 -0.00164919]","[ 0.00060909 -0.00131763 -0.00191724 ...  0.00226194 -0.0013557
  0.00027299]","[-0.00203354  0.00194564 -0.00093769 ...  0.00423992 -0.00081852
  0.00179665]","[-0.00011319  0.00217831  0.00218944 ...  0.00112831  0.00085593
 -0.00204641]","[-0.00234985 -0.00048608  0.0004189  ...  0.00083686  0.00193146
  0.00040075]","[ 0.00033967  0.00125082 -0.00252817 ... -0.00088734  0.00066747
  0.01088894]","[-0.00457637 -0.00070605  0.00288634 ...  0.00090151 -0.00290031
 -0.00499592]","[-0.0008712  -0.00099732 -0.00030947 ... -0.00216615  0.00055701
  0.00136422]","[ 0.00094417 -0.00047301 -0.00333709 ...  0.00432957  0.00183357
  0.00056077]","[ 0.00119261 -0.00073411 -0.00141007 ... -0.00153678 -0.00178677
  0.00100552]","[ 0.00120201  0.00168967 -0.00084576 ...  0.00245037  0.00022407
  0.00232198]","[-0.00019456  0.0009032  -0.00195909 ...  0.00396952  0.00444407
  0.00138916]","[ 8.7653339e-04  3.9570220e-03 -2.3168367e-03 ... -3.3447929e-04
 -2.1028314e-03  1.2266752e-05]","[-1.9943984e-05  1.6081065e-04  2.1710182e-03 ...  1.6854724e-03
 -1.1297762e-03  7.6866522e-04]","[ 0.00027015 -0.00253494 -0.00088971 ...  0.00068014 -0.00150091
  0.00127495]","[-0.00307718 -0.00400783  0.00178959 ... -0.00298446 -0.00280269
 -0.00198526]","[ 0.00316995 -0.00088014  0.00098926 ...  0.00132687  0.00530877
 -0.00124957]","[-0.00297724 -0.00137289  0.00206125 ... -0.00154453 -0.00021277
  0.0022677 ]","[ 0.00137076 -0.00031404 -0.00393865 ...  0.00512075 -0.00102073
 -0.00265233]","[ 0.00030126 -0.00118676 -0.00235361 ... -0.00219815  0.00036911
  0.00029114]","[ 0.00118951 -0.00233979 -0.00243624 ... -0.00034945  0.00802257
 -0.00391912]","[-0.00056403 -0.00165804 -0.00329095 ...  0.00475123 -0.00463987
  0.00108279]","[-0.0020515   0.00097588  0.00174122 ... -0.00467912 -0.00225046
  0.00274859]","[ 0.00116121  0.00035988  0.00035881 ... -0.00069194 -0.00258704
 -0.00153591]","[-0.00162813 -0.0001353  -0.00065327 ...  0.00042028  0.00212744
  0.004743  ]","[-0.00050217 -0.00242235  0.00119583 ...  0.00152544 -0.00072535
 -0.00106551]","[ 0.00132397  0.00135335  0.0015271  ...  0.00461409  0.00139373
 -0.0018234 ]","[-0.00064727 -0.00054355  0.0011935  ... -0.00046599 -0.00042273
 -0.00350929]","[-4.6738102e-03  8.9463174e-05  1.4423099e-04 ... -1.4176772e-03
  4.6664439e-03  1.3928540e-03]","[ 0.00031506  0.00082973  0.0008239  ...  0.00321542 -0.00108896
 -0.00215452]","[-0.00190888  0.001798    0.00407154 ...  0.00253666  0.00543678
  0.00133442]","[ 0.00335948  0.00103092 -0.00168567 ...  0.00578633  0.00102494
 -0.00255241]","[ 2.2163502e-05 -2.4419912e-04  3.7001742e-03 ... -1.3367705e-03
 -1.2745730e-03 -1.4155218e-03]","[ 0.0033729   0.00146484 -0.00041173 ... -0.00079057 -0.00251238
 -0.00342171]","[ 0.001294    0.00188622  0.00256772 ...  0.00223822  0.00114731
 -0.00168515]","[-4.5590647e-04  2.6558177e-05 -2.5201049e-03 ...  4.4690697e-03
 -3.0905793e-03 -5.1540567e-04]","[ 0.00028532 -0.00078329  0.00027891 ... -0.00578108  0.00065746
 -0.0018322 ]","[-0.00155517  0.00213349 -0.00044304 ...  0.00171653 -0.00126283
  0.00272122]","[-3.8510591e-03 -1.9655584e-03  2.2262358e-03 ...  3.2133001e-05
  9.7058457e-04  8.8285509e-04]","[ 2.0620306e-05 -1.2615183e-03  1.4108884e-03 ... -1.4527679e-03
  1.1397357e-03  5.3293188e-05]","[ 0.00161103  0.00014051 -0.00175596 ...  0.00184979 -0.00080082
  0.00089758]","[ 0.00229934  0.00112797  0.00338065 ...  0.00235378  0.00466823
 -0.00024706]","[ 0.00119186 -0.00289986 -0.00245978 ...  0.00024101 -0.00194251
 -0.00038084]","[-0.00044137 -0.001949    0.00380874 ... -0.00241273  0.00168068
  0.00095084]","[-1.9709673e-03 -7.1657292e-04 -3.3218383e-03 ... -5.7632453e-05
  1.1207337e-03  1.7057917e-04]","[ 2.9683508e-05 -1.5033948e-03 -1.2451316e-03 ...  3.0137019e-03
 -1.7090134e-03  2.3067393e-03]","[-0.00033108 -0.00112035 -0.00118975 ... -0.000107    0.00043705
  0.00118391]","[-1.3953523e-03  7.4483262e-04 -1.5049735e-03 ... -3.8223181e-05
  1.8564141e-03  1.5173762e-06]","[-0.00068204 -0.00452418 -0.00077052 ... -0.00524616  0.00058773
 -0.00025656]","[ 0.00373256  0.0028149   0.00013941 ... -0.00061638  0.00075027
 -0.00117686]","[ 0.00140874 -0.00400697 -0.00041704 ...  0.00348477 -0.00180462
  0.00054339]","[ 0.00148536  0.00333931  0.00116053 ... -0.0006671  -0.00492846
 -0.00328909]","[ 0.00107129  0.00099953  0.00108578 ...  0.00238652 -0.00147509
 -0.00238983]","[ 0.00277731  0.00016124 -0.00183981 ...  0.00287091  0.00034991
  0.00125786]","[ 0.00060823  0.00197171  0.00174128 ... -0.00320713 -0.00365038
  0.00531858]","[ 0.00186777 -0.00145587 -0.00144733 ... -0.00201376  0.0018563
 -0.00262605]","[-0.00209492 -0.00335116  0.0054191  ...  0.00059615 -0.00093342
 -0.00141251]","[-0.00108488  0.00105488  0.00401796 ...  0.00205542  0.00095082
  0.00483519]","[-0.00126349 -0.00215215 -0.00154743 ... -0.00307875  0.0016831
 -0.00123486]","[-0.00206777  0.00284173  0.00161163 ...  0.00349668  0.00471649
 -0.00490183]","[-0.00043737  0.00029937 -0.00025985 ...  0.00121337 -0.00137108
 -0.0025408 ]","[-0.00160953 -0.00222516 -0.00151222 ...  0.00049751 -0.00132413
 -0.00180465]","[-0.00055717  0.00204536 -0.00171542 ... -0.0032362  -0.00236094
 -0.00158107]","[-0.0033655   0.00124847 -0.00227088 ...  0.00086809  0.00163039
  0.00331397]","[-0.0002646   0.00175895  0.00029457 ... -0.00373038  0.00283552
 -0.00417394]","[-0.00268751  0.0021629   0.00038473 ... -0.00306359 -0.00186018
  0.00075275]","[ 0.00209469 -0.00051845 -0.00257429 ... -0.00278834  0.00509683
  0.00198884]","[-0.00402666 -0.00417875  0.00376775 ... -0.00061319 -0.00012364
  0.0021901 ]","[-0.00351718 -0.00045622  0.00012247 ... -0.00154303  0.00169864
 -0.00154585]","[ 0.0046268   0.00226605 -0.00116278 ... -0.00172659  0.00228206
 -0.0039002 ]","[ 0.00247076 -0.00220757  0.00121175 ... -0.00013278 -0.00320447
 -0.00341035]","[ 0.00464705 -0.00035194  0.00109294 ...  0.00028555 -0.0002311
 -0.00109386]","[-0.00155112  0.00243305  0.00439362 ... -0.00311498  0.00415877
 -0.00042481]","[ 5.9757456e-03 -7.0889349e-05 -1.2539834e-03 ...  1.6742741e-03
  1.6559319e-03  8.7240514e-05]","[ 4.6748901e-03  8.7221526e-04  4.3370240e-04 ...  1.3301349e-03
 -3.2170390e-04 -6.4428990e-05]","[-1.67662662e-03 -2.33875052e-03 -6.72449532e-05 ...  4.37812327e-04
 -1.17582334e-04 -3.04387696e-03]","[-0.00130743 -0.00227666 -0.00262785 ...  0.00103322 -0.0021577
  0.00162262]","[ 2.1645765e-05 -2.7551060e-03 -1.5984281e-03 ...  6.9740834e-04
  4.1843249e-04 -2.4272380e-03]","[-3.8584489e-03 -3.2588697e-04  4.2912513e-03 ...  6.3854918e-06
 -5.1908991e-03 -9.5664174e-05]","[ 0.00308258  0.0013545   0.00244538 ...  0.00167759  0.00285957
 -0.00017239]","[-0.00154225 -0.00012097 -0.00241855 ...  0.00012552 -0.00067279
  0.00171265]","[-0.00303581 -0.00172303  0.00098424 ...  0.00184647 -0.00520009
  0.001193  ]","[-2.4614632e-04 -1.6357505e-03 -4.0623392e-03 ...  4.0099416e-03
 -2.3499201e-03  2.4982224e-05]","[ 0.00095873  0.000296    0.00166559 ... -0.00415107 -0.00200546
 -0.00086633]","[ 0.00402611  0.00300984  0.00445219 ... -0.00080486 -0.00269153
 -0.00355486]","[-0.00089894  0.00144491 -0.00209835 ... -0.00233486  0.00010935
  0.00011267]","[-0.00031227 -0.00232117 -0.00081208 ... -0.00053069 -0.00130173
  0.00021344]","[ 0.00311525  0.0008298   0.00077016 ...  0.00063396 -0.00305564
  0.00110632]","[-0.00174424  0.00504262 -0.00243509 ...  0.00319752 -0.0014743
 -0.00154932]","[-0.00111714 -0.000982    0.00186963 ...  0.00165711 -0.00519421
 -0.00023787]","[-0.00052303  0.0025903   0.00150137 ...  0.00072733  0.00079472
 -0.00165413]","[-8.4513059e-04  2.0838061e-03  2.4982400e-03 ... -5.6424960e-05
  3.1025221e-03  1.6889276e-03]","[ 0.00112939 -0.00207175  0.00013193 ... -0.00076083 -0.00059783
  0.00031722]","[ 0.00039166 -0.00081409 -0.00311373 ... -0.00124175  0.00329516
 -0.00251311]","[-0.00039746  0.00159578  0.00355463 ...  0.00116868 -0.00035368
 -0.00552117]","[-0.00320536  0.00133089  0.00194821 ...  0.00311613 -0.00230006
 -0.00092504]","[-0.0022024  -0.00044916 -0.00136471 ...  0.00247985  0.0026349
  0.00312817]","[ 0.00360972 -0.00420947  0.00118282 ... -0.00047905  0.00192389
 -0.00234026]","[ 4.0142359e-03  9.7932538e-04 -3.0717906e-03 ...  1.0654572e-03
 -1.7802957e-03  9.6095435e-05]","[ 0.00058576 -0.00082542  0.00191126 ...  0.00088543 -0.00204641
 -0.0038322 ]","[-0.00265682 -0.00264066  0.00254632 ... -0.00170019  0.00083345
 -0.00010833]","[-0.00145988  0.00108561  0.00206576 ...  0.00041843 -0.00326632
  0.00147654]","[-0.0050529   0.00193492 -0.00114493 ... -0.00056812  0.00302049
 -0.00105663]","[-0.00071191  0.00190959  0.0001963  ...  0.00017833  0.00416423
  0.002993  ]","[ 7.9933801e-05  1.9684513e-03 -9.3571667e-04 ...  2.0181902e-03
  3.0476405e-04 -1.9776048e-03]","[-0.00025534 -0.00023709  0.00060146 ... -0.00088756  0.00028408
 -0.00313295]","[-0.00095681 -0.00340618 -0.0021261  ... -0.00105707  0.00086191
 -0.00063   ]","[-2.4650162e-03 -2.7314890e-03  1.2736658e-03 ...  3.5394838e-03
 -4.3439837e-03 -4.3421387e-05]","[-0.00045384  0.00120768  0.00205587 ...  0.00065469 -0.00146758
  0.00027102]","[-0.0003143  -0.00302337  0.00122724 ... -0.00141846 -0.00012437
 -0.00159179]","[ 0.0001528   0.00211023  0.00172612 ... -0.00068434  0.00128003
  0.00087269]","[ 0.00526978 -0.00168814 -0.00439141 ...  0.00107392 -0.00189545
  0.00181448]","[-0.00473679  0.00081519 -0.00378    ...  0.0017911  -0.00290199
 -0.00266621]","[-0.00177812 -0.001024   -0.00354392 ... -0.00220881 -0.00045788
  0.00170651]","[-0.0021456   0.00240465  0.00297191 ... -0.00222165 -0.00036268
 -0.00155322]","[-0.00094999  0.00088129  0.00515704 ...  0.00523609  0.00105775
  0.00099095]","[-0.0021685  -0.00238202 -0.00010538 ... -0.00133242  0.00175678
  0.00044326]","[ 3.4222601e-04  1.2422052e-03 -1.3621901e-03 ... -1.3164659e-03
 -3.3052901e-03 -7.3642230e-05]","[-0.00084735 -0.00426106 -0.00101543 ... -0.00017887 -0.00022648
 -0.00069908]","[-0.0019051   0.00381572  0.00037711 ... -0.00081776  0.00129085
 -0.00111748]","[-0.0043518   0.00598606 -0.00190755 ...  0.00588255  0.00319217
 -0.00288567]","[ 0.00440348 -0.00047435 -0.00163001 ... -0.00207403  0.00282118
  0.00026162]","[ 1.03405044e-04  1.76436955e-03 -6.57311102e-05 ... -1.12200726e-03
  3.31525365e-03 -6.33306627e-04]","[-0.0011352  -0.00070109 -0.00166329 ...  0.00181755 -0.00049254
  0.0022678 ]","[-0.00389907 -0.00454043 -0.00286596 ...  0.00025708  0.00140309
  0.00198552]","[-3.6686477e-06  9.6454122e-04  5.3447438e-04 ... -3.6660440e-03
 -2.0077594e-03 -1.6219340e-03]","[ 0.0008476   0.00051657  0.00071641 ... -0.00082069  0.000242
 -0.00019083]","[ 5.0089178e-03  1.4945889e-03  8.8612396e-05 ...  7.5906492e-04
  1.4292219e-03 -7.4324023e-04]","[-0.00092286 -0.00018943 -0.00255705 ...  0.00046968  0.00062512
  0.00431346]","[ 0.00236845 -0.00111321 -0.00027155 ... -0.00171365 -0.00156671
  0.00412931]","[-0.00289192 -0.00167202  0.00024838 ...  0.00069122  0.0022001
 -0.00193342]","[-2.7946205e-04 -2.6757079e-03 -1.0104313e-03 ... -4.2382081e-04
 -5.1548814e-05  4.5617614e-03]","[ 2.1711036e-03  8.9390459e-04 -6.4396678e-04 ...  2.2202409e-03
  4.0424296e-05 -5.2432436e-04]","[-3.0334298e-03 -4.3392287e-05  1.2994802e-03 ... -2.7607388e-03
 -3.0671235e-03  4.3217032e-03]","[-0.00224002  0.00154805 -0.00506374 ... -0.00087448  0.00355593
 -0.00015484]","[ 0.00096235 -0.00023899 -0.00118306 ...  0.00209013 -0.00393074
 -0.00367759]","[-0.00244823  0.00286315 -0.00323724 ... -0.0004611   0.00044055
 -0.00137256]","[-0.00273407  0.00339418  0.00086363 ... -0.0012704  -0.00457063
 -0.00223162]","[ 0.00221793 -0.00453883 -0.0021812  ...  0.00093902 -0.00327701
 -0.00469127]","[-0.00347704  0.00178912 -0.00032564 ... -0.00322067  0.00199555
 -0.00028198]","[-0.00123751 -0.00033912  0.00036987 ...  0.00044026 -0.00013169
  0.00542906]","[ 3.4220732e-04 -2.5755954e-03  2.3955340e-03 ...  5.2628337e-05
 -2.7488142e-03  2.2743405e-03]","[ 3.9297822e-03 -4.3123821e-03  9.9002279e-04 ...  2.6191175e-03
 -1.7871369e-03  3.7803773e-05]","[ 0.0014524   0.00013869  0.00072679 ... -0.00016489  0.00098895
  0.00042739]","[ 0.00152803 -0.00140669 -0.00143291 ... -0.00263554  0.00215821
  0.00301344]","[ 0.00228969 -0.00026801 -0.00108662 ...  0.00071711  0.00200692
  0.00379577]","[ 0.00119028  0.00030492  0.00155863 ... -0.00159686  0.00025685
  0.00016823]","[ 0.00246795  0.00290758 -0.00028027 ... -0.00081863  0.00015719
 -0.00204137]","[-0.0012686   0.00068463 -0.00227575 ... -0.00128521 -0.00420074
  0.00271797]","[-0.00484    -0.0051363   0.00070693 ... -0.00146987 -0.00166592
  0.00188758]","[ 0.00020347 -0.00110902  0.00178655 ... -0.0016089   0.00077136
  0.00131298]","[ 0.00058905  0.00305367  0.00157079 ... -0.0008526  -0.00029166
  0.00165092]","[-0.00419143 -0.00181075 -0.00015062 ...  0.00044226  0.00314427
  0.00102687]","[-0.00036846 -0.00087101  0.00118909 ...  0.00073242 -0.00282526
  0.00422308]","[ 3.7645295e-04 -4.4415249e-03 -4.7414764e-04 ...  6.8054791e-04
 -1.7559025e-03  5.3680636e-05]","[-0.00422979 -0.00063767  0.00561222 ... -0.00555054  0.00060016
 -0.00423561]","[-1.4995664e-03  2.2189822e-03  1.6177972e-03 ... -2.3808037e-03
  3.0280517e-06 -2.1380067e-03]","[ 0.00284125 -0.00470879  0.00424398 ...  0.00034846 -0.00265588
  0.0029489 ]","[ 7.2872784e-04  6.6662571e-05 -1.2620905e-04 ...  7.9890573e-04
  2.8900332e-03  3.5596621e-04]","[ 0.00449265  0.00153526 -0.00173901 ...  0.00126201 -0.00219273
  0.00037861]","[-0.00404822  0.00079586  0.00106109 ... -0.00283386 -0.00082259
  0.00089813]","[-0.00072171  0.00114904 -0.00431014 ...  0.00167508  0.00243782
  0.00050212]","[ 2.7548745e-03  1.8835039e-03  3.1081512e-05 ...  3.6318449e-03
 -1.1742860e-03 -1.0813198e-03]","[ 1.5554932e-03 -2.2587045e-03  5.9440838e-05 ... -6.9928670e-04
 -3.0213436e-03  2.4198298e-03]","[-4.8538875e-03  7.3275086e-04  4.0961779e-03 ...  1.3138275e-03
 -3.1754949e-05 -1.8999586e-03]","[-0.00115873  0.00205124 -0.00151674 ... -0.00154821 -0.00189294
 -0.00153889]","[-0.00088125  0.00038559  0.0001105  ...  0.00186795  0.00374848
 -0.00236075]","[-0.00197287 -0.00020174  0.0006285  ... -0.00134404  0.00199636
 -0.00346768]","[ 0.00326041  0.0003545   0.00143097 ... -0.00299027 -0.00540802
  0.0030108 ]","[-0.00313975 -0.00071976 -0.00057443 ...  0.00181499  0.00510547
 -0.00296058]","[ 0.00181278 -0.00118441  0.00149534 ...  0.00043725  0.00086081
  0.00160869]","[-0.00094386 -0.0012442   0.00161024 ...  0.00036302 -0.00203849
 -0.00209088]","[-0.0018692  -0.00013767  0.00119029 ... -0.00038017  0.00059828
  0.00248922]","[-0.00075693  0.00026466  0.00054299 ...  0.0025598   0.000308
 -0.00235559]","[-0.00474873  0.00250957  0.00041949 ... -0.00066836  0.00030648
  0.00179049]","[-0.00158786 -0.00411894  0.00059504 ... -0.00264117 -0.00465209
  0.00052868]","[-0.00150326 -0.00016212 -0.00261763 ... -0.00406051  0.00115884
  0.00113498]","[ 3.0382208e-03 -1.0749003e-03 -3.2385742e-05 ... -1.2464308e-03
  9.5206313e-04  1.7233069e-04]","[-0.00224503 -0.00281235  0.00196044 ... -0.00042512 -0.00082486
 -0.00015241]","[-1.1255486e-03 -2.2029395e-03  1.4647397e-03 ...  2.2709062e-03
  3.9905201e-05 -8.0998486e-04]","[-3.2490978e-03 -2.7375841e-03 -1.6406919e-03 ... -7.5929325e-05
 -6.5114762e-04 -1.0430899e-03]","[ 0.00190145 -0.00026201  0.00159    ...  0.00266199 -0.0012371
 -0.00118384]","[-0.00142603 -0.00024161 -0.00134556 ... -0.00143247  0.00683013
 -0.00407297]","[-0.00028609 -0.00057299  0.0002885  ...  0.00059499 -0.00059773
 -0.00150026]","[-0.00066318 -0.00288785  0.00108509 ...  0.00338647  0.00051353
  0.00061191]","[ 0.00460013 -0.00057746 -0.00539672 ... -0.00084957 -0.00220905
 -0.00207439]","[ 4.6798671e-03  6.2008978e-05 -3.7521080e-03 ... -2.2322156e-03
 -3.1426125e-03 -2.2411027e-03]","[-0.00052683  0.001091   -0.00414983 ... -0.00061956  0.00019259
  0.00452877]","[-0.00237155  0.00222963 -0.00121689 ...  0.00235545 -0.00172884
  0.0026347 ]","[ 3.7615646e-05  6.2632619e-04  1.6419955e-04 ... -3.2298300e-05
  2.5299708e-03 -1.6575550e-03]","[-0.00279588  0.00158526 -0.00066047 ...  0.00339352 -0.00034683
  0.00190452]","[-0.0001478  -0.00332899 -0.00139901 ... -0.00028836 -0.00230538
  0.00201857]","[ 0.00232645 -0.00147223  0.00257311 ... -0.00508229  0.00095751
  0.00161508]","[ 0.00263197  0.0005617   0.00232776 ... -0.0020151  -0.00044061
 -0.00101916]","[-0.00024898 -0.00370691  0.00064648 ... -0.00050204 -0.00204075
 -0.00103433]","[-0.00064138  0.00457523  0.00373607 ... -0.00047246  0.00031456
  0.00220743]","[ 0.00526471  0.00269382 -0.00116393 ...  0.01123659 -0.00122471
  0.00042472]","[-0.00125371 -0.0012478  -0.00244382 ... -0.00232837  0.00364025
 -0.00205041]","[-0.00242732  0.00113906 -0.00028964 ...  0.00026286 -0.00044188
  0.00170689]","[-0.00150295  0.00206288 -0.00336664 ... -0.00368971 -0.00166747
  0.00352486]","[ 0.00020297 -0.00290008  0.00616814 ... -0.0051533   0.00135132
  0.00194083]","[-0.00122354  0.00316029 -0.00278519 ...  0.00235743  0.00327878
  0.00296648]","[ 0.00193887 -0.00403735 -0.00049041 ...  0.00366572  0.00045764
 -0.00240652]","[ 1.7998071e-03  4.8628516e-04  4.1381460e-05 ... -8.1962161e-04
  1.5822842e-03  2.8371580e-03]","[ 0.00221021 -0.00023917  0.00194658 ...  0.0001879   0.00161527
 -0.00022882]","[-0.00323244 -0.00277208  0.00358565 ... -0.00133655  0.00709263
  0.00262395]","[-0.00277457  0.00429464  0.00015776 ... -0.00250641 -0.00131396
  0.00083888]","[ 0.00315009  0.00272783  0.00096541 ...  0.00072819 -0.0014344
 -0.00151797]","[-0.00237531 -0.00268335 -0.00089106 ...  0.00282434  0.00064272
  0.0015168 ]","[-0.00251936 -0.00172086 -0.00308312 ...  0.00375694 -0.0012825
  0.00160768]","[-0.00144549 -0.00216257 -0.00110139 ...  0.00087111 -0.00076203
 -0.00215456]","[-1.3486401e-03  7.9001911e-04 -1.0375842e-03 ...  2.0481231e-04
  9.7197131e-05 -6.4097921e-04]","[ 0.00062571 -0.0008389  -0.00528233 ...  0.00421462 -0.000948
  0.00258119]","[ 0.00107435 -0.00419234 -0.00261337 ...  0.00205569  0.00636997
  0.00232108]","[ 0.00024855 -0.00327958 -0.00104647 ...  0.00193313 -0.0003698
 -0.00262124]","[ 0.00063624 -0.00034577 -0.00072632 ... -0.00123383  0.00137406
 -0.00059203]","[ 0.00087139 -0.00016709 -0.00510662 ... -0.00023563 -0.00246186
 -0.00239539]","[-0.0022116  -0.00474347 -0.00048709 ...  0.00103459 -0.00248285
 -0.00064121]","[-0.00228479  0.00458181  0.00028847 ... -0.00050044 -0.00504985
 -0.00491416]","[ 1.4854608e-03  2.0662451e-03  1.2604989e-03 ...  2.4923380e-05
  4.6211906e-04 -3.3198885e-04]","[ 0.00057548 -0.00122113 -0.00074967 ...  0.00196759  0.00281924
 -0.00291751]","[-0.0027639   0.00213319  0.00218041 ...  0.00101733 -0.00230165
 -0.00252745]","[-0.00274668  0.00365809  0.00043251 ... -0.00085953  0.00271398
  0.00104404]","[-0.00121515  0.00189076  0.00107889 ... -0.00219485  0.00166832
  0.00068232]","[-0.00136857  0.00219509 -0.00191367 ... -0.00056636 -0.00080889
  0.00066918]","[-2.9890798e-03 -1.7288788e-03 -1.9291063e-03 ...  1.7668527e-03
 -6.6912861e-04  8.1180267e-05]","[ 1.8149237e-03 -1.8633630e-03 -1.4084723e-03 ... -6.8544665e-05
 -1.8585210e-03 -3.7765880e-03]","[-0.00205983 -0.00231026 -0.0037482  ...  0.00343147 -0.00099764
 -0.00206915]","[ 0.00197769  0.00221333 -0.00183279 ...  0.00331019 -0.00016303
 -0.00054176]","[-0.00409662 -0.00129026  0.00342169 ... -0.00067694 -0.00349255
  0.00178158]","[-0.0015908  -0.00082879 -0.00222187 ...  0.00389129  0.00180972
  0.00089787]","[ 0.00429017 -0.00218893 -0.00070932 ... -0.00064935  0.00307268
  0.00171931]","[ 0.00055663 -0.00318134 -0.00150651 ... -0.00228229 -0.00370024
 -0.00070679]","[-0.00043986 -0.00272649  0.0027038  ...  0.00024128 -0.00134092
  0.00893715]","[ 0.00284037  0.00151189 -0.00327805 ...  0.0016205   0.0030169
 -0.00133596]","[-4.0429991e-04  4.1268831e-03 -1.3167772e-03 ...  2.9359244e-05
  1.1463359e-03 -1.4959397e-03]","[-0.00271861 -0.00221596 -0.00043514 ...  0.00011967 -0.00201292
  0.00348423]","[ 0.00107547 -0.00445254 -0.00139081 ... -0.00124926 -0.00224375
 -0.00025712]","[-0.00105093  0.00453659 -0.00390173 ...  0.00445079  0.00231932
  0.00027902]","[ 0.00228461  0.0018906  -0.00024405 ... -0.00101047  0.0034216
 -0.00325028]","[-0.00649572 -0.0028649   0.00559637 ... -0.00279009 -0.00299347
 -0.01019759]","[ 1.3288037e-03 -3.2678279e-05  1.1178472e-03 ... -2.8571151e-03
 -1.0284032e-03  2.8601412e-03]","[ 7.1008835e-04  1.2001664e-03  8.0825441e-05 ... -1.8333099e-03
 -6.7948888e-05 -1.6208871e-03]","[ 8.7559229e-04 -2.0488287e-05 -1.3666473e-03 ... -2.9323809e-04
  9.9650247e-04  1.3257955e-03]","[-0.0024618   0.00342526 -0.00233818 ... -0.00338076  0.00601239
 -0.00102637]","[-0.00489161 -0.00133804  0.00197094 ... -0.00197683 -0.00103952
 -0.00013696]","[-0.00025722 -0.00092741  0.00049401 ...  0.00107056 -0.00058745
  0.00335334]","[ 0.00283156  0.00125985  0.00671459 ... -0.00295119 -0.00047773
 -0.00131987]","[-0.00256641  0.00361948  0.00197091 ...  0.00063063  0.00090908
 -0.00083674]","[-5.2111498e-03 -1.8698071e-03  1.8890389e-05 ...  1.8162959e-03
  1.6268494e-03 -6.0201774e-04]","[ 0.00090637  0.00024528 -0.00265709 ...  0.00240145 -0.0030011
 -0.00091344]",[0.00422329 0.00046464 0.00155967 ... 0.00089779 0.00046775 0.00372995],"[-0.00121373  0.00016721 -0.00082226 ...  0.0021156   0.00120304
  0.00099465]","[ 0.00066752  0.00059428 -0.00313597 ...  0.00325634 -0.00128883
 -0.00340665]","[-0.00038732 -0.00389968  0.00438969 ... -0.00037755  0.00232882
  0.00387727]","[-1.1553814e-03 -6.7322073e-04  7.9301430e-04 ... -6.2307715e-04
 -3.4389072e-03  4.3212509e-05]","[-1.2905084e-03 -1.5440945e-03 -3.1775146e-04 ... -6.8916568e-05
  2.5864248e-03  7.6993206e-04]","[ 0.0014454  -0.00201176 -0.00154153 ...  0.00253068 -0.00010629
 -0.0015783 ]","[ 0.0036118  -0.0008376  -0.00330888 ... -0.00078535  0.00078974
  0.00431236]","[ 0.00196742 -0.00370469  0.00292737 ... -0.00012902 -0.00087325
  0.00481801]","[ 0.00062704  0.00679509  0.00260462 ... -0.00222094 -0.00013713
  0.00115448]","[-0.00088829 -0.00210923 -0.00342001 ...  0.00284266 -0.00156601
  0.00094906]","[-0.00316194 -0.00069951 -0.00050972 ...  0.00160017  0.00198393
  0.00169336]","[ 0.00304327  0.00098916  0.00112547 ... -0.00229502  0.00721395
 -0.00240249]","[-1.3783009e-03 -5.8771053e-04 -4.8781320e-04 ...  2.8706525e-04
  6.7758298e-04 -6.7891771e-05]","[-0.00296288  0.00196589  0.00032717 ...  0.00309231 -0.0005611
 -0.00051365]","[ 0.00294942  0.00413172  0.00140877 ...  0.00060058 -0.00194812
 -0.00211914]","[-1.5589051e-03 -2.2556933e-03  8.5059874e-05 ...  6.8004185e-04
 -1.6743038e-03  4.1228537e-03]","[ 0.00075484  0.00411876 -0.00408388 ... -0.00125727  0.00049963
  0.00157984]","[ 0.0017648   0.00207608 -0.00197736 ...  0.00551922 -0.00267858
  0.00127315]","[ 0.00161438 -0.00048301  0.00091777 ... -0.00015518  0.00152679
 -0.00156434]","[-0.00222444 -0.00271065 -0.00442513 ... -0.00117574 -0.00258651
  0.00185806]","[ 0.0025688  -0.00205844  0.00166331 ... -0.0009846   0.00066982
  0.00122423]","[-0.00093636 -0.00033776  0.00139433 ...  0.00158372  0.0028323
  0.00179111]","[-0.00038658  0.00176857  0.00125607 ... -0.00065558  0.0015157
  0.00149545]","[-0.00240562  0.00025878 -0.00225823 ...  0.00253945 -0.00153835
  0.00043787]","[-0.00163781 -0.00144025 -0.00111492 ...  0.00396939 -0.0014633
  0.00076823]","[ 0.0019671   0.0047411  -0.00071003 ...  0.00185321 -0.00041501
 -0.00012395]","[ 0.00039068 -0.0009125  -0.0028974  ...  0.00061863  0.00189197
  0.00126408]","[-0.00222194  0.00246388 -0.00024908 ... -0.00304711  0.00324483
  0.00027759]",[0.00353794 0.00210647 0.0001048  ... 0.00358812 0.0065191  0.00108994],"[-0.00096538  0.00207988  0.0023651  ...  0.000718    0.00242473
 -0.00440318]","[-0.00080652  0.00060436 -0.00184109 ...  0.00236398  0.00354235
  0.00067838]","[-0.0022822  -0.00010892 -0.0013276  ... -0.00309795 -0.00104487
 -0.00109299]","[-0.00033797 -0.0010739   0.00069502 ...  0.00010513 -0.00069821
  0.00125956]","[-0.00035957 -0.00035061 -0.00245359 ...  0.00092575  0.00299417
 -0.00024264]","[-0.00099562 -0.00096723  0.00329186 ... -0.00154316 -0.00184865
 -0.00461667]","[-0.00062502 -0.00053631  0.00052465 ...  0.00219419  0.0048757
 -0.00024975]","[-0.00138622 -0.00327526 -0.00270515 ...  0.00251605  0.00090112
  0.00461335]","[ 5.4435059e-03  5.7720533e-04 -2.3366550e-03 ... -3.6139553e-04
  1.9012983e-06 -2.9400147e-03]","[ 0.00106901 -0.00268487  0.00233464 ...  0.00229515 -0.00059641
 -0.00115539]","[-0.00085485 -0.00045984  0.00188994 ...  0.00070741  0.00129587
  0.00088282]","[-0.0007007  -0.00221403  0.0022525  ...  0.00339799 -0.00218729
 -0.0019295 ]","[ 1.1727324e-03  9.9474681e-05  1.8165325e-04 ... -1.8065097e-03
 -3.1308113e-03  2.2064282e-03]","[ 2.6570291e-03  6.1566767e-04  8.7140601e-05 ...  1.6839777e-03
  3.1125830e-03 -1.7630976e-03]","[ 0.00415447  0.0020565   0.00040945 ... -0.00033217 -0.00054114
 -0.00119996]","[-0.00125807  0.0012525  -0.00057318 ... -0.00272179 -0.000975
  0.00098766]","[-0.00197961  0.0017647  -0.0008045  ... -0.00011069  0.00368884
  0.00156926]","[-4.1921576e-04  3.7948322e-04  1.4873458e-03 ...  3.8856545e-03
 -1.9542729e-05 -9.6350862e-03]","[-0.00120581 -0.00248837  0.00147856 ...  0.00264455  0.00020983
 -0.00130601]","[-0.00229633  0.00285108  0.00292577 ...  0.00055407  0.0037487
  0.00455731]","[-5.6738371e-04 -3.5229055e-05 -2.3920079e-04 ... -2.6420053e-04
  8.6760585e-05  2.2113512e-03]","[ 0.00085876  0.00227296 -0.00364919 ...  0.00271604  0.00255891
 -0.00685771]","[-0.00319319 -0.00141398 -0.00057095 ...  0.0019241  -0.00126932
 -0.00089496]","[ 0.00470016 -0.00295847  0.00538239 ... -0.0016976  -0.00085581
 -0.00222694]","[ 0.00299529 -0.00084816 -0.00169019 ...  0.0020287  -0.0010285
 -0.00116389]","[-0.0022333  -0.00098088 -0.00098725 ... -0.00038405 -0.00111321
 -0.00082654]","[-0.00417942  0.00218787  0.00299468 ...  0.00255561 -0.00162804
  0.00106879]","[-0.00189788  0.0004942  -0.00114587 ...  0.00264048 -0.00074429
 -0.00349583]","[-0.00118344  0.00523099  0.00126137 ... -0.00089968  0.00019365
  0.00401329]","[-0.00063031 -0.00047085  0.00361989 ...  0.00259984 -0.00253679
 -0.00132234]","[ 4.9088178e-03  2.7909907e-04 -1.1869073e-03 ...  1.8056970e-03
 -5.8710007e-03 -2.4185762e-05]","[ 0.00029824 -0.0025564  -0.00017944 ... -0.00039806  0.00189634
 -0.00188289]","[ 0.00089436  0.00130608 -0.00063983 ...  0.00221819 -0.0035936
 -0.00110341]","[-0.00215067 -0.00188961  0.00178619 ... -0.00097885  0.0005788
 -0.00145053]","[ 0.00288903  0.00370566 -0.00040888 ... -0.00231798  0.00261565
 -0.00358449]","[ 1.0577526e-03  2.5423877e-03 -9.3616097e-04 ...  7.2963577e-04
  6.9268674e-05  6.9554180e-06]","[-0.00232917  0.00169403 -0.00175132 ... -0.00229519 -0.00366626
 -0.00046389]","[-0.00066176  0.00173185  0.00157515 ...  0.00244947 -0.00571284
 -0.00032494]","[ 4.0099662e-04 -3.6501707e-04 -6.0394403e-05 ... -1.6161973e-03
 -3.9013528e-04 -2.2209906e-03]","[-0.00124331  0.00534265 -0.00193796 ... -0.00045884  0.00249818
 -0.00308629]","[ 1.0476606e-03 -1.7994517e-03  9.3312154e-04 ... -2.8653701e-03
 -2.4296769e-05 -3.3978065e-03]","[-0.00291809 -0.00164621  0.00058841 ... -0.00266857 -0.00123499
 -0.00094346]","[-4.9233716e-03  2.9865010e-03 -5.1251648e-04 ... -1.2398941e-03
  5.6374407e-05 -2.6043048e-03]","[-0.0019952  -0.00517348  0.00014228 ...  0.00277915 -0.00181618
 -0.00013596]","[-0.00082843  0.00267534 -0.00106983 ... -0.00023019 -0.00146145
 -0.00201652]","[ 0.00010288  0.00269012 -0.00180622 ...  0.00237925  0.00381669
 -0.00169685]","[ 0.00142028 -0.0009371  -0.00032347 ...  0.00253063 -0.00157087
 -0.00549961]","[-0.00151544 -0.00506732  0.00075352 ... -0.00116717 -0.00289986
  0.00064585]","[-9.7316754e-04 -6.2595383e-04 -5.3824006e-05 ...  7.4754331e-05
  1.9782875e-03  8.3758816e-04]","[-0.0039278   0.0007303  -0.00457626 ... -0.00240402  0.00315773
  0.00080352]","[-1.8697669e-03  5.1465881e-04 -1.0265133e-03 ... -1.2890421e-03
  2.4102928e-04 -3.4732839e-05]","[-0.00222777  0.00293706 -0.0022348  ... -0.00119825  0.00055802
  0.00120877]","[ 0.00092134  0.00615141 -0.00118282 ... -0.00386184  0.00311544
  0.00467266]","[-2.4669196e-03 -2.2517620e-03 -5.9362090e-05 ...  6.7205401e-04
  2.5284363e-04 -4.5795925e-04]","[-0.00389179 -0.00220216  0.00230878 ... -0.00239522 -0.00241699
 -0.00225767]","[-6.4641674e-05  2.1363308e-03 -3.8758930e-04 ...  1.7137526e-03
 -4.7195738e-04 -2.9778860e-03]","[-4.7069271e-03 -7.0199778e-04  3.5896883e-03 ...  1.4064559e-05
  5.2711507e-04 -1.1703421e-03]","[ 1.0996852e-03 -1.2187963e-05  3.8317795e-04 ... -2.3948117e-03
  1.2809623e-03 -1.8891110e-03]","[-0.00298744  0.00164943  0.00037549 ...  0.00261095 -0.00430164
 -0.000285  ]","[-0.00044923 -0.00142153  0.00308626 ... -0.00078994  0.00227571
  0.00416424]","[-0.00126704  0.00018827 -0.00358845 ... -0.00425502  0.00362583
 -0.00032858]","[ 0.00076498  0.00103538 -0.00038147 ...  0.00104071  0.00224957
  0.00163072]","[ 1.0188574e-03  2.5194206e-03  1.6525729e-03 ...  4.0701348e-03
 -4.6570778e-05  3.9262297e-03]","[ 0.0008854   0.00076086 -0.00011882 ...  0.00187779  0.00313218
 -0.00101039]","[ 0.00101967 -0.00181261 -0.00024123 ... -0.0047361   0.00031789
 -0.00091223]","[-0.00178604 -0.00125541 -0.00033582 ...  0.00281894  0.00036319
  0.00304798]","[-0.0018209  -0.00423692 -0.00105291 ...  0.00098777 -0.0008574
 -0.00012462]","[-0.00268788 -0.00283183  0.00187126 ... -0.00356293  0.00088405
 -0.0013019 ]","[ 0.00043276 -0.00104738  0.00093616 ... -0.00268238 -0.00184694
 -0.00251975]","[ 8.3440694e-04  1.7961044e-03 -6.7347352e-04 ... -1.4002519e-03
 -1.5507178e-05  9.5555786e-04]","[-0.00195904 -0.00465336 -0.00545905 ... -0.00131171 -0.00207847
 -0.00456065]","[-0.00242781  0.00165419  0.00712906 ... -0.00061552 -0.00363774
 -0.00336162]","[ 1.7718171e-03  1.9669950e-03  6.4325531e-04 ... -4.5630371e-05
  4.0529445e-03  2.3214819e-03]","[-3.0266987e-03 -8.1095879e-04 -3.1215337e-03 ... -7.9753529e-04
  9.6340402e-04 -9.3535826e-05]","[-0.00262803  0.00070665 -0.00126242 ...  0.00345214  0.00106356
 -0.00167864]","[-0.00061773  0.0028409  -0.00249936 ... -0.00153099 -0.0030913
  0.00166267]","[ 0.00145325  0.00333141  0.00101962 ...  0.00166572  0.00107606
 -0.00081968]","[-0.0020273  -0.00473209  0.00230826 ... -0.00447381  0.00137359
 -0.00233553]","[-2.3939803e-03 -2.2288428e-03  6.6774391e-04 ...  9.0152076e-05
  6.4156461e-04 -3.7299076e-04]","[-0.000436   -0.00247842 -0.00129846 ... -0.000874   -0.00051466
  0.00317815]","[-0.00072564  0.00172433  0.00076159 ...  0.00171357  0.00078608
 -0.00151676]","[ 0.00074254  0.00269283  0.00098977 ...  0.00145583 -0.00118229
 -0.00165409]","[ 0.00163129 -0.00142743 -0.00041556 ... -0.00116501  0.00167808
  0.00480659]","[-3.3962752e-03 -6.4102722e-05 -3.3055546e-03 ...  1.4855032e-03
 -2.2319744e-03  3.3631403e-04]","[ 0.00190385  0.00218822  0.00102918 ... -0.00110559  0.00199459
  0.00636802]","[-0.00142165  0.00040929 -0.0007848  ...  0.00029087  0.00068933
 -0.00057581]","[ 0.00176973  0.00310452 -0.00067463 ...  0.00056263  0.00067525
 -0.00147705]","[ 0.00048034  0.0005245   0.00233118 ...  0.00036293 -0.00086513
  0.00050159]","[ 0.00248439  0.00090161 -0.00109266 ... -0.00056114 -0.00155054
 -0.00319423]","[-0.0030878  -0.00178397 -0.00036124 ... -0.00434094  0.00464926
  0.00128484]","[-0.00042771 -0.00119645  0.00285199 ... -0.00133822  0.00455528
  0.00182752]","[-0.00126212 -0.00149634  0.00087951 ... -0.00371283 -0.00116372
  0.00311153]","[ 2.4874895e-03 -2.1571598e-04  3.5272869e-03 ...  7.2456547e-04
 -3.7184518e-03 -9.8292141e-05]","[ 0.00091768 -0.00496872 -0.00200327 ...  0.00033074  0.00487462
  0.00119535]","[ 0.00170856 -0.00306221 -0.00192283 ... -0.00223234 -0.0026328
 -0.00340553]","[-0.00222348  0.00110423 -0.0010037  ...  0.00241038  0.00209509
  0.00239251]",[0.00086161 0.00189395 0.00076616 ... 0.00188202 0.00315652 0.00249308],"[-2.0001954e-03 -3.4567420e-04 -1.7466153e-03 ... -9.6340152e-04
  3.4222717e-03 -4.3662749e-05]","[-0.00038818 -0.00010349 -0.00057674 ... -0.00012664  0.00173329
 -0.00251112]","[ 0.000133   -0.00500982  0.0011211  ... -0.00028036 -0.00072464
 -0.00267393]","[-0.00330055 -0.00303305  0.00344281 ... -0.00201506  0.0050357
 -0.00208144]","[ 0.00244693  0.00038353 -0.00091504 ...  0.00088965 -0.00137809
  0.00165415]","[ 0.00021071  0.00104154 -0.00013117 ... -0.00047985 -0.00088049
 -0.00065621]","[ 0.00196621 -0.00310227  0.00315097 ... -0.00241098 -0.00036836
  0.00125448]","[-1.5164035e-03  2.6021344e-03  2.1913014e-03 ... -2.0702260e-03
 -2.8988353e-03  6.5674176e-05]","[-4.8742290e-03  1.2598987e-03 -2.7772790e-04 ... -8.8726883e-05
 -1.7394173e-03  1.2875614e-03]","[-6.3535105e-04  2.8869184e-03 -5.3332676e-03 ... -9.9509751e-05
  1.0941195e-05  9.8900090e-04]","[-0.00077585 -0.00076813  0.00062044 ...  0.00344223 -0.00149599
  0.00252917]","[-0.00040888 -0.00046162 -0.00083157 ...  0.00126587 -0.00057909
 -0.0001324 ]","[ 0.00147553 -0.00024443  0.00046799 ...  0.00105414  0.00212107
  0.00105768]","[ 0.0019267  -0.00371027 -0.00044573 ...  0.00042337  0.00213865
  0.00067595]","[ 0.00165095  0.00162928 -0.00088269 ... -0.00152246 -0.00231359
 -0.00341158]","[-0.00034556  0.00309544 -0.00416281 ... -0.00126403  0.0011055
