weights
"[ 0.00390148 -0.00180807  0.00136159 ...  0.00105189 -0.00583239
  0.001555  ]","[ 0.00535322 -0.00231539 -0.00361575 ... -0.00084153 -0.00155866
  0.00522027]","[-3.1340534e-03 -8.6071879e-05  2.8132410e-03 ...  2.3308401e-03
  4.5287302e-03 -6.2349276e-03]","[ 0.00570831 -0.0055001   0.00202798 ... -0.00765441 -0.00639407
  0.0010306 ]","[-0.00525735  0.00474368  0.00054232 ... -0.0044422  -0.00422303
 -0.00473069]","[-0.0052066  -0.00685794 -0.00199087 ... -0.00202085 -0.00430223
 -0.00029837]","[-0.00114319 -0.00199924  0.00805828 ...  0.00293242  0.00027558
  0.00335632]","[-0.00304953 -0.00591586 -0.00377755 ... -0.00427685  0.00151996
 -0.00514683]","[ 0.00351042  0.00217821  0.00438645 ... -0.00209953  0.0005864
 -0.0057429 ]","[-2.1447106e-03  3.0416908e-05  4.3565294e-04 ...  5.5470131e-03
  2.9660992e-03 -3.2263069e-04]","[-0.00298473  0.00492321 -0.00242026 ... -0.0014887   0.00337206
 -0.00137724]","[-0.00157309 -0.00189982 -0.00459559 ... -0.00236076  0.0021162
 -0.00139342]","[-0.0032151   0.001993    0.00059143 ...  0.00406528 -0.00224747
  0.00157407]","[ 0.00400306  0.00620397  0.00236256 ...  0.00444122  0.00478031
 -0.00074683]","[-0.00347782 -0.00147039 -0.00204732 ... -0.00273897  0.00033205
 -0.00049883]","[-0.00429539 -0.00193257 -0.00452773 ... -0.00344767  0.00591481
 -0.00373158]","[-0.00725808 -0.00342537  0.00255672 ...  0.00274672 -0.00960571
  0.00090995]","[-0.00452953  0.00278049 -0.00301856 ...  0.00918635  0.00195918
 -0.00165786]","[-0.00430261 -0.00030028 -0.00196446 ...  0.0030559  -0.00368495
  0.00501722]","[ 3.7073987e-03  2.8630229e-05  3.8820254e-03 ... -1.6617907e-03
 -2.2971912e-04 -6.4486177e-03]","[ 0.00601848 -0.00102438  0.00066315 ... -0.00140415  0.00069483
 -0.00383515]","[-0.01108385 -0.00330332 -0.00313713 ... -0.0035602   0.00187229
  0.00301724]","[-0.0022719  -0.00299542 -0.00686948 ... -0.00432568  0.00318441
  0.00797974]","[-0.00373363  0.00099979 -0.00251421 ...  0.00253522 -0.00141433
 -0.00493788]","[ 0.00261906  0.010467    0.00181911 ... -0.00217314 -0.00273689
 -0.00348016]","[ 0.00123601  0.00042605  0.00310796 ... -0.00128443 -0.00580545
  0.00396466]","[-0.00410377 -0.00247973  0.00228125 ... -0.00394648  0.00355381
  0.00104361]","[-0.00124382 -0.00111225 -0.00424511 ...  0.00490261  0.00453122
 -0.00114528]","[-2.8662668e-03 -5.5025718e-03 -4.5342793e-05 ...  6.1119734e-03
  1.1507784e-03  7.4265129e-03]","[-0.00197766 -0.00496988 -0.00666232 ... -0.00352764  0.00406502
 -0.00099252]","[-0.00131423 -0.00036247  0.00302357 ... -0.00820508 -0.00112826
  0.00054827]","[ 6.5449411e-03 -7.2918933e-06 -1.1554353e-02 ... -3.6299012e-03
 -2.3485643e-03  3.2285292e-04]","[-4.8148967e-03 -2.8264134e-03  3.6548544e-03 ... -5.3006406e-03
 -9.3052415e-03  4.4658832e-06]","[ 0.0024365   0.00387312 -0.00391417 ... -0.00642705 -0.00093644
 -0.0022084 ]","[ 0.00174632  0.00762904  0.0036395  ... -0.00622476  0.00200945
 -0.00429973]","[-0.00302079 -0.00288033 -0.00282482 ... -0.00263062  0.00212764
  0.00420729]","[-0.00435271 -0.00384912 -0.00476408 ...  0.00239485  0.00239029
  0.00029065]","[ 0.00383263  0.0011514  -0.00524085 ...  0.00384585 -0.00058476
 -0.0016309 ]","[ 0.00186778  0.00449313  0.00506774 ... -0.00602401  0.0002849
 -0.0056591 ]","[-0.00051701 -0.00594923 -0.00149797 ...  0.00448525  0.0088841
 -0.00510545]",[0.00633907 0.01453963 0.00156583 ... 0.00503731 0.0066021  0.00360222],"[ 0.00577623 -0.00448014 -0.00452915 ... -0.00047895 -0.00486681
  0.00190066]","[-0.00028195  0.0066567  -0.00280981 ...  0.00522216  0.00106786
  0.00049368]","[-0.00071095 -0.00098259 -0.00282729 ... -0.00154038 -0.00237319
 -0.00592736]","[-6.9229565e-05 -3.6309082e-03 -8.6693035e-05 ... -2.9541159e-03
 -1.6112577e-03  8.7905955e-03]","[ 0.00288031 -0.0061272   0.00130568 ... -0.00055831 -0.00051015
  0.01430398]","[ 0.00174875  0.00339226 -0.00332372 ...  0.00323405 -0.00623736
  0.00947128]","[-0.00496415  0.00441985 -0.00111338 ... -0.0005779  -0.00349485
 -0.00259798]","[ 0.00223024  0.00529188 -0.00181825 ...  0.0022255  -0.00269807
 -0.003774  ]","[-0.00424259  0.00670315 -0.00440377 ...  0.00870253  0.00192456
 -0.00479212]","[-0.00580904  0.00230967 -0.00310124 ...  0.00352773  0.00433908
 -0.00337929]","[-3.7850467e-03  5.4404396e-03 -2.9436550e-03 ...  2.7990295e-03
  9.6758659e-04 -9.0220259e-05]","[-0.00111113  0.00929273 -0.00044176 ... -0.00136702 -0.00022947
  0.00898495]","[-3.8954769e-03 -2.1257915e-03  3.6699364e-03 ... -9.4715499e-05
  1.6400475e-03 -2.3575153e-03]","[ 0.00694788  0.00293896  0.0008361  ... -0.00074078 -0.00187925
 -0.00361711]","[-0.00073328 -0.0043033   0.00097472 ...  0.00060041 -0.00548919
  0.0010213 ]","[-0.00486812  0.00417169 -0.000396   ... -0.00370511 -0.00230132
 -0.00721049]","[-0.00751291  0.0026187   0.00493281 ... -0.00172428 -0.00324303
 -0.00305073]","[-0.00257639  0.0040149   0.00268303 ... -0.00316514  0.00535301
 -0.00744031]","[-0.00104783 -0.00554951 -0.00526298 ... -0.00403351 -0.00985191
 -0.0017653 ]","[-0.00942445 -0.00592546  0.00215995 ...  0.00297835 -0.01006016
 -0.0040156 ]","[-0.00165861 -0.00564645 -0.00142245 ... -0.00495489 -0.00651499
 -0.00049232]","[-0.00565952 -0.00857245  0.00058869 ... -0.00208209  0.00894226
 -0.00310534]","[-0.00488223 -0.0067033   0.00286035 ... -0.00396396 -0.00063858
 -0.00315449]","[-0.00048854 -0.00472153 -0.00252266 ...  0.00104223 -0.0045998
 -0.00177995]","[ 0.0003555  -0.00422471 -0.00283108 ... -0.00126697  0.00141625
 -0.00697551]","[ 0.00191011 -0.00198246  0.00172145 ...  0.00257906 -0.00239243
  0.002609  ]","[-0.00075774 -0.00031963 -0.00052519 ...  0.00779024 -0.00158608
  0.00581049]","[-0.00461302  0.00932628 -0.00330613 ...  0.00136222  0.00110761
 -0.00171985]","[ 0.00216204 -0.00392716 -0.0055689  ...  0.00237842 -0.00183094
 -0.00784564]","[-0.00591037 -0.00245785  0.00050811 ...  0.00068206  0.00072028
 -0.00304639]","[-4.4437563e-03  1.2233975e-02  1.5362617e-05 ...  3.2349755e-03
  6.2845787e-04 -1.9164828e-03]","[ 0.00462737 -0.00387056  0.00030045 ... -0.00362283 -0.00258283
  0.00260427]","[-0.0030861  -0.00495737  0.00118284 ...  0.00330884  0.00864698
  0.00180129]","[-0.00666738 -0.00139037 -0.0015536  ...  0.00345136 -0.00794894
  0.00831163]","[-0.00353389  0.00101169 -0.00047687 ... -0.01200031 -0.00425919
 -0.00510172]","[ 0.00689466 -0.00435911  0.00663279 ...  0.00732187  0.00716702
 -0.00378674]","[-0.00085465 -0.00746369  0.00108978 ... -0.00407326 -0.00898424
 -0.00104575]","[ 0.00370676  0.00515146  0.00011891 ...  0.00047907 -0.00082605
  0.00491805]","[-0.00705884 -0.0061061  -0.00429685 ...  0.00145063 -0.00309582
 -0.00367851]","[ 1.5421177e-03 -4.4827359e-03 -2.4369628e-04 ...  1.2623370e-03
  4.6432811e-05  2.4756158e-04]","[-0.0003834  -0.00032454  0.01024599 ...  0.00231471  0.00974491
 -0.00503757]","[ 0.00690388  0.00517047 -0.011573   ... -0.00753927  0.00102627
  0.00144134]","[ 0.00019965 -0.00258289 -0.00182282 ... -0.00437195  0.00064594
 -0.00542214]","[ 0.00030886 -0.0047791   0.00727385 ...  0.00078688  0.00355346
 -0.00562091]","[-0.00548334  0.00118076  0.00331937 ... -0.00052198 -0.00315638
 -0.00222353]","[-0.0028819  -0.00219243  0.00184602 ... -0.01002994  0.00333886
 -0.00544062]","[ 0.00447044 -0.0108378  -0.00116633 ... -0.00065273  0.00045208
 -0.00208888]","[-0.00341764  0.00496146  0.00690634 ...  0.00728874  0.00181187
  0.00074349]","[-0.00382328  0.00622984  0.00246206 ... -0.00499338  0.00283321
 -0.00277387]","[ 0.00327612 -0.00697251 -0.00037848 ...  0.00593454 -0.00535243
  0.00079819]","[-0.00981812 -0.00612163  0.00072513 ... -0.00513347  0.0006645
  0.00070548]","[-0.00427718 -0.00172934 -0.00812808 ... -0.00263677  0.00395217
  0.00407462]",[0.00043629 0.00013661 0.00285292 ... 0.00408869 0.0033161  0.00319381],"[-0.00185733 -0.00534651 -0.00866554 ...  0.00090039  0.00194412
 -0.00640961]","[ 0.00465929  0.00512746 -0.00182404 ...  0.00284966  0.00013761
  0.00308259]","[ 0.00230847 -0.00191679  0.00385175 ...  0.00062656  0.0006177
 -0.00142875]","[ 0.00427056  0.00260573  0.00459548 ... -0.00620594 -0.00262455
  0.00194131]","[ 0.00232286 -0.00469045  0.00109912 ... -0.0007915   0.00199132
 -0.00977289]","[-0.00447781 -0.00407283  0.00205539 ...  0.00526107  0.00744006
 -0.00155258]","[-0.00644995  0.00476063  0.00664919 ... -0.00409698 -0.00417915
 -0.00734279]","[-0.00014605  0.00053547 -0.00724735 ... -0.00301498  0.00172867
  0.00044411]","[-0.0013698  -0.00115227 -0.00247884 ...  0.00065838 -0.00453531
 -0.00298132]","[ 0.00638967  0.00367939 -0.00643574 ... -0.00123122  0.00318131
 -0.00376116]","[ 0.00292214  0.00396695 -0.00240898 ... -0.00068828 -0.00173851
 -0.00273528]","[ 0.00918718  0.00279872 -0.00371989 ... -0.00385773  0.00444082
  0.00667883]","[ 1.7996178e-03 -7.6657982e-04  5.6414451e-03 ...  5.0129227e-05
 -1.9497278e-03 -6.7095261e-04]","[-0.00192226 -0.00160226  0.0044644  ...  0.01119409 -0.00130691
 -0.00505004]","[-0.00086256  0.01084168  0.00048672 ...  0.00062377  0.00455056
  0.00171451]","[-0.00821356 -0.00712779 -0.00412128 ...  0.00126392 -0.00423007
 -0.00648346]","[-0.004701   -0.01042592 -0.00287886 ... -0.00138458 -0.00176775
  0.00555675]","[-0.0038146  -0.00177527  0.00660644 ... -0.00463729  0.00211569
  0.00041135]","[-0.00676879 -0.00434283 -0.00084695 ...  0.00077814  0.00309235
  0.00667578]","[-0.00078458 -0.00614265 -0.00148747 ... -0.00557817  0.00602564
 -0.00354372]","[-0.00113689 -0.00267749  0.00814741 ...  0.00667769 -0.00501807
  0.00121078]","[ 0.00087319  0.00383046 -0.00039477 ...  0.0068485  -0.00098897
  0.00169852]","[-3.6442184e-03 -3.2970272e-03 -2.3750417e-04 ... -1.1470700e-03
 -9.5187941e-05  6.9872302e-04]","[-0.00371491  0.00203527  0.0019659  ... -0.00116316 -0.00075272
 -0.00420174]","[ 0.00928073 -0.00225148  0.00187836 ...  0.00190338  0.00244087
 -0.00022924]","[ 1.0040248e-02  1.1272795e-03 -2.8505663e-03 ... -9.8484285e-05
  1.5163671e-03 -5.2052811e-03]","[ 0.00121383  0.00119889  0.00207858 ... -0.00219638  0.00186031
 -0.00189476]","[-0.00381415 -0.00089026 -0.00693659 ... -0.000758    0.00388517
  0.00684164]","[ 0.00019017  0.00024201  0.00425745 ...  0.00287959  0.00370653
 -0.0033994 ]","[-0.00547533 -0.0073243   0.00977026 ... -0.00608406 -0.00099436
 -0.00489127]","[ 0.00649306  0.00185458 -0.00413051 ... -0.00497709 -0.00464219
  0.00722026]","[ 0.00348585  0.00336594  0.00324636 ... -0.00099248 -0.00281669
 -0.00353319]","[-2.6430832e-03  8.9142930e-05 -1.8639260e-03 ...  2.4553456e-03
  3.4627432e-03 -1.5354874e-03]","[ 0.00067057  0.00067353  0.0067991  ...  0.00656646 -0.00401179
 -0.00068528]","[-0.00079717 -0.00438328 -0.00765786 ... -0.00727085  0.00314162
  0.00040799]","[-0.00285231  0.00267714  0.0067056  ...  0.00188138 -0.00552239
 -0.0076678 ]","[-0.01194631  0.00025003 -0.00089051 ... -0.00108242 -0.00088729
  0.00599013]","[-0.00504853  0.00156909 -0.00170675 ... -0.0038912   0.0029698
 -0.00065256]","[ 0.00349741 -0.00328291 -0.0013915  ... -0.00135887 -0.00584801
 -0.00291154]","[-0.00080886  0.00070514 -0.00091725 ...  0.00290342  0.00104595
  0.00015098]","[ 0.00347329  0.00517809 -0.00365886 ... -0.00610718 -0.00338249
 -0.00180294]",[0.00047586 0.00710137 0.00308967 ... 0.00301702 0.00025538 0.00124658],"[-0.00534021  0.00660401  0.00472804 ... -0.00135145  0.01086247
 -0.00474962]","[-0.00733563 -0.00354697 -0.00163796 ...  0.00040727 -0.00635835
  0.00022692]","[-0.00804226  0.00496448 -0.00257446 ... -0.00509949 -0.00699484
 -0.00529481]","[-0.00150551 -0.01169048  0.00450818 ... -0.00224078 -0.00172415
  0.00472158]","[-0.00499126 -0.00213731  0.01054761 ...  0.00202847 -0.0056678
 -0.0020011 ]","[-1.3503029e-03  1.0774437e-03  2.4858443e-03 ...  1.0456663e-05
 -5.0539244e-03  1.5415148e-03]","[-0.00429911 -0.00330796 -0.00398021 ...  0.00449351 -0.00658484
 -0.00615565]","[-0.00068306 -0.00073203 -0.00052787 ... -0.00067451  0.00034192
 -0.00812043]","[ 0.00591422 -0.00048106 -0.00182154 ...  0.00919017  0.00626444
  0.00915417]","[-0.00515309 -0.00120929  0.00236719 ... -0.00038054 -0.00506122
 -0.00455379]","[ 0.00085435  0.00131783 -0.00111539 ... -0.00592708  0.00347936
 -0.00741906]","[ 0.00305193  0.0002294   0.00549928 ...  0.00284411  0.00424688
 -0.00212498]","[ 0.00630818 -0.0004218   0.00087261 ... -0.00498475  0.00811177
 -0.00480185]","[-0.00421608 -0.00598875 -0.00331164 ...  0.00065498 -0.00613865
 -0.00547656]","[-0.00262111  0.00308462 -0.00288054 ... -0.00096618  0.00243135
  0.00132849]","[-1.2939211e-03 -1.3646195e-03 -4.9537364e-03 ...  4.1101415e-05
 -3.9380132e-03  1.2680173e-02]","[ 0.004284    0.00671482  0.00309055 ...  0.00420019 -0.00044923
  0.00277816]","[-0.00547218  0.00461326 -0.00624229 ...  0.00095447 -0.00323664
  0.00151135]","[ 0.00739935  0.00887383 -0.00084483 ... -0.00499234 -0.00151619
  0.00677462]","[-0.00023769  0.00027292 -0.00134    ... -0.00076755  0.00056452
 -0.00115543]","[-0.00187663  0.00289498 -0.00085226 ...  0.0053624  -0.00585327
 -0.00060904]","[ 0.00750984 -0.0046469   0.00284109 ...  0.0067752  -0.0003969
  0.00148667]","[-0.00267613 -0.00264175 -0.007345   ... -0.00385664 -0.00011325
  0.00112085]","[ 8.7656481e-03  3.0564975e-03 -1.2875593e-03 ... -2.1111781e-03
  3.6218905e-06  5.8902602e-04]","[ 0.0075023  -0.00400303  0.00327945 ...  0.00673658 -0.00154963
  0.00323735]","[-0.00099988  0.00434905  0.00057709 ... -0.00801714 -0.00401983
 -0.0051082 ]","[-0.00375678 -0.00054936 -0.00500774 ...  0.00264716 -0.00080111
 -0.00416678]","[-0.00019804 -0.00418387  0.00059451 ...  0.00467748  0.0001962
 -0.00793387]","[ 0.00557948 -0.00050302  0.0076064  ... -0.00325389 -0.00423753
  0.00202247]","[ 0.00292336 -0.00267188  0.00087599 ...  0.00166671 -0.00570602
  0.00409942]","[ 2.8123783e-03  2.1165637e-03  2.8119290e-05 ... -1.0293553e-02
  1.5621749e-03 -6.0716840e-03]","[ 0.00127843 -0.00140291  0.00449504 ...  0.0004208  -0.00324195
 -0.00372686]","[-0.00053713 -0.00826685  0.00039307 ...  0.00653179  0.00113722
 -0.00110824]","[-0.00075856  0.00711752 -0.00326364 ... -0.00077331  0.00766889
  0.00053191]","[-0.00491543 -0.00955832  0.00462573 ... -0.0003035  -0.00448203
 -0.00045006]","[-4.0047351e-05  7.8038410e-03 -3.4881930e-03 ...  1.1159274e-03
  4.3380745e-03 -4.8512109e-03]","[ 0.0058541   0.00777729  0.00189428 ...  0.00734871  0.00769897
 -0.00295723]","[ 0.00373693 -0.00117214  0.0056073  ...  0.00197382 -0.00184651
  0.00249828]","[ 0.00477995 -0.00634099  0.00271536 ...  0.00089893 -0.00045876
  0.0013317 ]","[ 0.00679369 -0.00575523 -0.00020598 ... -0.00561697 -0.0035351
 -0.00272662]","[-0.00736603  0.00240144 -0.00604779 ... -0.00136189  0.00442868
  0.00055727]","[5.3595519e-03 6.8868860e-03 3.3066270e-03 ... 2.5563673e-03 5.1093930e-03
 9.8806820e-05]","[-0.00363987 -0.00431903 -0.00315932 ... -0.00646388 -0.00465946
  0.0009677 ]","[-5.1779593e-03  4.3731020e-03  1.8708443e-03 ...  6.4523802e-03
  5.2331076e-03 -6.2478022e-05]","[-0.00258217 -0.00505236  0.00379833 ... -0.00790514 -0.00418406
 -0.00478427]","[-0.00084462 -0.00787118 -0.00314651 ... -0.0018824   0.00893763
 -0.00395363]","[-3.2369043e-03  5.3983713e-05  8.4501756e-03 ... -9.2547955e-03
  7.7708685e-03 -4.0917993e-03]","[ 0.00563507  0.00166616  0.00025587 ... -0.00889948  0.00308143
 -0.0080888 ]","[-0.00424604  0.00189864  0.00367225 ...  0.00106609 -0.00215084
  0.00817674]","[-0.00260307 -0.00455785  0.00375    ... -0.00764803 -0.00228781
  0.00691891]","[-0.00111069 -0.00116997 -0.00304865 ... -0.00702286 -0.00112755
 -0.00427779]","[ 0.00171998  0.00514079  0.00205293 ... -0.00614495 -0.00581293
  0.00530864]","[ 0.00131755 -0.00410892 -0.00658671 ...  0.00186336  0.00268197
 -0.00161464]","[-1.7228826e-03 -7.8378012e-04 -6.1604828e-03 ... -7.3541969e-04
 -6.2355415e-05 -3.5872485e-03]","[-0.00092533  0.00030213 -0.00133974 ... -0.00370822  0.00237157
 -0.00553415]","[-0.00581842 -0.00521881  0.00225357 ... -0.00703608  0.0017892
 -0.00894009]","[-0.00035777 -0.00709933 -0.00053863 ...  0.00395377 -0.00432162
  0.00427164]","[-0.00212687  0.00771894  0.00211466 ...  0.0018386  -0.00184103
  0.00125784]","[-0.00011737 -0.00202719  0.00221261 ... -0.00343918 -0.00201112
  0.00430147]","[-0.00122394  0.00102774 -0.00230327 ...  0.00012877 -0.00637519
  0.00129473]","[ 0.00363455 -0.004102    0.00274047 ... -0.00899086  0.00125312
  0.00266049]","[-0.00743891  0.00125367  0.00352056 ...  0.00143933 -0.00184936
  0.00267181]","[-0.00138182  0.00390639  0.00334859 ...  0.00292048 -0.00456575
  0.00023584]","[-0.00651855  0.00523833 -0.00421208 ... -0.00685075 -0.00417046
  0.00725525]","[ 0.00079974 -0.00028137  0.0078231  ...  0.00246257 -0.0044583
 -0.0022113 ]","[ 0.00631229 -0.00038463 -0.00087358 ...  0.00109888  0.00897124
 -0.00100547]","[-0.00084533 -0.0027246   0.00125263 ...  0.00119562  0.00382016
  0.00212335]","[-0.00164055  0.00287302  0.00318521 ...  0.00712626  0.00335344
 -0.00208282]","[-0.00710648 -0.00576174 -0.00598326 ... -0.0031942   0.00611829
  0.00320688]","[-0.00206142  0.0032263  -0.00693142 ... -0.00076026 -0.00344238
 -0.00290153]","[ 0.00154666  0.00237965 -0.0109338  ...  0.00336574 -0.00116681
  0.00260603]","[-0.00553768 -0.00407391 -0.00710435 ... -0.00549511 -0.00022175
  0.00079362]","[-0.00273237 -0.00207682 -0.00182973 ... -0.00675148  0.00346535
  0.00022819]","[-0.00670135  0.00349311 -0.00563427 ...  0.00037033 -0.00167974
 -0.00486346]","[ 0.0053567  -0.00182264  0.00291239 ... -0.00240481 -0.00384992
  0.00381781]","[-0.00155137  0.00158618 -0.00157841 ... -0.00349247  0.00432841
  0.00883132]","[-0.0038288  -0.00487801  0.00161526 ... -0.00824919  0.00076814
  0.00404549]","[ 0.00777509  0.0010222  -0.00222079 ... -0.00279573 -0.00303659
 -0.00619031]","[-0.00060053 -0.00614007 -0.00600132 ... -0.00142466 -0.00973115
  0.00173462]","[-0.0003139   0.01600796 -0.00087683 ...  0.00189866  0.00298138
 -0.00022117]","[-0.00647191  0.0006991  -0.00171826 ...  0.00242877  0.00301152
 -0.00401398]","[ 0.00639993  0.00740082  0.00879816 ...  0.00552518 -0.00424422
  0.00265932]","[ 0.00566297 -0.00310441 -0.00434153 ...  0.00145727 -0.00339732
 -0.00060312]","[ 0.00232867  0.00467214 -0.0048476  ...  0.00587499  0.00176835
  0.00140922]","[-3.6439125e-03  1.5127898e-05  2.3525783e-03 ...  4.1258437e-04
 -3.5801544e-03  4.9032911e-04]","[-0.00199615 -0.00791623  0.00338586 ... -0.00508765 -0.00255301
 -0.00117369]","[-0.00297369  0.00483253 -0.00699298 ... -0.00518563  0.0014533
  0.00125624]","[ 0.0029197  -0.00048197  0.00035545 ...  0.00740735 -0.00246561
  0.00329828]","[-2.8487807e-03 -9.0805572e-03  5.6252268e-04 ...  1.6486173e-03
 -3.3939190e-03 -4.9089260e-05]","[ 0.00121435 -0.00302507 -0.00059607 ... -0.00367408  0.01134908
 -0.00089813]","[-8.8575687e-03 -6.3028429e-03 -1.3962961e-02 ... -4.9215946e-03
  3.3468455e-03 -5.9102267e-06]","[ 0.00489854 -0.00215662  0.00104817 ... -0.00193635 -0.00621445
 -0.00887616]","[-0.00127501  0.00040928  0.00651557 ...  0.00508056  0.00932312
 -0.001336  ]","[ 6.5071378e-03 -3.7209340e-03  3.2034144e-03 ... -1.7604654e-03
  2.8031091e-03 -8.9513975e-05]","[-0.00694479 -0.00478234 -0.00515128 ... -0.00628929 -0.00459162
  0.00700467]","[-0.00319138 -0.00407363  0.00436847 ... -0.00301123 -0.00426333
 -0.00464122]","[ 0.00226508  0.00370814  0.00566822 ... -0.00279346 -0.00299228
  0.00345583]","[-0.0043061  -0.00492593 -0.00127104 ...  0.00374736 -0.00168249
  0.00200741]","[ 0.0015046  -0.00672972  0.00246916 ... -0.0060184  -0.00255638
 -0.00411336]","[ 0.00026775 -0.00252123 -0.00074652 ... -0.00310679 -0.00878941
 -0.00567895]","[-0.00522771  0.00011108  0.0060289  ... -0.00614912 -0.00294494
 -0.00365094]","[ 0.00156002  0.00191818  0.00273832 ... -0.00705061  0.00630878
 -0.00507472]","[ 0.00065013 -0.00742543 -0.00413547 ... -0.00016864 -0.0038744
 -0.00277135]","[ 0.0044242  -0.00378775 -0.00154436 ...  0.00184944 -0.00029816
  0.01316651]","[-0.00459419 -0.0066272  -0.00125376 ...  0.00343968  0.00343482
 -0.00299652]","[-1.2680502e-03 -3.0610950e-03  4.3754173e-03 ...  7.9495956e-05
  5.8564297e-03  1.9661728e-03]","[-1.9122020e-03 -6.9206534e-04  2.0249819e-03 ...  8.4137733e-05
 -2.4498322e-03  6.3277874e-03]","[ 0.00298547  0.00163956  0.01239276 ...  0.00300565  0.00511177
 -0.00194587]","[-0.00647264 -0.00569409 -0.00640666 ... -0.00054065 -0.00263341
 -0.00752724]","[-0.00477636 -0.0011908   0.00443064 ...  0.00260799  0.00246524
  0.00559905]","[-0.00309172 -0.00830957 -0.00749762 ... -0.00081735 -0.00235293
  0.00518607]","[ 0.00451702 -0.00531603 -0.00187712 ... -0.00181206  0.00357764
 -0.00471221]","[ 0.00369428  0.00925254 -0.00602703 ... -0.00119059 -0.00071263
  0.00784339]","[ 0.005293    0.0035331   0.00137169 ...  0.00144518 -0.00337267
  0.00858114]","[ 0.00047454 -0.0030362  -0.00609618 ...  0.00580375 -0.00819586
  0.00335915]","[-0.00057172 -0.00535764 -0.00052011 ... -0.00965892  0.00019352
  0.00029571]","[ 0.00488446 -0.00330232 -0.00667028 ... -0.00041729 -0.00070525
 -0.00271652]","[-0.00633358 -0.00735687 -0.00318435 ...  0.00747053  0.00280836
  0.00023639]","[ 0.00300714  0.00115767 -0.00664373 ... -0.00022848 -0.00374867
 -0.00126156]","[ 0.00226029  0.00847717  0.00522999 ...  0.00200636  0.01030085
 -0.00437993]","[-0.00544839  0.00267692 -0.00261017 ... -0.00365497 -0.00038142
 -0.0016932 ]","[-0.00368868  0.00719956 -0.00669276 ... -0.0005047   0.00348956
  0.00138468]","[ 0.00238675 -0.00417044  0.00343619 ...  0.00750042  0.00011708
 -0.0034817 ]","[-5.3485278e-03  9.3299284e-04 -9.0319635e-03 ... -3.7721598e-03
  2.1396999e-03  1.1128012e-05]","[-0.00212203  0.0010363   0.00056798 ... -0.00858673 -0.00047419
 -0.00086063]","[-0.00198832 -0.00414059  0.00581934 ... -0.00226496  0.00644174
 -0.00291508]","[ 0.00164381 -0.00555637 -0.00280854 ... -0.00156671 -0.00298785
  0.00277717]","[-0.00412796  0.00581574  0.00088549 ... -0.00359428  0.00456872
 -0.00279648]","[ 0.00075425  0.00955282  0.0032644  ...  0.00071064 -0.00016168
 -0.00757047]","[ 7.1105077e-03  2.1120829e-03 -7.1414397e-05 ...  8.7494524e-03
  4.5311856e-04 -1.5473855e-03]","[-0.00427452 -0.0015452  -0.00461461 ... -0.00257041 -0.0038803
  0.00446694]","[ 0.00055582  0.00530599 -0.00270896 ...  0.00269563  0.00334712
 -0.00146288]","[-0.00498241 -0.00194533 -0.00093902 ... -0.00284943 -0.00140375
 -0.00132131]","[-0.00160624 -0.00500018 -0.00382768 ...  0.00287892 -0.00408599
  0.00016246]","[-0.00450941 -0.00513652  0.00565982 ...  0.00366128  0.00369662
 -0.00962013]","[-4.0457919e-03 -2.9535827e-03 -1.0194130e-03 ...  6.0115297e-05
 -7.9140207e-03  9.9878870e-03]","[-0.00910266  0.00085056 -0.00247969 ...  0.00158193 -0.00139507
 -0.00327122]","[ 0.00297545 -0.00388184 -0.00222694 ... -0.00231207  0.00626132
 -0.00358016]","[-0.00140141 -0.00065861 -0.00652346 ...  0.00481173 -0.01026892
 -0.00777116]","[-0.00565084 -0.00217006  0.00115059 ...  0.00878291 -0.00420306
  0.00029809]","[-0.0019675   0.0012616  -0.00675878 ...  0.00399889  0.00077949
 -0.00042705]","[ 0.00423197  0.00262875  0.00365594 ...  0.00450112 -0.00305381
  0.00052851]","[-0.00294149  0.00162925  0.00685788 ... -0.00317756 -0.00296172
  0.00698084]","[ 0.0030401  -0.00381833  0.00108614 ... -0.00094939 -0.00473538
  0.00381041]","[ 0.00163895  0.00269059 -0.00408881 ... -0.00507086  0.00464357
  0.00696816]","[ 2.5625128e-05  5.8829039e-05  3.0609888e-03 ... -6.9906632e-03
 -1.1077488e-03 -1.9446441e-03]","[ 2.42176559e-03 -2.84699257e-03 -4.09962377e-05 ... -8.29286501e-03
 -1.02290005e-05  6.74300548e-03]","[-0.00928604  0.00281376 -0.01115204 ...  0.00176668 -0.00626571
  0.0029927 ]","[ 0.00334108 -0.00308274  0.00587868 ... -0.00518245 -0.00195046
  0.00530953]","[-0.00357241  0.00263742 -0.0002646  ... -0.00316729 -0.00084119
 -0.00153193]","[ 0.00335449 -0.00592249  0.00374118 ...  0.00176493 -0.00405415
 -0.01134412]","[ 0.00015865 -0.00288125  0.00040795 ...  0.00820864  0.00300999
  0.00231065]","[-0.00130352 -0.00310265 -0.00229625 ... -0.00376563 -0.00049897
  0.0040316 ]","[ 0.00119795  0.01273184  0.00817722 ...  0.00545202  0.00294766
 -0.00298193]","[-0.00037463  0.00947985 -0.00130967 ... -0.00539838  0.00616507
 -0.00047507]","[-0.00158795  0.00419843 -0.00377107 ...  0.00774314  0.00199976
 -0.00122528]","[ 0.00187488 -0.00040539  0.00188522 ... -0.00340383 -0.00278912
  0.0014529 ]","[-6.0715131e-03  3.5873784e-06 -1.1889895e-03 ... -3.3209301e-03
 -6.6882661e-03  2.1366489e-03]","[-0.00455178  0.00422563 -0.00584521 ...  0.00165947  0.00293748
 -0.00074367]","[ 0.0018753   0.00359412 -0.00142207 ...  0.00852884  0.00010224
  0.00378576]","[ 0.00137425  0.00132005 -0.00526485 ...  0.00150211  0.01006912
 -0.00077859]","[-0.00122973 -0.0054434   0.00193645 ... -0.00339072  0.00041554
 -0.00678389]","[ 0.00546832 -0.00101044 -0.00469473 ...  0.0048242   0.00069734
  0.00483442]","[-0.00302694  0.00518351  0.00109779 ...  0.00114496  0.00241334
 -0.01325394]","[-2.5011893e-04  9.6128095e-04  1.3926177e-03 ...  6.3806248e-04
  5.0680824e-03  8.7278513e-06]","[-0.00094538  0.00562207 -0.0001386  ... -0.00154007  0.0023333
 -0.00128734]","[-0.00246261  0.00174757 -0.003167   ...  0.00494681 -0.00034026
 -0.00097772]","[-0.00502692 -0.00159031 -0.00621285 ... -0.00308342  0.00692411
  0.00235883]","[-0.00272954 -0.00453847 -0.00588238 ... -0.00546411 -0.00427493
  0.00790887]","[-0.00261123 -0.00158113 -0.00233278 ...  0.00290171 -0.0057603
 -0.0010413 ]","[-0.0039251  -0.00150259  0.0045921  ... -0.0033636   0.00567955
 -0.00821774]","[-0.00054836 -0.00237936 -0.00366327 ... -0.00559444 -0.0035414
 -0.00256576]","[-0.00337988  0.0024261  -0.00934097 ...  0.00111549  0.00055965
 -0.00160151]","[ 0.00567867  0.00059077 -0.00102843 ... -0.00618254 -0.00432332
  0.00728831]","[-0.00382409  0.00634921  0.00187269 ...  0.00991557  0.00105355
 -0.00331357]","[-0.00077811 -0.00195673  0.00218372 ...  0.00195944  0.00525409
  0.00697852]","[ 0.00528723  0.0068729   0.00869973 ...  0.00646477  0.00608314
 -0.00230372]","[-0.00577921  0.00019099 -0.00168853 ... -0.0096323  -0.00108901
  0.00109273]","[-0.00237677 -0.00370707 -0.00077872 ...  0.00010593  0.00644736
  0.00386486]","[-0.00447476 -0.00119307 -0.00738868 ...  0.00190975 -0.00714723
 -0.00424663]","[ 0.00129854 -0.00469252  0.00033779 ...  0.00282006 -0.00476467
 -0.004825  ]","[-0.00266353 -0.00456385  0.00400805 ...  0.00091136 -0.00270545
  0.00014115]","[ 0.00239087  0.00937782 -0.00215875 ... -0.00820276 -0.00350849
 -0.00132129]","[ 0.00018062 -0.00130803 -0.00411414 ... -0.00311081  0.00528385
 -0.0049288 ]","[-0.00295148  0.0061427   0.00255714 ... -0.00330437  0.00574847
  0.00339799]","[-0.00213297  0.00019318  0.00076057 ... -0.0018225   0.00087225
 -0.00580836]","[ 0.00142842  0.00619643  0.00108257 ... -0.00467369 -0.00066555
 -0.00500443]","[-0.00062745 -0.00160589  0.00457152 ...  0.00488291 -0.00040539
  0.00044382]","[ 0.0017341  -0.00498259  0.00092209 ...  0.0028972  -0.00388378
 -0.00301985]","[-0.00120957  0.00297437 -0.00450232 ... -0.00781751  0.00163195
 -0.00120854]","[-0.00558651  0.00590341  0.00476649 ...  0.00141278 -0.00069238
  0.00080173]","[ 0.0080428  -0.00117783 -0.00279865 ...  0.00791737  0.0020757
  0.00559401]","[-0.00191204 -0.00158689 -0.00367435 ... -0.01069631 -0.00452169
 -0.00021659]","[-0.00489445  0.00461506 -0.00422051 ... -0.00718384 -0.00171818
 -0.00469159]","[-0.00175729  0.00583784 -0.0027011  ...  0.00722182 -0.00252596
  0.00435299]","[ 0.00596483  0.00306333 -0.00128289 ... -0.00285993  0.00232615
 -0.00513962]","[-0.00532854 -0.00422245 -0.00161795 ... -0.01252323 -0.00502371
  0.00438703]","[ 0.00405844 -0.00170016 -0.00748081 ... -0.00161975 -0.00485544
  0.01045109]","[ 0.00499821  0.00190349 -0.00329413 ...  0.00382236 -0.00376471
 -0.00530809]","[-0.00165248 -0.00122709  0.00213284 ...  0.00200612  0.00370244
  0.0013814 ]","[ 0.00384701  0.00911784  0.00472593 ... -0.00066307 -0.00553881
  0.00088197]","[ 0.00326208 -0.00213775  0.00909188 ...  0.00257045  0.00194477
 -0.00279047]","[-0.00221057 -0.00140026  0.00054304 ...  0.0006933  -0.00409541
  0.00149964]","[-0.00049183  0.00076533 -0.0015991  ... -0.00012698 -0.00382984
  0.00338452]","[-0.00269747 -0.000998    0.00499407 ... -0.00108088 -0.000875
  0.00498786]","[ 0.00374642 -0.00605244 -0.00421885 ... -0.00334599  0.00427644
 -0.00229577]","[ 0.00780006 -0.00450139  0.0030302  ...  0.00612919 -0.00020775
  0.00546868]","[-0.00577552 -0.00707363 -0.00229485 ... -0.01187039 -0.00304911
  0.0004934 ]","[-0.00277521 -0.00267814 -0.00090633 ... -0.00647798 -0.0079507
 -0.00089114]","[ 0.00066242 -0.00290919 -0.0005005  ... -0.00472522  0.00199396
  0.00476675]","[-0.00124185 -0.00529385 -0.00043996 ... -0.00768166 -0.0026142
 -0.00499987]","[-0.0016409  -0.00195992 -0.00349426 ...  0.00237816 -0.00272974
 -0.00578545]","[-0.00277314  0.0058334   0.00272057 ...  0.00312718 -0.00357089
  0.00383105]","[4.4943173e-03 7.6480187e-03 7.6075725e-04 ... 2.3166148e-03 3.6791134e-05
 4.8986818e-03]","[-0.00249517  0.00903349 -0.00815881 ... -0.00496965 -0.00217874
 -0.00599067]","[ 0.00045878 -0.00171547 -0.00886368 ... -0.00055106 -0.00130183
 -0.00066426]","[ 0.00017472  0.00197872  0.00148386 ...  0.00124225 -0.00810482
  0.00381039]","[-0.00618607 -0.00871488 -0.00091159 ... -0.00648683  0.00191233
 -0.001964  ]","[ 0.00534249 -0.00462014 -0.00303159 ...  0.00048701 -0.0075148
 -0.00085441]","[-0.00447428  0.00161641  0.00354345 ... -0.00237123 -0.00081465
 -0.00534845]","[-0.0018121   0.00310274  0.00187048 ...  0.00438906  0.00363716
 -0.00500308]","[ 3.1954776e-05 -4.0117102e-03 -6.6368813e-03 ... -1.6369254e-03
  3.3325288e-03  6.0960336e-04]","[ 0.00099043 -0.00241269 -0.00369115 ...  0.0015133   0.00097887
 -0.00133647]","[ 0.00157336  0.00418986 -0.00091605 ... -0.00130704 -0.00201423
  0.0052112 ]","[-1.1572274e-03 -4.7631050e-03 -1.0994375e-03 ... -8.1484029e-03
 -6.5456529e-04  6.9572925e-05]","[-0.00722667  0.00341267 -0.00371554 ... -0.00050386 -0.00286133
  0.00297512]","[ 0.00237452 -0.00161975 -0.00016723 ...  0.00297627 -0.00291957
  0.00370955]","[ 0.00108337  0.00351629  0.00419652 ...  0.00510668 -0.00545598
  0.00124497]","[-0.0047493   0.00163682 -0.00550209 ...  0.00553429  0.00078501
 -0.0098891 ]","[ 5.9893900e-03 -4.2364858e-03 -6.9801533e-03 ... -6.4323484e-03
 -4.9329344e-03 -3.5779591e-05]","[-0.00272104  0.00300125  0.00133451 ...  0.00224684  0.00301203
  0.00261975]","[ 0.0020712   0.00132669 -0.00185691 ...  0.00465287 -0.00786737
 -0.00110121]","[-3.8080947e-05 -6.4314571e-03 -6.6882843e-04 ...  3.0880002e-04
  7.1584750e-03 -6.3119002e-04]","[-0.00580458  0.00362851  0.00161141 ...  0.00202901  0.00049919
 -0.00958803]","[ 5.2842160e-04 -6.2561105e-04 -1.5874000e-04 ... -7.0989598e-05
  1.6067416e-03 -3.4780891e-03]","[ 6.5408167e-03 -5.5693523e-03 -4.4502140e-05 ...  2.7834265e-03
 -1.1349360e-03 -5.2958783e-03]","[ 0.00208843 -0.00764209  0.00540868 ... -0.00112808 -0.00205662
 -0.00135146]","[-0.00155705 -0.01101967 -0.0003143  ...  0.00266364 -0.00830342
  0.00346758]","[ 0.00136682 -0.00553667  0.00430045 ...  0.00482636  0.003742
 -0.00498393]","[-0.00241005  0.00398499  0.00285632 ... -0.00459241 -0.00481832
 -0.00019325]","[-0.00360158 -0.00410129 -0.00557112 ...  0.00949366 -0.00708765
 -0.00134654]","[-0.00633344 -0.00236279  0.00623284 ...  0.00140802 -0.00191287
  0.00215663]","[ 0.00674151 -0.00767786  0.00301564 ... -0.00114165  0.00797234
 -0.00256892]","[ 0.0005382  -0.00572983  0.00794432 ...  0.00430642 -0.00084385
 -0.00210429]","[ 0.00645668 -0.00316749  0.00146154 ...  0.00431094 -0.00667206
  0.00412857]","[-0.00558346  0.00139502 -0.0079762  ...  0.00178843 -0.00530861
  0.00168583]","[ 0.00313744 -0.00487956 -0.00517032 ... -0.00128272 -0.00325308
 -0.0053535 ]","[-0.00450691  0.00101777  0.00454237 ... -0.00540402  0.00057337
 -0.0016693 ]","[ 0.00288021  0.00033889 -0.00419096 ... -0.00275431 -0.00218158
 -0.0073875 ]","[ 0.00246642  0.00246959 -0.00528509 ...  0.00272306  0.0048897
  0.00057297]","[ 0.00098233  0.00432321 -0.00304821 ...  0.00166813 -0.00072071
 -0.00670556]","[-0.00648983  0.00933839  0.00223253 ...  0.00375845 -0.0100728
  0.00349914]","[ 0.00698839  0.00442181 -0.00657109 ...  0.0006254   0.00050868
  0.0036748 ]","[-0.00088229  0.00517769 -0.00224619 ... -0.00021682 -0.00624672
 -0.00060677]","[ 3.8550633e-03 -4.1096313e-03 -2.8554986e-03 ... -5.2495434e-05
  6.2883116e-04  2.0647573e-03]","[-0.00296453  0.0044163  -0.00380028 ...  0.0023188   0.00541483
 -0.00095789]","[-0.00763709 -0.00524134 -0.004974   ...  0.00216646  0.00202205
 -0.00678112]","[-4.4688340e-03  1.4938336e-03 -7.9948863e-05 ...  4.9340460e-03
 -1.2082073e-03 -1.0787969e-03]","[ 0.001512    0.00033397  0.00323511 ... -0.00141117 -0.00601542
 -0.0049963 ]","[-0.00394859 -0.00519667  0.00158472 ...  0.00071808 -0.00528498
  0.00642292]","[ 0.00350372  0.00551466  0.0002248  ... -0.00303595 -0.00427884
 -0.00188738]","[ 0.00723798 -0.00559578 -0.00308166 ... -0.00285716 -0.00202978
 -0.0006595 ]",[0.00239665 0.00237642 0.00899481 ... 0.00263423 0.00621574 0.00223869],"[ 0.00416401  0.00654399 -0.00173817 ... -0.00409056  0.0053274
 -0.00263385]","[ 0.00235474 -0.00055856  0.00745632 ...  0.0009722  -0.0005027
 -0.00068358]","[-0.00510032  0.00209573  0.00573035 ...  0.00227954 -0.00480359
  0.00063088]","[-0.00272303  0.00388375 -0.0027295  ... -0.00481649 -0.00718337
 -0.00443459]","[-0.00371112 -0.00397252 -0.00506668 ... -0.00559399 -0.00121967
  0.0065    ]","[-3.1740596e-03 -5.6139828e-04 -1.0017713e-02 ...  7.7813016e-03
 -6.1558574e-05  2.8262176e-03]","[-0.00362629  0.00093122  0.00416441 ... -0.00237526  0.00158185
  0.00397991]","[ 0.00144849 -0.00369961 -0.00207041 ... -0.00100774 -0.00587413
 -0.0037666 ]",[0.00236388 0.0055213  0.01259479 ... 0.00098903 0.00085083 0.00188099],"[ 5.9302081e-03  6.0050013e-03 -3.3900604e-04 ... -8.2411699e-04
 -4.2421878e-05 -2.1323303e-03]","[-3.4823969e-03  1.7893944e-03 -2.5849524e-03 ... -5.4786992e-03
 -5.1656282e-03 -2.4952209e-05]","[ 0.00440478  0.00091511 -0.01081569 ... -0.00031092 -0.0003262
  0.00211272]","[ 0.00189246  0.00201324 -0.00524837 ...  0.00257242  0.00216914
 -0.00608669]","[-0.00318776  0.00293437 -0.00252288 ... -0.00135452  0.00227532
 -0.00386882]","[-0.00058355  0.00133095 -0.00590214 ... -0.00194346 -0.00263261
 -0.00370703]","[-0.00544505  0.00086856  0.00777651 ...  0.00670218  0.00089853
 -0.00401229]","[-0.00252584 -0.00663349 -0.00050491 ... -0.00076217 -0.00403388
  0.00153719]","[ 0.00390886 -0.00246935 -0.00279647 ... -0.00167038  0.00118618
 -0.00778594]","[ 0.00214497  0.00380545  0.00686098 ... -0.00321682 -0.00787234
 -0.00561352]","[-0.00185271  0.00357004  0.0063181  ... -0.0014072  -0.00164732
 -0.00433474]","[-0.00174228 -0.00184059 -0.0030286  ...  0.00552517 -0.0022886
 -0.00450046]","[ 0.0037345  -0.00105755  0.00248353 ...  0.00501767  0.00386627
 -0.00232173]","[-0.00296119  0.0043923  -0.01067753 ... -0.00163661 -0.00111003
 -0.00524805]","[-1.6236604e-03 -1.3477852e-03  1.0643882e-03 ... -4.3088463e-03
 -4.5181958e-05 -1.1429930e-03]","[ 0.00236063 -0.00528383 -0.00050639 ...  0.00759007  0.00050128
  0.00162804]","[ 0.00158143 -0.00213144  0.0055507  ...  0.00073502  0.00049383
 -0.00377038]","[ 0.00313625 -0.0004282  -0.00493583 ... -0.0070539   0.00345332
  0.00311777]","[-0.00554732 -0.00478415  0.00563949 ...  0.00145327 -0.00015516
  0.00392842]","[ 0.00940388 -0.00371711 -0.00236217 ... -0.00461811  0.00261076
  0.00437377]","[-0.00161061 -0.00899857 -0.00163694 ...  0.00105702  0.00228615
  0.00277927]","[ 6.8306268e-05  1.4035603e-04  5.3553893e-03 ...  1.4523317e-03
 -4.8121344e-03  6.3920356e-03]","[ 0.00207845  0.00075195 -0.00075683 ... -0.00170499 -0.0022983
  0.00056308]","[ 0.00299603 -0.01203621 -0.00021995 ... -0.00262664 -0.00212801
 -0.00549562]","[-8.4683578e-04 -1.4799401e-05  8.5027255e-03 ...  5.9614987e-03
 -1.1838061e-03  2.0141830e-03]","[ 0.00162766  0.00420116  0.00019639 ... -0.00698462 -0.00667792
  0.00185915]","[-3.6467302e-03 -5.2981335e-03 -6.8439990e-03 ... -6.4067915e-04
 -5.4784459e-03 -2.8848672e-06]","[-0.00079141 -0.00052238 -0.01037793 ...  0.00300962 -0.00429688
 -0.00295261]","[ 0.00598383  0.00335388 -0.0010043  ...  0.00171064 -0.00011476
  0.0024051 ]","[-0.00543323  0.00642184  0.00279863 ...  0.00599608  0.00344016
 -0.00129268]","[ 0.00192382 -0.00031835 -0.00955975 ...  0.00397385 -0.00081667
  0.00189708]","[-0.00432581 -0.00212088 -0.00151661 ... -0.00210597  0.00650519
 -0.00295887]","[-0.00385944 -0.00471291  0.0008111  ... -0.00030741  0.00597158
 -0.00975524]","[-0.00412848 -0.0016169  -0.00105282 ... -0.00319819 -0.00277541
  0.00644867]","[-0.0016352  -0.00095896 -0.00101199 ... -0.00022708 -0.00149279
  0.0012416 ]","[-0.003696   -0.00630085  0.00044172 ...  0.00465917 -0.00860965
  0.00105018]","[-0.00297151 -0.00567592 -0.0074569  ... -0.00797064 -0.00385325
 -0.00552789]","[-0.00758919 -0.00452888 -0.00511549 ... -0.00312431 -0.00281987
 -0.00159116]","[ 0.00369496  0.00131074  0.0113971  ...  0.00213107 -0.00228321
  0.00218699]","[ 0.00050603  0.00456392 -0.00542887 ...  0.00022879  0.00214646
 -0.00123676]","[-0.0032278   0.00448785  0.0035761  ...  0.00605872  0.00388823
 -0.0014482 ]","[ 5.8395904e-06 -1.1686698e-03 -3.0116774e-03 ... -3.9094156e-03
 -4.7770729e-03 -8.9983299e-04]","[-0.00204138 -0.0024935   0.00034294 ... -0.00429554 -0.00170595
 -0.00025239]","[ 0.001962    0.00273882 -0.00059754 ... -0.00113602 -0.00359026
 -0.0014732 ]","[ 0.00254043  0.00055958  0.00143729 ... -0.00244367 -0.0034424
 -0.00081309]","[ 0.00189053  0.00764738 -0.00183558 ...  0.00443507 -0.00689251
 -0.00216868]","[ 0.00132402 -0.00143341 -0.0005134  ... -0.00607939  0.00175078
  0.00462176]","[ 0.00309234  0.00238247  0.00225606 ...  0.00085416 -0.00456561
 -0.00183204]","[ 3.5499264e-03  4.2745452e-03 -2.3661074e-03 ...  2.7055386e-03
  3.7668135e-03  1.4899273e-05]","[ 0.00669748  0.00411253 -0.00805948 ...  0.00492807  0.00331736
 -0.00436285]","[ 0.00428099  0.00251042 -0.00697506 ...  0.00650676  0.0050388
 -0.00284438]","[-0.0064222   0.00069387  0.00594849 ...  0.0021856  -0.00939562
 -0.00507787]","[-0.00241467 -0.00296249  0.00513722 ... -0.00620665 -0.00576012
 -0.0033566 ]",[0.00066989 0.00312606 0.00118158 ... 0.00070873 0.00139075 0.00388842],"[ 0.00298173 -0.00393285  0.01069573 ...  0.00256552 -0.00432639
  0.00716799]","[ 0.00086796  0.00022304 -0.00225985 ... -0.00559608  0.00134702
 -0.00205687]","[-5.0927361e-04 -1.4173713e-03 -5.9013888e-03 ...  2.8093189e-03
  5.8270869e-04  9.7262237e-05]","[ 0.00826933 -0.00620557 -0.00063182 ... -0.00015872 -0.00067995
  0.00553831]","[-0.00180605 -0.00429429  0.00070316 ... -0.00261231 -0.0071528
 -0.00303961]","[-0.00089393 -0.00210351 -0.00211809 ...  0.0046183  -0.00620986
 -0.00209226]","[-0.00418062 -0.00404867 -0.00293787 ... -0.00013386 -0.00202748
  0.00395143]","[ 0.0007941   0.00914329  0.00135143 ... -0.00675814  0.00707904
 -0.00358251]","[-0.00392627 -0.00085725 -0.00643517 ...  0.0002648   0.00498043
 -0.00257363]","[-0.00316961 -0.00452199  0.00030873 ... -0.00138878 -0.00190058
 -0.00333252]","[-0.00197977  0.0023527   0.00294937 ... -0.00203084 -0.00614803
 -0.0019587 ]","[-0.00236257  0.01010364 -0.00181877 ... -0.00465733 -0.00545713
  0.00099051]","[-0.00321479  0.00253097  0.00358224 ...  0.00114064 -0.00512458
 -0.00396252]","[-0.00188313 -0.00250397 -0.00706627 ... -0.00790686  0.00110624
  0.00141834]","[ 0.0058695   0.00153613 -0.00897409 ... -0.00248472 -0.00250258
 -0.00471404]","[-5.2518235e-03  7.2491784e-03  4.8609227e-03 ...  6.3986896e-04
 -3.9370367e-05  5.6074709e-03]","[-0.00245827 -0.00058706  0.00250515 ...  0.00194315  0.00301508
 -0.00226199]","[ 0.00481373  0.00305274  0.01142067 ...  0.00135413 -0.00245775
 -0.00100889]","[ 0.0056251   0.00323524  0.00107828 ... -0.00200442  0.00132814
  0.00618307]","[ 0.00258518  0.00059345  0.00588605 ... -0.00053424  0.00075418
 -0.00146709]","[ 0.00589927  0.00780632  0.00048166 ... -0.00143124 -0.00670231
  0.00688   ]","[-0.00475574  0.00294959 -0.00258775 ...  0.00363109  0.00201198
  0.00552126]","[-0.00335907 -0.002185   -0.00578416 ... -0.00032504  0.00361618
 -0.00186727]","[ 0.00118603  0.00493346  0.00572112 ... -0.00016699 -0.01034201
  0.00202847]","[-0.00166794  0.00111675 -0.00710648 ...  0.00289589 -0.00412047
  0.00583843]","[ 0.00309511 -0.00306038 -0.00511026 ...  0.000907   -0.00281395
  0.00599767]","[-0.00227324 -0.00096722 -0.00840795 ... -0.00023781  0.0050324
  0.00073082]","[ 0.00668977 -0.00096309  0.00018251 ... -0.00064184  0.01106027
 -0.00391212]","[ 0.00742349  0.00259652 -0.00418503 ... -0.00751901  0.00033507
  0.0042076 ]","[ 0.00371091  0.00310287  0.00542256 ...  0.0037496   0.00531047
 -0.00765718]","[-3.7459784e-05  2.6870538e-03  9.4736699e-04 ... -1.7545496e-03
 -5.5590738e-03 -4.3012481e-03]","[-0.00051843  0.00077114 -0.0029475  ... -0.00133677 -0.00049597
 -0.00722607]","[-0.00697558  0.00013201  0.00026004 ... -0.00678224 -0.00604198
 -0.00886407]","[-0.00570601  0.00019053 -0.00447806 ... -0.00718572  0.00566503
  0.00176442]","[-0.00106337  0.0062278  -0.00569468 ... -0.00474539  0.00478787
 -0.00703849]","[ 0.00155576  0.00610342  0.00478431 ... -0.00232687  0.00553826
 -0.0001475 ]","[ 0.00319861 -0.00199257  0.00574408 ...  0.01178385  0.00217699
  0.00179894]","[ 0.00120082 -0.00207059  0.00587191 ... -0.01000306  0.00019809
 -0.00128049]","[ 0.00383412  0.00153356  0.00215726 ... -0.00618636 -0.0034817
  0.00814522]","[-0.00636715  0.00058426 -0.00214172 ... -0.00558712  0.00264816
  0.00543771]","[-0.004505   -0.00411941 -0.01364546 ...  0.00492452 -0.0009023
 -0.00184463]","[ 0.0005586  -0.00668406 -0.00207235 ...  0.00246464 -0.00343403
  0.00591391]","[ 0.00051857 -0.00064899 -0.00216342 ...  0.00491732 -0.00275588
 -0.00610748]","[-0.00697742 -0.00354398 -0.00227905 ...  0.00392376 -0.00135408
 -0.00362729]","[ 0.00095732 -0.00605796  0.00295248 ... -0.00497138 -0.0039423
  0.0001458 ]","[ 0.00043331  0.00307279 -0.00532091 ...  0.00215961  0.00330269
 -0.00093048]","[ 0.00230458 -0.00088849  0.00316485 ... -0.00146485 -0.01051399
 -0.00083414]","[-0.01089879 -0.00181094 -0.00169425 ... -0.00519855  0.00150341
 -0.00100213]","[-0.00456695 -0.00380444 -0.00139766 ... -0.00917508  0.00110314
  0.0029965 ]","[-0.00421379 -0.0016781   0.00412396 ... -0.00514652 -0.00350393
  0.003572  ]","[ 0.0030323  -0.00408191 -0.00190257 ...  0.00389904  0.00248656
  0.00356621]","[-0.00206056  0.00012608  0.00196833 ...  0.0045747  -0.00532649
  0.00324164]","[-0.00869924  0.00726362  0.00305033 ...  0.00037428  0.00108863
  0.0010828 ]","[ 0.00846851 -0.00253859 -0.0043172  ... -0.00661519 -0.0063698
 -0.00236779]","[-0.00714618 -0.00264499  0.00651836 ...  0.0043911  -0.00017576
 -0.00213587]","[-3.2098597e-04 -1.1337493e-03  4.0751086e-03 ...  8.1411807e-04
  2.3084845e-05  6.8766992e-03]","[ 5.3327335e-03  8.7182401e-03 -5.9463945e-03 ...  2.2270768e-03
 -8.3507883e-05  8.4481733e-03]","[-0.00132896  0.00353189 -0.0001491  ...  0.00373033  0.00208059
 -0.00047102]","[ 0.00548508 -0.00010454 -0.00339526 ... -0.00747978  0.00680652
 -0.00310473]","[ 0.00126827  0.00069649  0.00096146 ...  0.00031558 -0.00284369
  0.00657038]","[-0.00017171  0.00563987 -0.00162375 ...  0.001382    0.00842592
 -0.00080641]","[-0.00731742 -0.00778343 -0.00556287 ...  0.00095942 -0.00252676
  0.00035805]","[-0.0015943   0.0048146   0.00319206 ...  0.00118113 -0.0017034
  0.00590608]","[ 0.00532926  0.00617056  0.00284968 ... -0.00452381 -0.00341125
 -0.00073705]","[-0.00069311 -0.00376014  0.00504682 ...  0.00330066  0.00228014
 -0.00078683]","[-0.00176695 -0.00707816  0.00231176 ... -0.00470482 -0.00706325
 -0.00175495]","[ 0.0043237   0.0023628   0.00540138 ...  0.00035915 -0.00117153
  0.00383335]","[-4.9394616e-03  9.4618124e-05 -3.6789849e-03 ... -5.7817451e-03
  8.9976648e-03 -5.8165542e-04]","[ 0.00944681 -0.00154683  0.00163161 ...  0.00436512  0.00586671
 -0.00379488]","[-0.00018525 -0.00753888 -0.00696802 ... -0.0039145   0.00980679
 -0.0034844 ]","[ 0.00278784 -0.00190274  0.00410042 ... -0.00695153  0.00640142
  0.00143894]","[ 0.00332117 -0.002791   -0.00639994 ... -0.0028527   0.00331318
  0.0026715 ]","[-0.01047025  0.00467617  0.00273255 ... -0.00696115  0.00844179
  0.00149153]","[-0.0030661   0.00044449 -0.0027041  ...  0.00030158 -0.0036363
  0.00187583]","[-3.4393219e-04  9.9852029e-04 -5.3912408e-05 ... -4.3749553e-03
 -6.2945448e-03 -4.9850629e-03]",[0.00415368 0.00767439 0.00134239 ... 0.00863664 0.00387405 0.00079869],"[ 0.00184754  0.003685   -0.00567411 ... -0.00406097  0.00581221
 -0.00122987]","[ 0.002443   -0.00461374  0.00529885 ... -0.00899543 -0.00544292
  0.00286783]","[ 0.00217897  0.00301211  0.00051987 ...  0.00320966  0.00076419
 -0.00180931]","[-0.01026502  0.00030723 -0.00419025 ... -0.00437846 -0.00299135
 -0.0078229 ]","[-0.00813615 -0.01255623  0.00468965 ... -0.00476753  0.00675478
 -0.00231681]","[ 0.00026764 -0.00183359 -0.00235942 ... -0.00015955  0.00292737
  0.00653139]","[ 0.0040183   0.00508399 -0.00069535 ...  0.0049328  -0.00562705
 -0.00049276]","[ 0.00220721 -0.00386574  0.00343968 ... -0.00184736 -0.00565157
  0.00480389]","[ 0.00840532 -0.00854813  0.00367599 ...  0.00195267  0.0098443
  0.00059577]","[ 0.00362006  0.00174    -0.00183631 ... -0.00355724 -0.00295111
  0.00310007]","[ 0.00134124  0.00035874 -0.00412072 ... -0.00213392  0.00777754
 -0.0049254 ]","[ 4.7658988e-05  1.8335525e-03 -2.3494815e-03 ...  1.9860526e-03
 -9.2097069e-04  2.4678027e-03]",[0.00218663 0.00164207 0.00231977 ... 0.00106902 0.00499525 0.00287769],"[ 4.4693118e-03 -9.2901932e-03 -5.1497398e-05 ...  1.2029207e-03
 -1.7755502e-03  4.6029920e-03]","[-0.00883322  0.0001209  -0.0058809  ...  0.00474999  0.00253343
  0.00324374]","[ 0.0070255  -0.00330862  0.00159172 ...  0.01795279 -0.00296013
 -0.00149741]","[-0.0016118   0.0007468   0.00327812 ...  0.00128053  0.00502001
  0.00241335]","[ 0.00133097 -0.00250435  0.00018316 ... -0.00753685  0.00212386
 -0.00231161]","[-0.00467744  0.00121225 -0.00382181 ... -0.0060781  -0.00144762
  0.00315626]","[ 0.00233851  0.0049742   0.0124746  ...  0.00159107 -0.00860246
 -0.00448825]","[ 9.8289594e-05  2.3613148e-03 -4.7774701e-03 ... -4.5751883e-03
 -3.2783286e-03  3.1255977e-03]","[-0.00022993 -0.00467988  0.00263399 ... -0.00489658 -0.00177963
  0.01109698]","[-0.00934152 -0.00084694  0.00380919 ... -0.00275111 -0.00237728
  0.00125613]","[-0.00098852 -0.00062617 -0.00255561 ... -0.00786669  0.00178327
  0.00202938]","[ 3.8385636e-03  1.0634891e-02 -3.0130127e-03 ...  9.7013323e-04
 -2.2665006e-05  7.0470823e-03]","[-3.2411052e-03  3.9815996e-03  2.7103259e-03 ... -7.9319325e-05
  6.4713298e-03 -9.8606683e-03]","[-0.01008518 -0.0055583   0.00187428 ...  0.00572132  0.0071416
  0.00134491]","[ 0.00438701 -0.00043804  0.00194875 ... -0.00899784  0.00403118
 -0.00709632]","[-0.0001455  -0.00022489 -0.00360272 ... -0.00409918 -0.00667085
 -0.00288926]","[-0.00364578  0.00029325  0.00107333 ...  0.00634384  0.00553419
  0.00435568]","[ 0.00265092  0.0045272   0.00208496 ... -0.00484918 -0.00355685
  0.00239993]","[-0.0070324  -0.00382021 -0.00498698 ... -0.00191097 -0.0013292
  0.00610172]","[ 0.0056806  -0.00213369 -0.00212163 ... -0.00154042  0.00330999
 -0.00394959]","[-0.00679027  0.00331382 -0.00299117 ...  0.00312442  0.01023968
 -0.00501662]","[ 0.00235613  0.0017758   0.00334347 ...  0.00473924 -0.00160047
 -0.00855114]","[-0.00450015 -0.00158434  0.00687032 ...  0.0032935   0.00693678
  0.00035176]","[ 1.28200445e-02  1.41776958e-03  1.01916434e-03 ...  2.14843913e-05
  6.53659599e-03 -7.08435522e-03]","[ 0.00052169  0.00418309  0.00576491 ...  0.00759774 -0.00287303
 -0.00880793]","[-0.001227    0.00282422  0.00408536 ...  0.00891345 -0.00246873
  0.00019631]","[-0.00113291  0.00033985 -0.00861242 ... -0.00301754  0.00245564
  0.00297627]","[ 0.00881782  0.00126765  0.00708362 ... -0.00174563 -0.00059412
  0.00028594]","[ 0.00079764  0.00561828  0.00194329 ... -0.00473447 -0.00561421
  0.00478798]","[ 7.6057380e-03  2.7001014e-03  5.2260939e-04 ... -6.9564837e-03
  1.1765738e-03 -9.0058464e-05]","[ 0.00192468 -0.0053215   0.00010157 ... -0.0031347   0.00196274
  0.00297756]","[ 0.00241552  0.00522743  0.00063529 ... -0.00709035  0.00373294
 -0.00016381]","[-0.0064743   0.00074871  0.00212439 ... -0.0029031   0.00123298
  0.00108592]","[ 0.00086382  0.00693852 -0.00124634 ... -0.00570028  0.01036708
  0.00149397]","[-0.00496738 -0.00173798  0.00279041 ... -0.00276737  0.00430471
  0.01556592]","[ 0.00022336 -0.00386483 -0.00126614 ...  0.00531455  0.0034758
  0.00043372]","[-0.00147942 -0.01119149 -0.00147673 ...  0.00389264  0.00534878
 -0.00042618]","[-0.0091565   0.00199302 -0.00167865 ...  0.00349215  0.00028739
 -0.00048231]","[ 6.6404054e-03  1.9916501e-03 -6.9433918e-05 ...  2.4295949e-04
 -2.3868082e-03  3.6729474e-03]","[ 0.00128897 -0.00183834  0.00085721 ... -0.00439114 -0.00184598
  0.00680942]","[-0.0053834  -0.00170521 -0.00601147 ...  0.00038199 -0.00157548
 -0.00462949]","[ 0.00040309 -0.00511581  0.00083922 ... -0.00237531  0.00219804
 -0.00083327]","[-0.00189464 -0.00048646 -0.00124714 ...  0.01047159  0.00428773
 -0.00131213]","[ 0.0005828   0.00046294 -0.0071781  ... -0.00299505  0.00251607
  0.00019761]","[-4.2867358e-03 -6.6460430e-04 -4.1157818e-05 ... -2.3233662e-03
  1.4390175e-03 -4.4180010e-03]","[ 0.00153695 -0.00268459 -0.00224152 ... -0.00077946 -0.00111816
  0.00117876]","[-0.00536164  0.00029114  0.00657504 ...  0.00291926 -0.01278116
 -0.00461551]","[-0.00093448 -0.00333133 -0.00606712 ... -0.00630197  0.00140249
 -0.00312945]","[ 0.00215761  0.00407754 -0.00137971 ... -0.00369037 -0.00052319
 -0.00697718]","[ 0.00144454 -0.0022522  -0.00416138 ...  0.0020772  -0.00030966
 -0.00788826]","[-0.0037253   0.00609131 -0.00070157 ... -0.00595705  0.0072675
 -0.00307702]","[-0.00640617 -0.00423973 -0.00724599 ... -0.01021706  0.00519919
 -0.00417618]","[-0.00114134 -0.00549744  0.00144382 ...  0.00384501  0.00164327
 -0.0121206 ]","[-0.00415231 -0.00038332 -0.00192741 ... -0.0060734   0.00057868
  0.00462779]","[ 0.00345794  0.00639903 -0.00369818 ...  0.00214125 -0.00078403
 -0.00470955]","[ 0.00304261 -0.00298363  0.00049122 ...  0.00308864  0.00340453
  0.00138527]","[ 2.9901305e-04 -2.1135244e-03 -4.0133371e-05 ...  3.6961413e-03
 -1.5175252e-03 -2.1276530e-03]","[-0.0067737  -0.00432964  0.00770952 ... -0.00151375 -0.00407746
  0.00318904]","[-0.00633398 -0.00734071 -0.00324366 ... -0.00372502 -0.00307083
 -0.00309606]","[ 0.00190914 -0.00600394 -0.00262679 ...  0.00059014  0.00650117
  0.0012707 ]","[ 0.00145518 -0.00148493  0.00038533 ...  0.00368362 -0.00352006
  0.00333695]","[-3.0933644e-03  1.3746120e-04 -6.5887242e-04 ...  1.1226468e-03
  6.9799025e-05 -1.5763748e-03]",[0.00408695 0.00184099 0.00866679 ... 0.00424408 0.00175946 0.00163255],"[-0.00415017 -0.00122303  0.00220041 ... -0.00330308  0.00044653
 -0.00199635]","[ 0.00577809 -0.00925698  0.00050084 ... -0.00159709  0.00653908
  0.00557329]","[ 0.00062638 -0.00817048 -0.00373585 ... -0.0050675  -0.00583882
  0.00150614]","[-0.00638757  0.00321805 -0.00562354 ...  0.00350272 -0.00348989
 -0.00389893]","[-6.9180103e-05 -1.4333220e-03  6.0945237e-03 ...  1.0794811e-03
  5.9250076e-03 -2.4369943e-03]","[-0.00239441 -0.00398273  0.00375175 ...  0.00129725  0.00079082
  0.00983748]","[-0.00048205  0.00221372 -0.00382856 ... -0.00275743 -0.00615057
  0.00146453]","[-0.00175418 -0.00222724 -0.00283434 ...  0.00157541 -0.00209701
 -0.00325462]","[-0.00154387  0.0002131  -0.00531925 ...  0.00422136 -0.00330001
  0.00493875]","[ 0.00097989 -0.00189479  0.0138221  ...  0.01106913  0.00881393
  0.00557909]","[-0.00081805  0.00309755 -0.00027456 ...  0.00368863 -0.00383647
 -0.00375144]","[-0.00015203  0.00510478  0.0033054  ...  0.00745568 -0.00252325
 -0.00194619]","[-0.00298528 -0.00010524 -0.00547666 ...  0.00572838  0.00163113
 -0.00212554]","[-0.00497274 -0.00372401  0.00368196 ... -0.00300943 -0.00158108
  0.00013783]","[ 0.00505839 -0.00149685  0.00071774 ... -0.00163751  0.00291417
 -0.00239981]","[ 1.6119733e-03 -2.8595706e-03 -5.1757395e-03 ...  2.8923573e-03
 -9.5331328e-05  2.3959132e-03]","[ 0.00055564  0.00119695  0.00471784 ...  0.00715185 -0.00352262
  0.00155843]","[-0.00325871 -0.00924409 -0.01062298 ... -0.00661049 -0.01013201
  0.00322606]","[ 0.00714286  0.00068253  0.00735724 ...  0.00052356  0.00231367
 -0.00388576]","[-6.5297084e-03 -3.3814595e-03 -1.2323398e-05 ...  8.1880968e-03
  1.4909125e-03  2.5064652e-03]","[ 0.00357043 -0.00426731  0.00218102 ... -0.0080156   0.00230524
 -0.00332954]","[-0.00166712 -0.00956719 -0.00353152 ... -0.00704269 -0.00463784
 -0.00210088]","[ 0.00698821 -0.0086269  -0.00095489 ...  0.00479397  0.0037285
  0.00305722]","[-0.00111695 -0.00824186 -0.00037232 ... -0.00167577 -0.00668123
  0.00161089]","[-0.00245119 -0.00658077 -0.00187529 ... -0.00240389  0.00071447
 -0.00077945]","[-0.00391716  0.00093956 -0.00678382 ... -0.00630177 -0.0059277
 -0.00577136]","[-0.00503988 -0.00343552  0.00731681 ... -0.00173033  0.00276315
  0.00432574]","[-0.00286943  0.00198943  0.00523462 ... -0.00404689  0.00191205
  0.00034652]","[-0.00248333 -0.00068986 -0.00897251 ...  0.00215302 -0.00734904
  0.00300688]","[-0.00059654 -0.00134048 -0.00863107 ... -0.00373325  0.01084888
  0.00354243]","[ 0.00432103  0.00207029  0.0025717  ... -0.00399242 -0.00576063
  0.0051313 ]","[ 0.00471496  0.00097984  0.00331265 ... -0.00327568  0.00239095
 -0.00425644]","[-0.00365587 -0.01025177 -0.00690822 ... -0.00702187 -0.00199717
  0.00859591]","[-0.00517711  0.0013919  -0.00495961 ... -0.00602272 -0.00345748
 -0.00694149]","[-2.5163193e-03 -7.0043193e-04 -6.7312933e-05 ...  4.4919522e-03
  5.7800021e-03 -8.5856691e-03]","[ 0.00279316 -0.00769009 -0.00057503 ... -0.00241537 -0.00156314
 -0.00396256]","[ 0.00875333  0.00645602 -0.00860411 ...  0.0071877  -0.00267589
  0.00318295]","[-0.00535474 -0.00301282 -0.00464663 ...  0.00666765 -0.00164619
 -0.00512777]","[ 0.00762853  0.001478   -0.00352539 ...  0.00152966  0.00105746
 -0.00761418]","[-0.00290227  0.00011041  0.00399068 ... -0.0034198   0.00396597
  0.00065531]",[0.00349422 0.00146976 0.00151042 ... 0.0053541  0.00841913 0.00122275],"[ 0.00041872 -0.004766   -0.00497019 ... -0.00049694  0.00302093
 -0.00180958]","[-0.00194366 -0.00466326 -0.00986125 ... -0.00859162 -0.00454724
 -0.00014465]","[-0.0024387  -0.003779    0.00323844 ...  0.0084685  -0.00497462
 -0.00326634]","[ 0.00239204 -0.00948958  0.00306627 ... -0.0028284   0.00443358
 -0.00328321]","[-0.00397084  0.00097534 -0.0021919  ...  0.00063246 -0.00670504
  0.00283393]","[-0.00141552  0.00035537 -0.00422594 ...  0.00526491 -0.00013259
 -0.00394389]","[-0.00663887  0.00017266  0.00028486 ... -0.00480118 -0.00289872
 -0.00351493]","[-0.0040493   0.00127683 -0.00022139 ... -0.01020018  0.00188193
 -0.0032344 ]","[-0.00291406  0.00169981 -0.00049611 ... -0.00326867 -0.00994826
  0.00695742]","[-6.5318705e-03  8.3264185e-04 -9.9131554e-05 ... -7.1606785e-04
  6.9784201e-03 -6.2635215e-03]","[ 0.00237778 -0.00119949 -0.00551369 ...  0.00049983  0.00317151
 -0.00203672]","[ 0.0022992  -0.00221986  0.00275421 ...  0.0050003  -0.00182178
  0.00361774]","[ 0.00101769 -0.00979579 -0.00415314 ... -0.00241523 -0.00378422
 -0.0049104 ]","[ 0.0007121   0.00336293  0.00363478 ...  0.00222118 -0.00357828
 -0.00828359]","[-0.00114725 -0.00329848  0.00245168 ... -0.00058523 -0.00146034
  0.00164354]","[ 2.3483967e-03  2.3761496e-04 -6.9981059e-03 ...  9.4864201e-03
  1.1241125e-03  2.4590512e-05]","[ 0.0080964   0.00204558 -0.0071961  ...  0.00055164  0.00512569
  0.0034638 ]","[ 0.0010601   0.00122044 -0.00153256 ... -0.00650385  0.00310688
 -0.00381353]","[ 0.00092358  0.00666603  0.00515996 ... -0.00567384 -0.00435131
 -0.00128519]","[ 0.00149152  0.0002318  -0.00672607 ...  0.00275225  0.00048271
  0.00532671]","[ 0.00270795 -0.01089598 -0.00252019 ...  0.00871005  0.004778
  0.00899291]","[-0.00262612 -0.01063161  0.00550788 ... -0.00124145  0.000655
  0.00227967]","[ 2.0746260e-03 -5.9655995e-05 -9.5308223e-04 ... -4.5753671e-03
 -3.4043086e-03  3.7605632e-03]","[ 0.00178789  0.01234813  0.00247374 ...  0.00632812  0.00727329
 -0.0017765 ]","[ 0.00252083  0.00803551  0.00078346 ... -0.00711342 -0.0039948
  0.00999477]","[-0.00484321 -0.00233624 -0.00600239 ... -0.00346557 -0.00084063
 -0.00120904]","[-0.00199772  0.00248464 -0.00310754 ...  0.00744851  0.00590506
 -0.00220597]","[ 0.00324787  0.00324086 -0.00124294 ...  0.00649973  0.00676309
 -0.00041483]","[ 0.00172454 -0.00054441  0.00644557 ... -0.00474367  0.00027539
  0.00257087]","[-0.00592186  0.00742691  0.00334426 ... -0.00090356 -0.00497341
 -0.00414691]","[ 0.00318868  0.00213491  0.00377852 ... -0.00370796 -0.0046674
 -0.00499943]","[-0.00463146 -0.00251279  0.00685136 ...  0.00478728 -0.00116105
 -0.00352063]","[-0.00469484 -0.01300207 -0.00457606 ... -0.00288803  0.00766003
  0.00082838]","[ 0.00325487 -0.00016955 -0.00097544 ... -0.00196609 -0.00713056
  0.00808591]","[ 0.00073612  0.00957806 -0.00575476 ... -0.00478843  0.00050872
  0.00013495]","[-0.0068175   0.00295444  0.00950026 ... -0.0017646   0.0007195
  0.00348052]","[-0.00022615  0.0021133   0.00559053 ...  0.00289211 -0.00086248
  0.00942553]","[ 0.00591413 -0.00960405 -0.00123395 ... -0.00512223  0.01066893
  0.00395891]","[-0.00409258  0.00544118 -0.00239726 ... -0.00382373  0.0057148
  0.00262498]","[ 3.8373584e-03 -2.1196420e-03 -3.7767673e-03 ...  3.4072119e-04
 -6.1721988e-03 -1.8529863e-05]","[-0.00188427  0.0045744  -0.00214682 ... -0.00207026  0.00130866
 -0.00463665]","[ 0.00083356  0.00049463 -0.00509415 ...  0.00465985  0.00248147
 -0.00240244]","[-0.00230728  0.00089093  0.00223024 ... -0.00524387  0.00155405
 -0.00201749]","[-0.0022342  -0.00918685 -0.00756724 ... -0.00581192  0.00478564
 -0.00273281]","[-0.00232522 -0.00437082  0.00284486 ...  0.00494888  0.00466275
 -0.00542775]","[-0.00792887 -0.00644075 -0.00083166 ...  0.00034542 -0.00566877
 -0.00639321]","[ 0.00078983 -0.00231589 -0.00248654 ...  0.00625883 -0.00169527
 -0.00205436]","[-0.00600167  0.00058174  0.00504021 ... -0.00476255 -0.00592892
 -0.00302694]","[-0.00535744 -0.00795582 -0.00313993 ... -0.00662133  0.00552521
 -0.00977529]","[ 0.00666725 -0.0036023   0.00119534 ...  0.00257114  0.00250035
 -0.00339012]","[ 0.00327805  0.00420219 -0.00174094 ...  0.0002192   0.0017747
 -0.00199176]","[-0.00708653  0.0018358   0.0105601  ... -0.00194864  0.00341913
  0.00369194]","[-0.00485827 -0.00207718 -0.00632203 ... -0.00257622 -0.00515426
 -0.00076103]","[-0.01066154  0.00127965 -0.00444042 ...  0.01000616 -0.00131996
  0.00232741]","[-0.00568882 -0.00293732 -0.00686577 ...  0.00171357  0.00683481
  0.00532844]","[ 0.00486766  0.01213842  0.00029634 ... -0.00397467 -0.00436752
 -0.00450338]","[-0.00132588 -0.00067432  0.00438156 ...  0.00233701  0.00389458
 -0.00520857]","[-0.00911643  0.00164844 -0.00281987 ...  0.00935298 -0.00092034
 -0.00042822]","[ 0.00081528 -0.00418038  0.00117799 ... -0.00078265  0.00128338
  0.0032154 ]","[-0.0078215  -0.00692262 -0.00116013 ...  0.0043065  -0.00471303
 -0.0027357 ]","[ 0.00129127  0.00931753  0.00401703 ... -0.00051588 -0.00155123
  0.00500165]","[ 0.00178997 -0.00224879  0.00106201 ... -0.00357006  0.00379675
  0.00545575]","[ 0.00092252 -0.00770143  0.00133783 ...  0.00252152 -0.00239328
 -0.00530551]","[-0.00707053  0.00010265  0.00305982 ...  0.00373137  0.00140658
 -0.00248286]","[-0.00117557 -0.00405371  0.00348268 ... -0.00595764  0.00437167
 -0.00245899]","[ 4.3361066e-03  5.0490238e-03  9.6034827e-03 ... -5.7756017e-05
 -4.9686834e-04  1.9401819e-03]","[ 0.00066903 -0.01249645 -0.00633171 ... -0.00036142  0.00416233
 -0.00187776]","[ 0.00194219 -0.00064573 -0.00049725 ... -0.0028623  -0.00482915
 -0.00683988]","[-3.6708720e-06 -4.8122462e-03  6.9691887e-04 ...  6.8461164e-03
  6.5641738e-03 -6.6669518e-04]","[ 0.00455327 -0.00269636  0.00459574 ...  0.00596478 -0.00014175
  0.00158861]","[-0.0062145  -0.00395526 -0.00456627 ...  0.00123888 -0.01087897
 -0.00222527]","[ 0.00289688  0.00201452  0.00031129 ... -0.00349337  0.00148292
 -0.00233589]","[-0.00534755 -0.0096598  -0.01162948 ... -0.00176008 -0.00273392
  0.00030714]","[ 0.00087641 -0.00543777  0.00055205 ... -0.00329596  0.00093497
 -0.00503081]","[-3.0059894e-03  4.7102287e-05  6.7861038e-03 ... -6.5801558e-03
  2.6855475e-04 -1.7816047e-03]","[-6.1068116e-03  6.1387462e-03 -6.9538187e-03 ...  2.5640859e-03
  8.0739490e-05  3.0313181e-03]","[ 0.00729337 -0.00470984 -0.00459359 ... -0.0081408  -0.00993959
  0.00808963]","[ 0.00031531 -0.00329569 -0.00573227 ...  0.00518096 -0.00034034
  0.00755384]","[ 0.00039011 -0.00570885 -0.00173676 ...  0.00253503  0.00522468
  0.00476333]","[-0.00816114  0.00157043 -0.0003498  ...  0.00405635 -0.00382335
  0.00108358]","[-2.6851839e-03  2.4611207e-05 -3.1480230e-03 ... -6.6107558e-03
  2.8409457e-03  2.6260854e-03]","[-3.2310185e-03  2.2606724e-03 -2.8213643e-04 ... -4.9487231e-03
 -6.2438087e-03 -8.7186898e-05]","[-0.00526907 -0.00125332 -0.00132811 ...  0.00343465  0.00214647
 -0.00516955]","[ 0.00167648 -0.00372865 -0.000437   ... -0.00147222 -0.00662528
  0.00200581]","[-0.00143482 -0.00416479  0.00216927 ... -0.00277876  0.00170867
  0.0013566 ]","[-0.00613619 -0.00166797 -0.00032387 ... -0.00531125 -0.00029008
  0.00449886]","[-6.1390982e-03 -7.0478828e-03  1.0751362e-03 ... -3.0210330e-03
  9.6895077e-05  3.1748998e-03]","[-0.01195257 -0.00060049  0.00063132 ...  0.00282187  0.0006945
 -0.00275792]","[-5.0705057e-03  7.9840951e-04  6.1536142e-05 ... -5.6082504e-03
 -1.4734460e-04 -7.1868999e-04]","[-0.00035036 -0.00177463 -0.01187663 ... -0.00308373  0.00193673
  0.00175287]","[-0.00228528  0.0016585   0.00247718 ... -0.00262429  0.00094608
  0.00339343]","[-1.9466147e-03  6.1782799e-03 -3.5560919e-05 ...  3.1352567e-03
  8.7625440e-03  4.4654547e-03]","[ 0.00511644 -0.00129246  0.00729246 ...  0.00405713 -0.00363363
 -0.00546509]","[-0.00795949 -0.00627587 -0.00460887 ...  0.00173897  0.00026378
 -0.00551876]","[-0.00669266  0.00534634  0.00046727 ...  0.00239427  0.00827839
 -0.00267211]","[-4.6754998e-04 -8.9618123e-05 -3.6086733e-04 ...  7.4203569e-03
  6.4337961e-03 -1.0118119e-03]","[-0.00068641  0.00376522 -0.01180326 ... -0.00193831  0.00615472
  0.00543356]","[-0.00609923 -0.00112354  0.00349065 ... -0.00686534 -0.00072882
  0.00459787]","[-0.00215774 -0.00058321  0.00084006 ... -0.00317999 -0.00197034
  0.00474988]","[-0.006199   -0.00116121 -0.00083843 ... -0.00681736 -0.00429155
  0.00524931]","[ 0.00785239 -0.00842191 -0.00045206 ...  0.00413687 -0.00213592
 -0.00131604]","[ 0.00774285  0.00289999 -0.00238054 ... -0.00431428 -0.00142705
 -0.00055817]","[ 0.00625869  0.00466965  0.00489817 ...  0.01255896 -0.00066308
  0.00159784]","[-0.00087668 -0.00166125  0.00508604 ... -0.00220553 -0.00155247
 -0.0079975 ]","[ 0.01083224 -0.00492223  0.00992786 ... -0.00118356 -0.00660697
 -0.00023532]","[-0.0021474  -0.0003468  -0.00335021 ...  0.00338446  0.00445309
 -0.0007806 ]","[-0.00461945  0.00306697  0.00124592 ... -0.0052144  -0.00186053
  0.00079742]","[ 0.00086779 -0.00272582 -0.00214467 ... -0.00618785 -0.00227169
 -0.00192358]","[-0.00743676  0.001231   -0.00622086 ...  0.00883619  0.00032149
 -0.00596675]","[-0.00355535 -0.00704997  0.00532925 ... -0.00032792 -0.00526109
 -0.00149322]","[-0.00654813 -0.00455144 -0.00134983 ... -0.00590259  0.00236879
  0.00395518]","[-0.00533058 -0.00319609  0.00014829 ...  0.00296445 -0.00633941
 -0.00246161]","[ 0.00377395 -0.00317456 -0.00660916 ... -0.00503359 -0.00648873
  0.00071052]","[ 0.00334304 -0.00640092 -0.00686154 ... -0.00503653  0.00293863
  0.00416829]","[ 0.00333913  0.0019949   0.0025586  ...  0.00630655 -0.00911294
  0.00139974]","[-0.00188383 -0.00709662  0.00121232 ...  0.00171395 -0.00262268
  0.00678423]","[-0.00036174  0.00582169 -0.0040493  ...  0.00199586 -0.00817253
  0.00618874]","[ 0.00262482  0.00684494  0.00073444 ... -0.00053807 -0.00083672
 -0.000578  ]","[-0.00530603  0.00092236  0.00148924 ... -0.00010848 -0.00583067
 -0.00912475]","[-0.00197869  0.00407591 -0.00091853 ... -0.00292315  0.00214445
 -0.01006365]","[ 0.0067979  -0.00263665 -0.00322281 ...  0.00266456 -0.00179981
 -0.0043258 ]","[ 0.0026888  -0.00273463 -0.00847991 ...  0.00393396  0.00293151
 -0.00563653]","[ 0.01124298  0.0007004   0.00164476 ...  0.0048231  -0.00093091
  0.00687984]","[-0.00050256 -0.0010155   0.00062189 ...  0.00401722 -0.00112814
 -0.000692  ]","[-0.00260486  0.00106325 -0.00074038 ... -0.01033112  0.00131944
 -0.00347744]","[-0.00455293 -0.00524163 -0.00640574 ... -0.00227893 -0.00195673
 -0.00701446]","[ 0.0036314   0.00050191  0.0020392  ...  0.00999238  0.00280962
 -0.00401988]","[ 0.00526161  0.00069922 -0.00803986 ... -0.00734802 -0.0089758
 -0.00395391]","[-0.00998931  0.0008163   0.00348392 ...  0.00401124  0.00164608
 -0.00391078]","[-0.00418398 -0.00199215  0.00478789 ...  0.00146189  0.01072289
 -0.00213724]","[-0.00689038  0.00814106  0.00900101 ... -0.0024242   0.00445871
  0.00885035]","[-0.00939304  0.00281227  0.000331   ... -0.00032527 -0.0011682
  0.00967009]","[-0.0054283   0.00039309  0.00337157 ... -0.00066538 -0.00259812
  0.0015113 ]","[ 0.00520976 -0.00113196 -0.00440303 ...  0.00457493 -0.0021347
 -0.00301809]","[-0.00078974 -0.00256339 -0.00361422 ... -0.0007541  -0.00939696
  0.00116599]","[ 6.7790858e-03  5.2405147e-05  4.4152298e-04 ... -2.3481557e-03
 -1.9518432e-03  6.9363178e-03]","[-0.00393256  0.00126078  0.00647045 ...  0.00145274 -0.00544299
 -0.00270155]","[-7.1299230e-03 -3.9567039e-03 -7.0519112e-03 ...  3.2182883e-03
  1.8558779e-03 -8.1558122e-05]","[-0.00157472 -0.00242091 -0.00363507 ... -0.00314368 -0.00387502
  0.00831879]","[ 0.0050804  -0.00199484 -0.00392246 ...  0.00233234  0.00212767
  0.00299037]","[ 0.00235558  0.00919695  0.00324843 ...  0.00889131 -0.00408356
 -0.00126632]",[0.00278266 0.00082111 0.00010609 ... 0.00291508 0.0018341  0.0027036 ],"[ 0.0060158  -0.0011626  -0.0017181  ... -0.00541943 -0.00321399
 -0.0014117 ]","[ 0.0045329  -0.00254818  0.00526394 ...  0.00470335  0.00173404
  0.00327273]","[-0.00312902  0.00483013 -0.00204945 ...  0.00062372 -0.00495288
 -0.00403295]","[-0.00313262  0.00253805  0.00427165 ... -0.00505146 -0.00127335
  0.00230891]","[ 0.00122501 -0.00640018  0.00351108 ... -0.00054892  0.00241784
 -0.00340798]","[ 0.0025871  -0.00161321 -0.0026466  ... -0.00341956  0.00860247
 -0.00578575]","[-0.00350568 -0.00051095 -0.00229363 ...  0.00971197 -0.00050959
 -0.00274382]","[ 0.00887281  0.00687048 -0.00032845 ... -0.00491742 -0.00779431
 -0.00355184]","[-0.000395   -0.00343097 -0.00628666 ... -0.01070967 -0.00571894
 -0.00083987]","[ 0.00798152 -0.00342797  0.00906342 ... -0.00177738  0.01660672
 -0.00202078]","[-0.00431332 -0.0037065   0.00026254 ...  0.00041113 -0.00345731
 -0.00464239]","[ 0.00206196  0.00457554 -0.00128283 ... -0.00179237 -0.0013798
  0.00863688]","[-0.0024315   0.00155965 -0.00693264 ...  0.00100803  0.0010471
 -0.00861184]","[-0.00148225 -0.0052951   0.00585963 ... -0.00439557 -0.00361442
 -0.0011268 ]","[ 0.00013989  0.00941766 -0.01167918 ...  0.0049746  -0.00169883
 -0.00327146]","[-0.00051367 -0.00240864  0.00049413 ... -0.00404968 -0.00035074
 -0.0058827 ]","[-0.00670625 -0.00291334  0.00429463 ...  0.00123515 -0.00298112
  0.0026126 ]","[ 0.00631442  0.00579072  0.00281618 ...  0.00033923 -0.00893235
  0.00684838]","[ 0.0033594  -0.00461385 -0.00423368 ...  0.00171551 -0.00288183
  0.00010847]",[0.00011393 0.00281355 0.00115814 ... 0.00454062 0.000474   0.00116326],"[-0.00308797  0.00356356 -0.00286767 ...  0.01022213  0.00545524
  0.00059126]","[-0.00444958  0.0004941  -0.0060402  ...  0.00349452 -0.00647616
 -0.00604552]","[-4.9194461e-04 -7.1516284e-03 -1.1364589e-05 ... -1.0288562e-02
 -1.0644057e-02 -1.4045102e-03]","[-0.00028315  0.00497452  0.00172536 ...  0.00014532 -0.00554076
 -0.00299014]","[-4.1897297e-03 -6.2724208e-03  3.3618980e-03 ...  3.6451172e-03
  8.1590078e-05  1.7000984e-03]","[ 0.00250424 -0.00391582  0.00388391 ... -0.00432431 -0.00051192
  0.00640529]","[-0.0056356   0.00328197 -0.0044585  ...  0.00441401 -0.00652764
  0.00174273]","[ 0.00053304  0.00366853 -0.00385492 ... -0.00146034  0.00291483
  0.00576078]","[ 0.00212095 -0.00195752  0.00034559 ...  0.00902168  0.00366366
 -0.00276271]","[ 0.00469251 -0.00232842  0.00346944 ...  0.00084394 -0.0001888
  0.00130834]","[-0.00402373  0.00540755  0.00270633 ...  0.00690354  0.00085019
 -0.00187625]","[-0.00488429 -0.01157473 -0.0069747  ... -0.00457698 -0.00268844
 -0.00427859]","[-0.00783125  0.00463627 -0.00059482 ...  0.00446287 -0.00187711
  0.00682593]","[-0.00153543  0.00391169 -0.00512223 ...  0.0023596  -0.00111512
  0.00014743]","[-0.00526569  0.00401505 -0.00160679 ...  0.00457547  0.00134376
  0.00066363]","[-0.00074302 -0.00092974 -0.00210278 ... -0.00416226 -0.0001075
 -0.00095675]","[ 0.00113666 -0.00478435 -0.00152241 ... -0.00473121 -0.0008043
 -0.00102996]","[-0.00283591  0.01144927 -0.00806367 ... -0.00131765 -0.00620304
 -0.00655353]","[-0.00731425  0.00422168 -0.00507999 ... -0.00200865  0.00325811
  0.00279571]","[-0.00201595  0.00482217 -0.00267406 ...  0.00043918  0.00063512
  0.00087459]","[ 1.0486058e-02 -9.5263477e-03 -3.1484901e-03 ...  8.8906563e-05
 -2.6915828e-03 -4.9178964e-03]","[-0.00761027 -0.00234516 -0.00695723 ... -0.00591965 -0.00763692
 -0.00439413]","[-0.00179676  0.00074312 -0.00136941 ... -0.00376498  0.00090586
  0.00116293]","[-0.00577212  0.00930553  0.00389734 ...  0.00368198 -0.00358009
 -0.00253391]","[-0.00241188  0.00496649  0.00240901 ... -0.00054027 -0.00377222
 -0.00496078]","[ 0.00339471  0.00708213 -0.00225417 ... -0.00101828  0.00749519
  0.0051606 ]","[-0.00469703 -0.00334388  0.00476572 ...  0.00128611 -0.00079764
 -0.00287602]","[-0.00206954  0.00110423 -0.00264039 ...  0.00336182 -0.00613934
  0.00263056]","[-0.00521669 -0.00100281 -0.0018511  ... -0.0023138   0.00238669
 -0.00401067]","[ 0.00179601 -0.00240554 -0.00068347 ...  0.00185173 -0.00226818
 -0.00784022]","[-0.0039905   0.0045401   0.00581318 ... -0.00854949  0.00111576
  0.00130437]","[ 0.00133438  0.00241541  0.00513784 ... -0.00625083  0.00429331
  0.00188368]","[ 0.00053014 -0.00134777 -0.00306788 ... -0.00468832 -0.00279126
  0.00745568]","[-0.00122969  0.00891583 -0.00965776 ...  0.01206139 -0.00211705
 -0.00469471]","[ 0.00053581  0.00251201 -0.00735237 ...  0.00034522 -0.00250378
 -0.0042773 ]","[-0.00040294 -0.00246682  0.00356347 ... -0.01170808  0.00345217
  0.00183119]","[-0.0006741  -0.00694991 -0.00381635 ... -0.00098095 -0.00709523
  0.00265386]","[ 0.00743686 -0.00251773  0.0046099  ... -0.00134328 -0.00825312
 -0.00352162]","[-0.00281552 -0.00068619 -0.00554818 ...  0.00088794  0.00655092
  0.00396912]","[-0.00530346 -0.00236636 -0.01198016 ...  0.0078867   0.00264795
 -0.00143075]","[-6.1093117e-03 -4.2049196e-03 -7.0391488e-03 ...  6.2242802e-03
 -2.0659478e-05 -1.2168487e-03]","[-0.00721261  0.00383974 -0.00057991 ... -0.00513666 -0.00645396
 -0.00133703]","[ 0.00233754  0.00554821  0.00154744 ...  0.00573013 -0.0033976
  0.0013052 ]","[-0.00090358  0.00140217  0.00940021 ... -0.00438311 -0.00646969
 -0.002209  ]","[ 0.0001452   0.01004694  0.00152867 ... -0.001691    0.00140041
 -0.00272356]","[-0.0021912  -0.00938725 -0.00381565 ...  0.00354952 -0.00065426
  0.00543102]","[ 0.00291764 -0.0035313   0.00054256 ...  0.00751064  0.0013974
 -0.00460757]","[-0.00722787  0.00211782  0.00246824 ...  0.0056618   0.00117635
 -0.00437054]","[ 0.00182935  0.01200271 -0.00510403 ...  0.00333298  0.00091658
  0.0043105 ]","[-0.00041529  0.00560902 -0.00532694 ... -0.00314034 -0.00155278
 -0.00486743]","[ 2.3637791e-03  1.9730793e-03 -2.7333286e-03 ... -7.5782514e-03
 -3.3639113e-03  5.2579297e-05]","[ 0.00523417 -0.00562542  0.01135458 ...  0.00149611  0.00066172
 -0.00120347]","[-0.00578106 -0.00370261  0.01282454 ... -0.00258064 -0.0024124
 -0.00484666]","[-0.00131788  0.00254629  0.00375144 ... -0.00086863  0.00048964
 -0.00810352]","[-0.00028021  0.00014258 -0.00030273 ... -0.00585558  0.00061011
 -0.00628966]","[ 0.01105703 -0.00261368  0.00075943 ...  0.00289088 -0.00612964
 -0.00187237]","[ 0.00742944  0.01136899  0.0028433  ... -0.003541    0.00138626
  0.00287765]","[ 0.0006134  -0.00571771 -0.00073918 ... -0.00586979  0.00070765
 -0.00670638]","[ 0.00316249 -0.00269243  0.00226926 ...  0.01036282 -0.00607912
  0.00467723]","[-0.00301389 -0.00290748  0.00655238 ...  0.00563535 -0.00087794
 -0.0057089 ]","[-0.00300298 -0.00195003  0.00243131 ... -0.00535986 -0.00133267
 -0.00101487]","[-3.1098940e-03 -5.6915977e-03 -3.0270345e-03 ...  9.2084483e-05
  4.5163138e-03  6.6274672e-04]","[ 0.00368037  0.00076596  0.00475972 ...  0.00203855  0.00485892
 -0.00072214]","[ 0.00349288  0.00434875 -0.00538129 ... -0.00260885 -0.00144636
  0.00047807]","[-0.00650172 -0.00585546  0.00329717 ... -0.00374333 -0.00744511
 -0.00671015]","[-0.00234036 -0.0024849   0.00225011 ... -0.0033965  -0.00899204
 -0.00157921]","[ 0.00503046  0.00036277  0.00109812 ... -0.00235034  0.00288297
  0.00102989]","[-0.00028673  0.0020704  -0.00253434 ... -0.00221314  0.00832105
  0.00672859]","[ 0.00330285 -0.00061741 -0.00190154 ...  0.00140832 -0.00339546
  0.0037854 ]","[-5.5262056e-04 -3.1428488e-03  1.5197765e-03 ... -4.4229422e-03
 -4.6563233e-05  1.3116135e-03]","[ 0.0017489  -0.0024902  -0.00385123 ... -0.00293696 -0.00470254
 -0.00837182]","[-0.005729   -0.01156229 -0.00763834 ... -0.00578027 -0.00051794
 -0.0072529 ]","[ 0.0029285   0.00345848  0.00353687 ... -0.00628545  0.00105912
  0.00876123]","[ 0.00414562 -0.00083654  0.00587164 ...  0.00154439  0.00569388
  0.00011412]","[ 0.00270451 -0.00309388 -0.00149362 ...  0.00173045  0.00245459
 -0.00146256]","[ 2.1895692e-03 -4.5547560e-03 -4.5816042e-03 ...  7.2524659e-03
 -3.6169791e-03  4.9712533e-05]","[ 0.00220815  0.00433844 -0.00476825 ...  0.00078759 -0.00497267
 -0.00254576]","[ 0.00276936  0.00590415 -0.00687843 ...  0.00561857  0.00633249
 -0.00270086]","[-0.00659949 -0.00114043  0.00085159 ... -0.00566372 -0.00611277
 -0.00672624]","[ 1.2436592e-03 -4.7713471e-05 -3.8015160e-03 ... -2.2468809e-03
  1.1299296e-03  1.5757813e-03]","[ 0.01063075 -0.00110782 -0.00367655 ... -0.00088897 -0.00751655
  0.00073411]","[ 0.00159093 -0.00126499 -0.00897764 ...  0.00111592 -0.00457794
  0.00485878]","[-0.00557731  0.00181288 -0.00478669 ... -0.00122288 -0.00143116
 -0.00502304]","[ 0.00151453 -0.00016685  0.00135985 ... -0.00595745 -0.00045952
 -0.00025399]","[-0.00634127  0.00454013  0.00363472 ...  0.01077196 -0.01276587
 -0.00011952]","[-0.00062897  0.00103002 -0.00219484 ...  0.00391386 -0.00760114
 -0.00257123]","[ 0.00185551 -0.00369184 -0.00183405 ... -0.00437902 -0.00081937
 -0.00407792]","[ 0.00209203  0.00332791 -0.00328993 ...  0.00279551 -0.00274619
 -0.00175806]","[ 0.00211821  0.0005034  -0.00097072 ... -0.002219   -0.00758725
  0.00608151]","[ 0.00313235 -0.00100719  0.00403358 ...  0.01017128 -0.00291527
 -0.0008333 ]","[-0.00752165  0.00515836  0.00471001 ... -0.00012807 -0.00713896
  0.00479788]","[ 0.0032815   0.00378327  0.00466192 ... -0.00469134  0.0009992
 -0.00251389]","[ 0.01219189 -0.00019213  0.00097426 ...  0.00275652  0.0051681
  0.00080364]","[ 0.00414643  0.00376171  0.00048183 ...  0.00355601  0.00044653
 -0.00195902]","[-0.00405069  0.00628931  0.00419953 ...  0.00059787 -0.00304026
 -0.00547161]","[-0.00395172 -0.00640942 -0.00516797 ... -0.0054122  -0.00155679
 -0.00577036]","[-0.00094996 -0.00688309  0.00323804 ... -0.00094422  0.00720376
 -0.00069736]","[-0.00242392  0.00552906 -0.0022558  ...  0.0013462  -0.00142025
  0.00646456]","[-0.00782039  0.00317357 -0.00025913 ... -0.00241433 -0.00130006
 -0.00631505]","[ 0.00331417 -0.00159254 -0.00771164 ...  0.00221814  0.0034567
 -0.00792881]","[-0.00254623  0.00741272  0.00110305 ... -0.005461   -0.00379149
  0.00090739]","[-0.00113196 -0.00677458 -0.00374157 ... -0.00099829 -0.00529312
 -0.00337247]","[-0.00052891  0.00101162  0.00227697 ... -0.0003622  -0.00105177
 -0.00858156]","[ 0.00223621 -0.00818758  0.00434698 ... -0.00292738 -0.00261087
  0.0029558 ]","[-0.00057255 -0.00380931 -0.00116626 ...  0.00241053  0.00201461
  0.00015333]","[-0.00544264 -0.00388194  0.00052316 ...  0.0016117   0.00308691
 -0.00331405]","[ 0.0057056  -0.00566435  0.0018726  ...  0.0024586  -0.00058196
  0.00375278]","[ 0.00292705 -0.00896331  0.00800008 ... -0.00082221 -0.00643597
  0.00603597]","[ 1.2334476e-05 -6.8245423e-03 -2.6567056e-04 ... -3.5641683e-04
 -1.8540453e-03  3.0713994e-03]","[ 0.00070959 -0.00360674  0.0001341  ...  0.00128127 -0.00092058
  0.00695437]","[ 0.00729901 -0.00033575  0.00339258 ... -0.00370221  0.00145952
  0.00110625]","[-0.00966217  0.00306983  0.00316996 ...  0.00778283  0.00056004
  0.00042177]","[-2.0635074e-03  2.4814462e-05  4.8585865e-03 ...  3.1402884e-03
  4.9512209e-03 -5.2772467e-03]","[-0.00673351  0.01283535 -0.00561201 ... -0.00432186 -0.00347315
  0.00033221]","[ 1.0173495e-02  8.2640538e-05 -8.3785737e-05 ... -1.6625507e-03
 -3.4414190e-03  3.3596205e-03]","[-1.7755481e-03  4.6248217e-03  9.7423414e-04 ...  4.6835659e-05
  4.0825983e-03  2.6167475e-03]","[ 0.00365495 -0.00070783  0.00632787 ... -0.00214641 -0.00374697
 -0.00522675]","[-8.3871307e-03 -1.9402875e-03  6.9323187e-03 ... -7.3506646e-03
 -7.2213565e-03  7.7860032e-06]","[-4.8430776e-03 -4.7694552e-03  3.2909233e-05 ... -9.8114591e-03
  3.1349747e-03  8.1270551e-03]","[-0.00339448  0.0035205   0.00108613 ... -0.0072208   0.00564177
 -0.00306103]","[-6.2420904e-03 -2.8965673e-03 -1.4873977e-03 ...  8.1526153e-03
 -4.1432907e-03  8.1591979e-06]","[-0.00490345  0.00039897 -0.00357602 ... -0.00502114  0.00188815
  0.00637389]","[-8.14578598e-05 -1.06904395e-02  4.76077246e-03 ...  5.38504031e-03
 -7.31338296e-05  1.64095708e-03]","[ 0.00410185  0.00454387 -0.00090948 ... -0.00496229  0.00838363
 -0.00279951]","[ 0.0063197  -0.00316254  0.00149683 ... -0.00822674  0.00425891
  0.00184047]","[-0.00201406 -0.00824151 -0.00140734 ...  0.005885   -0.00171305
 -0.00170698]","[-0.00523672  0.00065472  0.00395484 ... -0.0013475  -0.00495028
 -0.00090314]","[ 0.00437987 -0.00141222  0.0021094  ...  0.00479135  0.00043566
 -0.00035   ]","[-0.00566339 -0.00462609  0.00104653 ...  0.00429907 -0.00432964
  0.00233959]","[-8.3832350e-03  1.9949542e-03 -5.0882180e-03 ... -6.9024565e-05
  1.5361401e-03  3.6758997e-03]","[ 0.00688051 -0.00353501 -0.00122598 ... -0.00335235  0.00789299
  0.00041488]","[ 0.0050916   0.00126025  0.00267394 ... -0.00291608  0.00338129
  0.00396222]","[-0.00410021 -0.00233528  0.00617141 ... -0.00451795  0.00117534
 -0.00386014]","[-0.00058566  0.00124148  0.00514533 ... -0.00335881 -0.00083282
  0.00387019]","[ 0.00020829  0.00119138 -0.0042551  ... -0.00028154  0.00369711
 -0.00967962]","[-2.2286917e-03  8.8262532e-05  6.4314133e-04 ...  1.6248137e-03
 -3.8575081e-03 -1.6525997e-03]","[ 0.00450578 -0.00153866  0.00600644 ... -0.0015971   0.00896869
  0.00249365]","[ 2.8798593e-05  1.0028789e-03  2.4927130e-03 ...  6.0798083e-03
  5.6311879e-03 -1.9594051e-03]","[-0.00446087 -0.00817942 -0.00023538 ... -0.00484355 -0.00296009
  0.00172407]",[0.00509068 0.00292746 0.00847536 ... 0.00078872 0.00607892 0.00131317],"[-0.00102984  0.00454458 -0.00134179 ... -0.00146197 -0.00257007
 -0.0016833 ]","[ 0.0032054  -0.00039241  0.00047428 ... -0.00112233 -0.0050834
  0.00070662]","[-5.6349305e-05  2.1382829e-03 -2.8485989e-03 ... -6.5489169e-03
 -2.8561770e-03  8.4359385e-04]","[-0.0003572   0.00256769 -0.00529325 ... -0.00432394 -0.0058983
 -0.00470907]","[-0.006783    0.00327052 -0.0043334  ... -0.00380165  0.0054956
  0.00932295]","[-0.00287682  0.00065073  0.00713063 ... -0.0057312  -0.00143964
 -0.0055033 ]","[ 0.00598789 -0.00561196  0.00446079 ...  0.00183312  0.00353705
 -0.0042788 ]","[-0.00405869  0.00205008 -0.00256898 ... -0.00014011  0.00569116
 -0.0017752 ]","[ 0.0051696   0.0018136  -0.00105809 ...  0.00342963  0.00298595
 -0.00030708]","[-0.00262188 -0.00361106  0.00446352 ... -0.00131901  0.00121612
  0.00113523]","[-0.00859876  0.00573659 -0.00229322 ...  0.00074902  0.00094481
 -0.00624417]","[ 0.00649323 -0.00919955  0.00399858 ... -0.00012968  0.00102359
  0.00097543]","[-0.00253119 -0.00190199 -0.00206889 ... -0.0010005   0.00057669
  0.00755213]","[ 0.00220094  0.00055819 -0.00269223 ... -0.00537328  0.00227343
 -0.00111981]","[ 0.00056924  0.00020945 -0.00473101 ...  0.00630542 -0.00053741
  0.0007503 ]","[ 0.00422096 -0.00072273  0.00596194 ... -0.00728005 -0.00424113
  0.00098768]","[ 0.00030776  0.00333628  0.0044406  ...  0.00418759 -0.00303318
  0.00207857]","[-0.00136998  0.00377982 -0.00547758 ... -0.0043335  -0.00436044
 -0.00075316]","[ 0.00557923  0.00114549 -0.00123005 ...  0.0034332  -0.003482
  0.00237604]","[-0.00333639  0.00368286 -0.00252224 ... -0.00171153  0.00339903
 -0.00187784]","[ 0.00369678 -0.00180838 -0.00278306 ...  0.00184352  0.00454775
  0.00057525]","[-0.00462318 -0.0015453   0.00803337 ... -0.00405168 -0.00463896
 -0.00269535]","[ 0.00212981 -0.00737992 -0.0056489  ...  0.00300104  0.00790227
 -0.00207294]","[ 0.00111098  0.01260213  0.003085   ...  0.00215652 -0.00069916
  0.00155595]","[ 0.00511182  0.00038202 -0.00734931 ... -0.00361251 -0.00188774
 -0.00615592]","[ 0.00589217 -0.00351776 -0.0014158  ... -0.00395682  0.00025259
 -0.00200167]","[ 0.00617674 -0.00383    -0.00162638 ...  0.00023297 -0.00186745
  0.00044962]","[ 0.00786201 -0.00561103  0.00251236 ...  0.00302064 -0.00506868
 -0.00348366]","[ 0.00571588  0.00615373 -0.0043253  ...  0.00013843  0.00257207
 -0.00280837]","[-0.00910415  0.00282998 -0.00821998 ...  0.0035581  -0.00677723
 -0.0064717 ]","[-0.003956    0.00086696  0.00489869 ...  0.00747892  0.00284345
 -0.00472582]","[-0.00233153 -0.00212718 -0.00494694 ... -0.00981751 -0.00570626
 -0.0059598 ]","[-0.00453486 -0.00571214 -0.0048431  ... -0.00169529  0.00050266
 -0.00260755]","[-0.00895324  0.00142294  0.00236566 ...  0.00076751  0.0022255
 -0.00487973]",[0.00138394 0.00112952 0.00674986 ... 0.00473177 0.00737226 0.00218395],"[ 0.00047886  0.00096153 -0.00245277 ... -0.01042507  0.0024414
  0.00190214]","[-0.00512364  0.00213348  0.00204775 ...  0.00223581  0.00236299
 -0.00530626]","[-0.00211448 -0.00415427 -0.00302415 ... -0.00098066 -0.0028292
 -0.00206511]","[ 0.00161387 -0.00492091  0.00163016 ...  0.0034139  -0.00343037
 -0.00404869]","[-0.00914993 -0.00611725 -0.00315483 ... -0.00626901 -0.00555809
 -0.00750939]","[-0.00190993  0.00035691 -0.0039343  ... -0.0098582  -0.0009068
 -0.00557484]","[ 2.4024093e-04 -6.0842285e-05  9.2958137e-03 ...  4.7903056e-03
  3.8091273e-03 -1.4295329e-03]","[ 0.0046299  -0.0006304  -0.00060398 ... -0.00186095  0.00204323
  0.00259828]","[-0.00321084 -0.00424074  0.00311025 ...  0.00111973 -0.00121148
 -0.00284717]","[-0.00367753  0.00618365 -0.00155429 ... -0.00363267 -0.00123228
  0.0084078 ]","[ 0.00046549  0.01000884 -0.00439738 ...  0.00839942 -0.00191167
  0.00366532]","[-0.00102812 -0.00824446 -0.00217777 ... -0.00274994 -0.00073962
  0.00548901]","[ 0.00410703  0.00113728  0.00327311 ...  0.00125313  0.00577636
 -0.00297316]","[-0.00998361 -0.00323379 -0.00170585 ...  0.001288    0.00367993
  0.00162065]","[-0.00045355  0.00121845 -0.005689   ...  0.0033631  -0.00242907
 -0.00413239]","[ 0.00603487  0.00161478 -0.00228894 ...  0.00689096 -0.00716128
  0.00364019]","[ 0.00505218  0.00157219 -0.00055591 ... -0.00929666 -0.00694738
 -0.0025992 ]","[ 2.9801133e-03 -8.1672921e-04 -2.4772822e-03 ...  1.5951498e-05
  3.7387253e-03 -2.3612496e-03]","[-0.0068637   0.00325915  0.00792185 ... -0.00343701  0.00444893
 -0.00099822]","[ 6.3424204e-03  2.7709201e-03 -8.4185056e-05 ...  6.3123163e-03
 -5.5786632e-03  3.9371001e-03]","[ 0.00094167 -0.00155388 -0.00237696 ... -0.00095336  0.00220876
  0.00156558]","[ 0.00130814  0.00619646 -0.00012834 ... -0.00519316  0.0036105
  0.00419816]","[-0.00336809 -0.00443966 -0.00262154 ... -0.00052713 -0.00317164
 -0.00133577]","[ 0.00012543  0.00052558  0.00231055 ...  0.00213195  0.00106394
 -0.00496108]","[-0.00204208 -0.00283378  0.00245665 ... -0.00146787 -0.0002902
  0.00231944]","[-0.00427568 -0.00071042  0.00417371 ...  0.00442787  0.0027326
  0.00240153]","[-0.00135692  0.00726184 -0.00654407 ...  0.0009427   0.00112927
  0.0050536 ]","[ 0.00050051 -0.00084532  0.00021412 ...  0.00232872  0.00217984
 -0.0008238 ]","[-2.7449979e-03  5.5136381e-05  3.3529531e-03 ... -1.6184157e-04
 -2.8964342e-03  5.6006480e-03]",[0.00556581 0.00251216 0.00066249 ... 0.00858079 0.00122752 0.00504672],"[-0.00430071  0.00322831  0.00053553 ... -0.00154749  0.00451121
  0.0009848 ]","[-0.00864974 -0.00273234  0.0009592  ... -0.00458768  0.00593335
 -0.00377237]","[ 0.00204465  0.01386368  0.00138835 ... -0.0034407  -0.00160695
  0.00068506]","[-0.00467901 -0.01444793 -0.00198702 ...  0.00081788 -0.00357468
  0.00681805]","[ 0.00851999  0.00712337 -0.00486874 ... -0.00257216 -0.00322112
 -0.00279493]","[ 0.00135906  0.00095404 -0.00634537 ...  0.00089795 -0.00168273
  0.00309376]","[-0.00158879 -0.00349435 -0.00337999 ... -0.00537725 -0.0051313
  0.00624142]","[-0.00813963 -0.00126551 -0.0062255  ... -0.00516563  0.00481718
 -0.00167253]","[ 0.00207424 -0.00160143 -0.00429133 ...  0.00039695  0.00483387
  0.00294657]","[-2.7711091e-03 -4.0000575e-04  2.6249995e-03 ...  5.5214321e-05
 -3.5482419e-03 -2.6231383e-03]","[ 0.00440881 -0.00130339  0.0018699  ... -0.00596359 -0.00103794
 -0.00295234]","[ 0.00201483 -0.00395209 -0.00204034 ...  0.01320277 -0.00069771
 -0.00353397]","[ 0.00042119 -0.00181344 -0.00289192 ...  0.00387419 -0.0048187
  0.00653496]","[-0.00655418 -0.00141923 -0.00718766 ...  0.00102631 -0.00135687
 -0.00350955]","[-0.00294632  0.00345087 -0.00170801 ... -0.00304223 -0.0039251
  0.00520738]","[-0.00968474 -0.00187885  0.00177014 ...  0.014338    0.0014958
  0.00147108]","[ 0.00515334 -0.00267332 -0.00886547 ... -0.01034696 -0.00575385
  0.00142673]","[-0.00196073 -0.00135608 -0.00695632 ... -0.00125763 -0.00670626
 -0.00603412]","[-6.1792764e-03 -3.6292160e-05 -4.5340572e-04 ... -4.6364581e-03
 -1.7905204e-03 -5.6876442e-03]","[ 0.00403639  0.0060663  -0.00148838 ...  0.00507469  0.00127758
  0.0004952 ]","[-0.00336873  0.00301358  0.00495679 ...  0.00598834  0.00528614
 -0.00471006]","[-0.00821069 -0.00101476 -0.00127348 ...  0.00072728  0.00191158
 -0.0016152 ]","[-0.00028809  0.00418277  0.00998737 ...  0.00025203 -0.01180727
 -0.00554168]","[ 0.00805161  0.00090091  0.00134047 ...  0.01646868 -0.00196772
 -0.00657968]","[-0.00417162  0.0033837   0.00471968 ...  0.0021113  -0.00411189
 -0.00363755]","[ 7.2259312e-03 -2.4566245e-03 -2.8456017e-04 ...  3.3800437e-03
 -9.8315315e-05 -3.7732620e-03]","[ 0.01387904 -0.00415239  0.00374449 ...  0.00283487  0.0036348
  0.00947148]","[-2.0312441e-06  2.4164554e-03 -1.9961414e-03 ...  6.9871000e-03
 -8.3505698e-03  2.8524047e-03]","[-1.1603965e-02  3.5506251e-04 -4.4316789e-03 ... -1.6024361e-03
  2.4953186e-05 -5.7621542e-03]","[ 0.00368169  0.00231451  0.00601489 ... -0.00243806 -0.00011226
 -0.00432381]","[-0.00157233 -0.00238699 -0.00811036 ... -0.0060547  -0.00481093
  0.00543955]","[ 0.00380883  0.01325402 -0.0076812  ... -0.00402462  0.00452112
 -0.00320453]","[-0.00514723  0.00527284 -0.00282688 ...  0.00089577 -0.00082114
 -0.00201066]","[ 0.00827953 -0.01110637  0.00259804 ...  0.00041351 -0.00638165
 -0.00268274]","[-0.00096318 -0.00471571  0.00601843 ... -0.00221488 -0.00399352
 -0.00647671]","[-0.00030369  0.00371754  0.00417051 ... -0.00258205 -0.00536068
 -0.00072048]","[ 0.00559592 -0.00248341  0.00645722 ... -0.00060752 -0.0006071
 -0.00445812]","[ 0.00569597 -0.00117068  0.00044724 ...  0.00027344  0.00030145
  0.00435378]","[ 0.00130696 -0.0014615  -0.00239229 ... -0.00194324 -0.00779228
 -0.00112739]","[ 0.00671263 -0.00747166  0.00074099 ... -0.01011681 -0.00114556
 -0.00129854]","[-0.00055981  0.01091455 -0.00168026 ...  0.0118819  -0.00298087
 -0.00452536]","[-0.00196901 -0.00481482 -0.00346255 ...  0.00106505  0.0011093
  0.00076835]","[ 0.00167303 -0.00379584 -0.0073442  ... -0.00703995 -0.01155224
 -0.00094289]","[-0.00291841  0.00040904  0.00416597 ... -0.00023779  0.00205778
  0.00707897]","[ 8.4918244e-03 -3.8812414e-03  7.5729261e-03 ... -4.8462865e-03
 -2.1497554e-03 -8.6546992e-05]",[0.00463168 0.00180634 0.00452953 ... 0.00716129 0.00428218 0.00219484],"[-0.00067485 -0.00265717  0.00209348 ... -0.00448827 -0.00632069
  0.00614072]","[-1.9836922e-03  8.2155137e-05 -3.7567317e-04 ... -8.6610233e-03
  3.9148391e-03 -4.4989833e-03]","[ 0.00203907 -0.00289067 -0.00226731 ... -0.00068192  0.0066995
 -0.00680292]","[ 0.0046323   0.00231877 -0.00494419 ... -0.0044777  -0.00405627
 -0.00015294]","[-0.00366869 -0.00323183 -0.00205941 ...  0.00344585 -0.00222473
 -0.00330601]","[-0.0061838   0.00045168  0.00159978 ... -0.00318817  0.00323637
 -0.00428736]","[ 0.0014216  -0.00613183  0.00050501 ...  0.0049455   0.003324
  0.0002453 ]","[ 0.00317604 -0.00361057  0.00403247 ... -0.00391249 -0.00551059
 -0.00422197]","[ 0.00547658  0.00152033 -0.00591493 ...  0.00838165 -0.00342864
  0.00147677]","[ 0.00046656 -0.00305855  0.00248582 ... -0.00131019 -0.00403338
 -0.00046308]","[ 0.00309014  0.00206    -0.00228886 ...  0.00673238 -0.00028714
  0.00073776]","[-0.00570763  0.00306779 -0.00758045 ...  0.00173698 -0.00361376
  0.00603228]","[-0.00746346 -0.00729672 -0.00800523 ... -0.0044341  -0.00744968
 -0.00124138]","[-0.00106115  0.00280411 -0.00045011 ... -0.00394649 -0.00606775
  0.00344637]","[-0.00072128 -0.00105275 -0.00257652 ... -0.00052014  0.00281175
 -0.00338238]","[-0.00045276 -0.00282323  0.0036957  ... -0.00571569 -0.00187528
 -0.00041914]","[ 0.00161806 -0.005259   -0.00196741 ... -0.01140238 -0.00310677
  0.00610554]","[-0.00595989 -0.00683313 -0.00316873 ...  0.0042037  -0.00805521
  0.00192078]","[-0.00883684 -0.00370293 -0.00857609 ...  0.00138194 -0.00354344
 -0.00684072]","[-0.00073863 -0.00626386  0.00031878 ...  0.00204736  0.00106375
  0.00135688]","[ 0.00495529  0.01003062 -0.00368639 ...  0.00517527 -0.0051678
 -0.00218036]","[-0.00522921 -0.00560447 -0.00595991 ...  0.00393626 -0.00727611
 -0.00273924]","[-0.00073495 -0.00099255 -0.00140947 ...  0.00111997  0.00631893
 -0.00033899]","[-0.00053297  0.00234712  0.00241107 ...  0.00033135  0.00134812
 -0.00453238]","[ 0.00085792 -0.00132529 -0.00318879 ... -0.01117557  0.00173416
  0.00239351]","[-0.00264848  0.0004485  -0.00250197 ... -0.00614551  0.00080549
  0.00437458]","[-0.00245183 -0.00361785 -0.0062999  ... -0.00519709 -0.00128478
 -0.00598365]","[-0.00209778 -0.00098676 -0.00342734 ...  0.00079396 -0.00746777
 -0.00214653]","[-5.4326048e-03 -1.0897133e-02 -2.2746851e-03 ...  5.4637836e-05
 -8.9689520e-06 -6.1796084e-03]","[ 0.00923504  0.00391817 -0.00463945 ...  0.00131572  0.00338691
 -0.00314041]","[-0.00292929  0.00149817 -0.00255954 ... -0.00506557  0.0035405
  0.00550306]","[-0.00616157 -0.00598755 -0.00581659 ...  0.00729234 -0.00252407
  0.00047317]","[-0.00612931  0.00053212 -0.0041107  ...  0.00037816 -0.00632462
  0.00082136]","[-0.00464954  0.00425045 -0.00684441 ...  0.00660615 -0.00338212
  0.00064364]","[-0.00168429  0.00091363  0.00153232 ... -0.00387806 -0.00344257
 -0.0011579 ]","[ 0.00053721 -0.00814702  0.00142462 ...  0.00377165  0.0026977
  0.00209637]","[-0.00170637  0.00951675 -0.00143428 ...  0.00431612 -0.00107066
 -0.00252921]","[-0.00234394 -0.00323841 -0.00279035 ...  0.00651106 -0.00285483
 -0.0005317 ]","[ 0.00087378  0.00335051  0.00313948 ... -0.00372344  0.00049409
  0.00133898]","[ 0.00390834  0.00427998 -0.00210322 ... -0.00081301 -0.00068301
  0.00643373]","[-0.00418391 -0.00655307  0.00661224 ...  0.00941422 -0.00431513
 -0.00091346]","[-0.00266061  0.00417271 -0.01192812 ...  0.00012611  0.00681527
 -0.00785885]","[ 4.80755372e-03  3.37490020e-03  3.53942881e-03 ... -3.89781453e-05
  2.89070886e-03 -1.20990626e-04]","[-0.0017404   0.00016926 -0.00037988 ... -0.00658706  0.00700606
 -0.00445167]","[-0.00509101  0.00078852 -0.00509592 ... -0.00378327 -0.00573174
 -0.00646349]","[-0.00252755  0.00680632  0.0014792  ...  0.00096783 -0.0093298
 -0.0033423 ]","[ 0.00119548  0.00399992 -0.0013714  ... -0.00180911  0.00172422
 -0.00578272]","[-0.00738138 -0.00505283 -0.00041688 ... -0.00631705 -0.00745851
 -0.00646276]","[ 0.0015495  -0.00068476 -0.00261559 ... -0.00529326  0.00203211
 -0.00191623]","[ 0.00104596 -0.00093904  0.00138065 ... -0.00394476  0.00483279
  0.00255767]","[-0.00063078 -0.00607721 -0.0023671  ...  0.00117653  0.01041114
 -0.00054144]","[-0.00013326 -0.00049691 -0.00086053 ... -0.00077729 -0.00610963
 -0.0057835 ]","[ 0.0033915  -0.0033007  -0.00493528 ... -0.00360463 -0.00366134
 -0.00512819]","[ 0.0017518  -0.00058105 -0.00552332 ...  0.00169366 -0.00581777
 -0.00507666]","[-0.00654067 -0.0056371  -0.00112161 ...  0.0021637   0.00337185
 -0.00233915]","[ 0.00133226  0.00071607 -0.00556722 ...  0.00484659  0.00266643
 -0.00373428]","[-0.00307824 -0.00326546 -0.00846002 ...  0.00715936  0.00424902
 -0.00026262]","[-0.00753328 -0.00023626  0.00321859 ... -0.00616018 -0.00020083
 -0.00093938]","[ 0.00151711  0.00841221 -0.00071695 ... -0.00398531 -0.00069356
 -0.00572752]","[-0.00499118 -0.00658729 -0.00196922 ... -0.00577519  0.00554543
 -0.00556565]","[ 0.00338603  0.0046585   0.00370379 ...  0.00800718  0.00197625
 -0.00372742]","[-0.00142729  0.00344304 -0.00189055 ... -0.00166563 -0.00051869
  0.00474872]","[-0.00588474 -0.00521653 -0.00238397 ... -0.00590987 -0.00226731
 -0.00211429]","[-0.00319708 -0.00573461  0.00203338 ... -0.0059412   0.00190674
 -0.0026958 ]","[-0.00456317  0.00288972 -0.00193386 ... -0.00491146 -0.00733496
  0.00568288]","[-0.00060402 -0.00102783 -0.00299865 ...  0.00239139  0.00407728
 -0.00623915]","[ 0.00064207 -0.00448457 -0.00269687 ...  0.00953277  0.00972118
  0.00084858]","[ 0.00286526 -0.0019162  -0.00885023 ...  0.00040775 -0.00217166
 -0.00638956]","[ 0.00027019  0.00443351 -0.00153573 ...  0.00068745 -0.00375254
 -0.00800407]","[-0.00436382 -0.0007482  -0.00277998 ... -0.00287262 -0.0038909
 -0.00475847]","[-0.0004236   0.0015879  -0.0038504  ...  0.00090336  0.0016017
 -0.0044369 ]","[-0.00041364  0.00265411 -0.0005078  ...  0.00050584  0.00207992
  0.00608936]","[ 9.0610556e-04 -5.7627242e-03 -2.8187949e-06 ... -4.5129256e-03
  4.8595603e-04  2.4519861e-03]","[-0.00095782 -0.00046369 -0.00439716 ... -0.00023178 -0.00640339
  0.00028485]","[-0.00447584 -0.00116463 -0.00460559 ... -0.00332831 -0.0029721
 -0.00576869]","[-0.00158779  0.00137384 -0.0065015  ... -0.00239629  0.00429265
 -0.00393842]","[-0.00238551 -0.00499414 -0.00568605 ...  0.00425129  0.00190335
 -0.00039832]","[ 0.00031727  0.00251096 -0.00188402 ...  0.00406568 -0.00413068
 -0.00042952]","[ 0.00911519  0.00339327  0.00282788 ... -0.00373614  0.00511764
 -0.00497209]","[-0.00554308  0.00493521 -0.00310935 ...  0.00156278  0.00080261
 -0.00565811]","[-0.00504883 -0.00137904  0.00154236 ...  0.00237039  0.0035774
 -0.00038053]","[ 6.3161706e-03 -7.3867966e-05 -1.3860010e-03 ... -1.1097915e-03
 -6.6641057e-03  4.3725190e-03]","[ 0.00149629 -0.00072261  0.00610701 ...  0.0001203  -0.00777885
  0.00023818]","[-6.8579367e-03  7.5833332e-03 -4.6362658e-03 ... -6.6386573e-03
 -9.8877732e-05 -2.0636809e-03]","[-0.00535628 -0.00249475 -0.00170869 ...  0.00010218 -0.00011801
  0.00144061]","[-4.5451536e-03  1.4151403e-03 -2.8813905e-03 ... -4.7385587e-05
 -1.4070862e-03 -1.0930441e-03]","[ 0.00388723 -0.00457062  0.00669377 ...  0.00664748 -0.00592974
  0.00257953]","[ 0.00266936  0.00285585 -0.00431796 ...  0.0019465   0.00158772
  0.00263384]","[-0.00162941 -0.00856903  0.00079709 ... -0.00111251  0.00089033
 -0.00588897]","[ 0.00697836  0.0030288  -0.00114888 ...  0.0013348   0.00019409
  0.00042042]","[ 7.2386828e-03 -2.2664655e-03 -8.4182473e-05 ... -4.2435326e-04
  4.5942067e-04 -1.5153891e-03]","[-0.00135537 -0.00463195  0.0012291  ... -0.00308037  0.00040955
  0.00337972]","[ 0.00018427 -0.00099619  0.00108654 ...  0.0039974   0.0025222
 -0.00031848]","[ 0.00160072  0.00392773  0.0067653  ... -0.00474184 -0.00793716
  0.00496027]","[-0.00395295  0.00418285  0.0028515  ... -0.00560131 -0.00743257
 -0.0016513 ]","[-0.00620593  0.00074191  0.00063038 ...  0.00249441 -0.00390955
  0.00407905]","[ 0.00912171  0.00530569  0.00043218 ... -0.00898411 -0.00399665
 -0.0018836 ]","[-0.00617962  0.00187665 -0.00637832 ... -0.00519649 -0.00217191
 -0.00620568]","[-0.00630349  0.001728    0.0013293  ...  0.00278614 -0.00755582
  0.00087707]","[ 7.5618467e-05  2.7126458e-03  3.7943157e-03 ... -7.0694252e-03
 -3.2153027e-03 -2.4711436e-03]","[ 0.00487824  0.00312885 -0.002153   ... -0.00129325  0.0043485
 -0.00281474]","[-0.00876019 -0.00016803 -0.00454458 ... -0.00476557 -0.00853756
 -0.00036403]","[ 1.0370514e-03 -1.8600773e-03 -2.7564450e-04 ...  3.8925835e-05
  9.1710704e-04  1.2464164e-03]","[-0.00256389  0.000394    0.00352154 ... -0.00715083 -0.00304592
  0.00217632]","[-0.00406255 -0.00176961 -0.00259208 ... -0.00018657 -0.00034529
  0.00113796]","[-0.00204465 -0.00350326 -0.00099729 ...  0.00736334  0.00700085
 -0.00160987]","[ 0.00620887  0.01278544  0.00655413 ... -0.00053158  0.00874863
 -0.00466649]","[-0.00267901  0.00010522  0.00119217 ...  0.00497621  0.00400047
 -0.0039603 ]","[ 0.00416814  0.00020477 -0.00220519 ... -0.00320012  0.00213844
 -0.00078648]","[ 0.00448524 -0.00198654  0.00664418 ... -0.00114699  0.00891315
 -0.00188735]","[ 0.00825948 -0.00217759 -0.00198636 ... -0.00088749 -0.00483785
  0.00082604]","[ 0.00546417  0.00222585  0.00105895 ... -0.00280065 -0.00065314
 -0.00316451]","[ 0.00681257  0.00713005 -0.00087332 ...  0.00501701 -0.00168602
  0.00202291]","[ 0.01085327  0.0007255   0.00194452 ... -0.00467589 -0.00213251
  0.00245582]","[-0.0046614   0.00278615 -0.00207158 ...  0.00371405 -0.00701489
 -0.002699  ]","[-0.00747646 -0.00926766  0.00602322 ... -0.00544451 -0.0084637
  0.0045036 ]","[ 0.00417994 -0.00703036  0.00245375 ... -0.00391598  0.0009557
  0.00185378]","[-0.00324296 -0.0032912  -0.00459732 ...  0.00403372 -0.00426276
 -0.00412629]","[-0.00457541 -0.00466685  0.00372922 ... -0.00093149 -0.00212801
 -0.00339651]","[ 0.00737378  0.00412236 -0.00060959 ...  0.0047552  -0.00576601
  0.00639318]","[ 0.00666117  0.00224582  0.00747714 ... -0.00143224 -0.00189878
 -0.00047846]","[-0.00087095  0.00623568 -0.00532611 ...  0.00636251 -0.0047173
  0.00019672]","[-0.00267309 -0.00944579  0.00460842 ...  0.00152323  0.00566278
 -0.00458525]","[-0.00296529 -0.00315613  0.00144843 ... -0.00368853  0.00551666
  0.00268753]","[-2.8867825e-04 -2.3913679e-04  2.9326477e-03 ... -7.9869489e-05
  8.2928210e-04  1.5304274e-03]","[-0.00228229 -0.00247742  0.00561493 ...  0.00141399 -0.00400936
 -0.00137985]","[ 0.00536108  0.00515728  0.00310341 ...  0.00541238 -0.00254584
  0.00085134]","[-0.00344703 -0.00876547  0.00257273 ...  0.00544292  0.00307892
 -0.00562041]","[ 0.00471334 -0.00577549  0.00627507 ...  0.00634075 -0.00119883
 -0.00128209]","[-0.00334043 -0.00685328  0.00594872 ...  0.00326428  0.00251111
  0.00801719]","[-3.5059020e-05  3.3525932e-03  8.8992827e-03 ...  6.7130425e-03
 -1.3747516e-03 -9.6654585e-03]","[ 0.00051026  0.00277924 -0.00276766 ...  0.00404872 -0.00035712
  0.00127785]","[ 4.8685507e-03  1.1233403e-02  7.0960135e-03 ...  2.1422871e-03
 -3.7932140e-03 -1.2839264e-05]","[-0.00385101  0.00338074 -0.00303133 ...  0.0048886   0.00745653
  0.00331426]","[-0.00122785 -0.00385167 -0.00532046 ... -0.00044799 -0.00333664
 -0.00188633]","[-1.2405225e-03 -9.3798299e-05  7.9574399e-03 ... -2.5392051e-03
 -7.8558847e-03  2.0645284e-03]","[ 0.00544146 -0.007864    0.00548818 ... -0.00430569 -0.00344531
  0.00523211]","[-0.00266605  0.00631356 -0.00059333 ... -0.00111433 -0.00757061
